
    // Select all (Ctrl+A), Copy (Ctrl+C), paste to an empty text file (Ctrl+V) and save that file as 'generated_code.h'
    // 
    // Auto-generated header file. Assumes img to be a floating point array
    // of 64 elements (corresponding to an 8x8 b&w image)

    #include <math.h>

    float norma_TT;
    
inline float activation_TT_0 (float x, float n) 
{ return x > 0 ? x : 0;}
inline float activation_TT_1 (float x, float n) 
{ return x > 0 ? x : 0;}
inline float activation_TT_2 (float x, float n) 
{ return x > 0 ? x : 0;}
inline float activation_TT_3 (float x, float n) 
{ return x > 0 ? x : 0;}
inline float activation_TT_4 (float x, float n) 
{ return x > 0 ? x : 0;}
inline float activation_TT_5 (float x, float n) 
{ return x > 0 ? x : 0;}
inline float activation_TT_6 (float x, float n) 
{ return x > 0 ? x : 0;}
inline float activation_TT_7 (float x, float n) 
{ return x > 0 ? x : 0;}
inline float activation_TT_8 (float x, float n) 
{ return x > 0 ? x : 0;}
inline float activation_TT_9 (float x, float n) 
{ return exp(x)/n;  }

    float guess_TT (const float *img, int flag)
    {
    
  // Declare the arrays in the stack
  const float kernel_0[57][50] = 
  {{   0.0301623512059,  -0.1990579217672,   0.1304178684950,   0.1890391409397,  -0.0680126547813,   0.0528066977859,   0.2200653254986,  -0.0119410790503,   0.0158754158765,  -0.0324895083904,   0.1656574010849,  -0.1265943497419,   0.1724720448256,   0.0237569473684,  -0.1424765437841,  -0.0184355657548,  -0.2560510933399,  -0.0507103428245,   0.0368079915643,  -0.0541309639812,   0.0602240376174,  -0.0181381404400,  -0.0244635269046,  -0.0431179068983,   0.1071150973439,  -0.1975706070662,  -0.1632937788963,  -0.0401243716478,   0.1725369840860,  -0.0025253584608,  -0.2150014489889,  -0.1815925985575,  -0.1213689967990,  -0.1980387270451,  -0.1961003392935,  -0.1703129708767,   0.0386595949531,  -0.0873182043433,   0.0649885088205,  -0.1033972799778,   0.0761616006494,  -0.1705953031778,   0.1996193528175,   0.0790074765682,  -0.1402007937431,   0.2337457835674,  -0.0414586998522,   0.1459365934134,   0.1448417901993,   0.1781151592731},
   {  -0.2268090844154,  -0.1152597144246,   0.0980249643326,   0.0367466062307,   0.0057724439539,  -0.0600846745074,  -0.0022500089835,  -0.0431045070291,   0.1429873704910,  -0.0740527883172,  -0.0870448350906,  -0.0471725910902,   0.1906031072140,   0.0109718516469,   0.1681967228651,   0.1588039845228,  -0.1588818579912,  -0.1097587347031,  -0.0079645253718,   0.1931515783072,  -0.0697291418910,  -0.0905000939965,  -0.0763904303312,   0.1318517029285,  -0.0436118841171,   0.0634615197778,   0.2168668359518,  -0.1632850766182,   0.1498057842255,  -0.0703643634915,   0.1985513269901,  -0.0858637616038,   0.0429691597819,  -0.0136192543432,  -0.0060617174022,   0.0538141466677,   0.0702546089888,   0.1392089575529,  -0.0699029415846,  -0.0760706663132,  -0.1849931627512,   0.1321319192648,  -0.1960929334164,   0.1782289892435,  -0.0316645391285,   0.0862113237381,   0.0324422866106,   0.1747925579548,   0.0352788567543,   0.1669932007790},
   {  -0.0957973301411,   0.0408672019839,  -0.1948815733194,   0.0706279426813,   0.0973019227386,  -0.2175325155258,  -0.1405736804008,  -0.1661589741707,   0.1552104204893,  -0.2091704905033,  -0.2255024462938,  -0.1714072823524,   0.0263323783875,  -0.0155943958089,   0.1120567768812,  -0.0975637286901,  -0.0078157763928,  -0.0523296296597,  -0.1474258750677,  -0.1445365995169,  -0.2351194769144,  -0.1543415039778,  -0.1929889470339,   0.1495673060417,   0.1975748836994,  -0.1553772538900,   0.0861061289907,  -0.1677440553904,  -0.0978862941265,   0.1454586535692,   0.1443699300289,   0.1078108176589,  -0.0063844858669,   0.0682428330183,  -0.1607631742954,   0.0984423980117,  -0.0591920278966,   0.1473657637835,  -0.0774245932698,  -0.0395034216344,   0.0077467015944,  -0.2129133790731,   0.1459023803473,  -0.0262604113668,   0.1554717272520,   0.1041400581598,   0.1254839450121,   0.0487173683941,   0.0618300139904,  -0.1651995480061},
   {  -0.0315531119704,   0.1203732788563,  -0.0671029090881,   0.0972012206912,  -0.1724026799202,   0.1791910976171,   0.0082425046712,   0.0906958132982,   0.0481470488012,   0.2064435034990,   0.0942753255367,   0.1883173435926,  -0.0860004723072,  -0.0613201335073,   0.0541494041681,  -0.2053408622742,  -0.0952498540282,  -0.2155790477991,   0.1891187727451,   0.0726394429803,  -0.0131218507886,  -0.0253766309470,  -0.0361093394458,  -0.2245185226202,   0.1244713962078,  -0.2325137406588,   0.0884400606155,   0.1362705230713,   0.1611979752779,  -0.1203844025731,   0.1105747371912,   0.0122637310997,  -0.1680301278830,   0.0287270210683,  -0.0114302486181,  -0.1016600504518,   0.0496391765773,  -0.0717863515019,   0.0168221555650,  -0.0488083213568,   0.0626221373677,  -0.0580543614924,   0.1552565395832,  -0.1413692533970,  -0.1699421107769,   0.2434259057045,  -0.1971214860678,   0.1395813077688,   0.1457921564579,   0.0890506654978},
   {   0.1910994499922,   0.1655677855015,   0.0755849927664,  -0.1183628439903,  -0.1280288249254,  -0.0749320238829,   0.0199749618769,  -0.1530712395906,  -0.0804945528507,  -0.0889149829745,  -0.0736518651247,  -0.0886226221919,  -0.2171345800161,  -0.1187633872032,  -0.1494524329901,   0.1398895978928,   0.0903632268310,  -0.0614408552647,   0.0871560797095,   0.0540455617011,  -0.1020145490766,   0.1614339500666,  -0.1845398247242,   0.1696488857269,   0.2325545996428,   0.0879352986813,  -0.1914308816195,   0.0734051689506,  -0.0083314925432,  -0.2163873165846,  -0.1057051345706,   0.0850300490856,   0.0433936342597,  -0.1613162308931,  -0.1947705149651,   0.0804883539677,   0.1160399019718,  -0.1465943306684,   0.1035734117031,  -0.0146865872666,   0.1058070808649,   0.0867818668485,   0.0559576302767,  -0.2610854208469,   0.1538558006287,   0.0315854139626,   0.1679976135492,   0.1689708828926,  -0.2437120378017,   0.1470723301172},
   {   0.2467560768127,   0.2488035112619,   0.0330091416836,   0.1130246892571,   0.0100650656968,  -0.2153148949146,  -0.0512666553259,   0.1994278728962,  -0.1192985847592,  -0.0617908425629,   0.0080312071368,   0.0567736662924,  -0.1395594179630,  -0.1309330910444,   0.2013162374496,   0.1761831939220,  -0.0192117039114,   0.0875258594751,   0.0918231159449,   0.0007313417736,   0.1790145486593,  -0.1638969480991,  -0.1048549488187,  -0.1227825060487,  -0.1762235611677,   0.1624920517206,  -0.1750133186579,  -0.2283620536327,   0.1939612925053,   0.2050354778767,   0.0853814855218,   0.1889379769564,   0.0819615423679,   0.0151471262798,  -0.1313275247812,   0.1128085628152,   0.1049225553870,  -0.1624618321657,   0.2134706974030,   0.1445048898458,  -0.1839285045862,   0.2416079789400,  -0.0661409422755,  -0.0317939035594,  -0.1760071963072,  -0.0305390469730,  -0.0501144900918,   0.1721545755863,  -0.0388507246971,   0.0092723993585},
   {   0.0333822183311,  -0.1397887319326,   0.1905356645584,   0.0054304571822,  -0.0786568000913,  -0.2364562898874,  -0.0795918256044,   0.2020952105522,   0.0291051883250,  -0.0344823710620,   0.2650497257710,  -0.0336770638824,  -0.0210416056216,  -0.1600364893675,  -0.1189062446356,  -0.2110238969326,  -0.1795956641436,  -0.1133534684777,   0.0804689228535,   0.1215801239014,  -0.1736359596252,  -0.0773891061544,  -0.1965926885605,   0.1129388213158,  -0.0371282957494,   0.1662309169769,  -0.2119706273079,   0.0474751926959,   0.1903986781836,   0.1950653344393,  -0.0267546344548,  -0.1833654195070,   0.0836435481906,  -0.0296590812504,  -0.0809113383293,  -0.0718307644129,  -0.0803839340806,   0.0973598733544,  -0.0842201411724,   0.0168403759599,  -0.1156299710274,  -0.1414222121239,   0.2323543727398,   0.1959000974894,  -0.1158059388399,  -0.1355755776167,   0.1768822968006,  -0.1564146876335,  -0.1554466485977,  -0.0537414699793},
   {  -0.0259784907103,  -0.0613072998822,  -0.1818506121635,   0.1391781270504,  -0.0336071699858,  -0.1150924861431,   0.0244277287275,   0.1420832425356,   0.0552063435316,   0.2008548229933,  -0.1932490020990,  -0.2416210770607,   0.2444519847631,   0.0414950028062,   0.1586734205484,  -0.1654085218906,  -0.0083789341152,   0.0855339244008,   0.2298922240734,   0.0513656176627,  -0.1200402900577,   0.0544754602015,  -0.0468217842281,  -0.0194542445242,   0.1678710579872,   0.1117937564850,   0.1520496159792,   0.0817811489105,  -0.1607187688351,  -0.1752703487873,   0.0322196446359,  -0.0724016800523,   0.1774051934481,  -0.2346757054329,   0.0400870926678,   0.1899201124907,  -0.0422153361142,   0.1551152020693,   0.1192077323794,   0.0381581597030,  -0.1041943803430,   0.1118659302592,  -0.0963867083192,  -0.1164170876145,  -0.2304906547070,   0.0860956609249,   0.0710704550147,   0.1868568211794,  -0.0188092198223,   0.1793384253979},
   {   0.0760007724166,   0.1119922026992,  -0.0630710050464,  -0.0670303478837,   0.0115243038163,   0.0621047392488,   0.2030609697104,   0.1920345872641,   0.0823233425617,  -0.1775100082159,  -0.0663650333881,   0.1396255791187,   0.0875728428364,  -0.1045705974102,   0.1870221346617,   0.2440579235554,   0.1183223426342,  -0.0879962593317,  -0.0930809676647,   0.2338934093714,   0.0046300659887,  -0.1967193186283,  -0.1960338503122,   0.0315608493984,   0.0131310094148,   0.0295729935169,  -0.2275303751230,  -0.1117603108287,  -0.1115827038884,   0.0075622177683,   0.2025993615389,   0.2098444104195,   0.1570922136307,   0.1113798096776,  -0.1579927355051,   0.0924861654639,   0.1697697639465,   0.1021920815110,  -0.2480878382921,  -0.1135250777006,  -0.0011721161427,   0.1186336353421,   0.1160771995783,   0.2413938939571,   0.0747957304120,  -0.1391254663467,   0.2577232420444,   0.0126618323848,  -0.1651238501072,  -0.1589381396770},
   {   0.2093882858753,   0.1445193290710,   0.0459495931864,  -0.0621808208525,   0.1093870624900,  -0.1700426638126,  -0.0400073342025,  -0.1524494588375,   0.0842248499393,  -0.2547484934330,  -0.2088959366083,   0.2197647094727,   0.1203494966030,  -0.0340304374695,   0.0839214026928,   0.0080185066909,  -0.1910765767097,   0.0055615692399,  -0.0976649299264,  -0.1899465620518,  -0.0532773248851,   0.1344785094261,  -0.0054606688209,  -0.1308033317327,   0.1203366592526,   0.2075908482075,  -0.1576513350010,  -0.0232712440193,   0.0445257835090,  -0.0003977229062,  -0.0362087748945,   0.2416842579842,  -0.0441544577479,   0.2094140499830,   0.0890738368034,  -0.1477262675762,   0.2294194996357,   0.1838143914938,  -0.1631191074848,  -0.1185637190938,   0.1781408786774,  -0.1332259327173,   0.1388665139675,   0.0393171273172,  -0.1491194665432,   0.2272475510836,   0.2044841051102,   0.1758719384670,  -0.1322342306376,  -0.1054633259773},
   {   0.0367809459567,  -0.1059568598866,   0.1211820468307,  -0.1168019473553,   0.2062691599131,   0.2162480801344,   0.2006857395172,   0.0745244622231,   0.0220915898681,   0.0141112552956,   0.1600983440876,  -0.1006147712469,   0.2020271569490,  -0.1548323184252,  -0.0672463849187,  -0.1097294688225,  -0.2369163185358,  -0.1834977567196,   0.2248007059097,  -0.0467981137335,  -0.1801756918430,   0.1340188235044,   0.1367421895266,  -0.1873850375414,  -0.0428517125547,  -0.0927461534739,  -0.1461015045643,   0.1984893679619,   0.2191237360239,   0.0165759194642,   0.1119555532932,  -0.2232531011105,  -0.1586044430733,  -0.1065498590469,   0.1217405050993,   0.1669991463423,   0.1919692903757,   0.2567737698555,  -0.2276466935873,  -0.1048361510038,  -0.2295356243849,   0.1730015575886,  -0.2501183450222,   0.0866297259927,  -0.0666036531329,   0.0766243711114,  -0.0550798922777,   0.2124430388212,  -0.0402357317507,  -0.2481163144112},
   {  -0.1892953515053,  -0.1890509426594,  -0.2151394486427,  -0.0301885604858,   0.1828275769949,   0.1123953610659,  -0.0871059894562,   0.0271428208798,  -0.1021472811699,   0.1549673825502,  -0.1013034805655,  -0.2587275505066,  -0.1849358528852,   0.1089749410748,   0.1282433569431,  -0.1125053614378,  -0.1829919517040,   0.1079189926386,   0.1110557615757,   0.0461403280497,   0.0697203129530,  -0.1326036900282,  -0.1025179624557,  -0.2303890138865,  -0.0449317023158,  -0.1739875674248,   0.2300700843334,   0.1424459517002,  -0.1137788146734,  -0.1823471039534,  -0.0750808194280,  -0.0631447210908,  -0.2069817036390,  -0.1032905653119,   0.0901642665267,  -0.0765261501074,   0.1569183468819,   0.0721370875835,  -0.1341173797846,  -0.2175146341324,   0.1152440235019,  -0.2186138629913,  -0.1106745600700,  -0.0952834710479,   0.1677035838366,  -0.1969367712736,   0.2026436477900,   0.0102061936632,  -0.1327211111784,  -0.1211253181100},
   {  -0.2368878126144,   0.2232281416655,  -0.1517402827740,  -0.2606696188450,  -0.2180935889482,   0.1420073360205,   0.1304634511471,   0.1758384555578,  -0.0371361002326,  -0.1244383975863,   0.0235991161317,  -0.2317860722542,   0.1202072426677,  -0.0305326376110,   0.1672201156616,  -0.0402758605778,   0.1417036950588,   0.1890658438206,  -0.1974376440048,   0.1237945407629,  -0.2360459864140,   0.0480508394539,   0.2116209864616,   0.1232965812087,  -0.0972619429231,  -0.1183653995395,   0.2041836977005,   0.2350959330797,   0.0235471501946,  -0.1026391834021,   0.1071923300624,  -0.0228347908705,   0.0324954316020,   0.1251886785030,   0.0330193154514,   0.2144624292850,  -0.2078178972006,   0.1265397816896,  -0.1598716080189,  -0.0894384086132,  -0.1221234649420,  -0.1477251201868,  -0.0891479551792,   0.1289865821600,   0.2164485454559,   0.1730893999338,  -0.0109589751810,  -0.0793195441365,  -0.2251857370138,   0.0288823451847},
   {  -0.1737162768841,  -0.0539343766868,  -0.1662077605724,   0.0249772723764,  -0.1449377089739,   0.2401011735201,  -0.0422620847821,  -0.1368997842073,  -0.1439155638218,   0.0149349216372,   0.0643305107951,   0.1826941817999,  -0.1436794549227,   0.1070655137300,  -0.0195978451520,  -0.1784519255161,  -0.0974464341998,  -0.1713432371616,  -0.0931508615613,   0.1652894318104,  -0.1180210486054,   0.1874263435602,   0.0730762556195,  -0.0472735203803,  -0.0122577957809,  -0.0915902554989,   0.1754984706640,  -0.0564970932901,   0.1203558817506,   0.0350611321628,  -0.0882425159216,  -0.0862514227629,  -0.1682274639606,  -0.2148418724537,   0.1305976808071,  -0.1047672256827,   0.0195988789201,   0.0758273750544,  -0.0078851133585,  -0.0724111869931,  -0.0850901156664,  -0.0359482318163,   0.0658517107368,  -0.2147435247898,   0.2509764432907,   0.0751899704337,  -0.0889692679048,  -0.0091469148174,   0.1261527538300,  -0.1955015957355},
   {   0.0920629873872,   0.0098834028468,   0.1545210331678,  -0.2144226580858,   0.1418645232916,  -0.2429750710726,   0.0561110116541,  -0.2567683756351,   0.1588284969330,  -0.2354709208012,   0.1835891902447,  -0.0677451044321,   0.0169478729367,  -0.1272070556879,   0.0363586395979,  -0.1661145091057,   0.0166717655957,  -0.0048825037666,  -0.1670545488596,   0.1748051345348,   0.1181256026030,  -0.0368064977229,   0.0330167114735,  -0.2013073414564,  -0.2253300249577,   0.1312478035688,   0.1559925675392,  -0.0541218593717,   0.1188117936254,   0.0783116668463,  -0.2316942512989,  -0.0407911539078,   0.1866344362497,   0.1320760250092,   0.1708444952965,  -0.0636990964413,  -0.0704611539841,   0.1656072437763,   0.0134735498577,  -0.0883413031697,   0.0173785947263,   0.1376157999039,   0.1334049701691,  -0.0566953346133,   0.0794859752059,  -0.1481776386499,  -0.2469984591007,  -0.0576334707439,  -0.0165513101965,   0.1044641435146},
   {  -0.0049758763053,  -0.1374158263206,  -0.1018415093422,  -0.1518114805222,   0.1290623843670,  -0.0792915970087,  -0.0889289528131,   0.0405668057501,  -0.1788180619478,   0.1894789785147,   0.0444949902594,  -0.1501388400793,   0.1209784671664,  -0.1640970408916,  -0.0458161011338,  -0.2000681906939,  -0.1334708631039,   0.1002372428775,   0.0292849782854,  -0.2012823522091,   0.0918673649430,   0.0317181497812,   0.0509195737541,   0.1194044947624,   0.1644272357225,   0.1629057079554,   0.1264537870884,  -0.1412812024355,  -0.0147716514766,  -0.2036966234446,   0.1983877122402,  -0.2061769515276,   0.0762688741088,  -0.0774561315775,   0.1739206761122,  -0.0475447848439,   0.0413323678076,  -0.0768806561828,   0.0989855006337,   0.0020101191476,   0.0413889996707,  -0.1915370523930,  -0.1064392849803,  -0.0386209748685,   0.0494465045631,  -0.1421395838261,  -0.1951688230038,   0.2221007943153,  -0.0623944997787,  -0.1696932464838},
   {  -0.2045519649982,  -0.0277671832591,   0.1720847487450,  -0.0556743852794,   0.1579855829477,  -0.0768694728613,  -0.1549254804850,  -0.0948474928737,   0.0928227454424,   0.2322291135788,  -0.0174036938697,  -0.1433424800634,  -0.1122163161635,  -0.0752888694406,   0.1944766193628,  -0.1240562126040,  -0.0440363734961,   0.1655370146036,  -0.0589860826731,  -0.0204886943102,  -0.0489555783570,   0.0318321660161,   0.2207402288914,   0.2163199931383,  -0.1486525684595,  -0.1949460506439,   0.1734530925751,  -0.0372738614678,   0.1812962442636,  -0.0702671110630,  -0.0510704144835,  -0.0078008784913,  -0.1954755634069,  -0.0736102014780,   0.0206559039652,  -0.0783638134599,  -0.2361960411072,  -0.1937382966280,  -0.2212549746037,   0.2117589563131,   0.1651627570391,   0.1430405229330,   0.1950160115957,  -0.0034336564131,   0.2281381636858,   0.0551553405821,   0.1544522047043,  -0.0946858152747,   0.2419309318066,   0.0255944002420},
   {   0.2282037585974,   0.0779737681150,   0.0935355797410,  -0.1710047125816,   0.0239904616028,  -0.0790371894836,  -0.2333634346724,   0.0356780141592,  -0.0990803539753,  -0.1087357029319,   0.1413945704699,   0.0510844774544,  -0.0028068465181,   0.0052986103110,   0.1639616787434,   0.0671872496605,   0.2388090342283,   0.1036643460393,  -0.1388788670301,  -0.0769952833652,   0.1408436000347,   0.0073958197609,   0.1727150827646,  -0.1059979349375,   0.0389790982008,   0.0740051567554,  -0.0015406766906,   0.2188219428062,  -0.0546047165990,  -0.1017789691687,   0.1933902055025,   0.0315435566008,   0.2215277999640,   0.1374128907919,  -0.0534171089530,  -0.2328068315983,   0.0468713864684,  -0.0902619957924,  -0.0176180265844,   0.0747031942010,  -0.1922171562910,   0.1209200695157,   0.1000258028507,   0.0003571190173,   0.1891153752804,   0.0843084454536,   0.1089134439826,  -0.1070399954915,   0.1698906421661,  -0.2190051227808},
   {   0.0107417851686,  -0.1587500870228,  -0.1250117868185,  -0.1054347157478,   0.0102432565764,  -0.1114652380347,  -0.0898510813713,   0.2545300424099,  -0.1807688921690,   0.1822104901075,  -0.1319754719734,   0.1843300908804,  -0.2433419525623,   0.1288939714432,  -0.1772772520781,   0.1681253761053,  -0.0073659764603,   0.0996531471610,   0.2011429220438,  -0.1773511022329,   0.0457443334162,   0.2179827094078,   0.0068461364135,   0.2114521414042,  -0.2270226925611,  -0.0138634089381,  -0.0820557326078,  -0.0043527605012,   0.0208600834012,  -0.0249001737684,   0.0622619241476,   0.0685738697648,   0.1261952221394,   0.2512280046940,   0.1546475291252,   0.0610285885632,   0.1150312051177,   0.0479971803725,  -0.0973102301359,  -0.0868661701679,  -0.1727435886860,   0.0748617127538,  -0.1294294297695,   0.0897034928203,   0.0987211912870,  -0.1028602123260,  -0.0377156287432,  -0.1580238491297,   0.0039434419014,  -0.1887753009796},
   {   0.1816540509462,   0.2075620293617,   0.1747223138809,   0.1294926404953,  -0.1324392706156,   0.0302763693035,   0.0594205409288,  -0.2112116962671,  -0.0065562590025,   0.2496728599072,   0.2436615228653,  -0.1086549907923,  -0.1743720769882,  -0.1810265183449,  -0.1505566388369,   0.1948708593845,  -0.1552082300186,   0.1569790542126,   0.1762676686049,   0.2056455016136,   0.1525485366583,   0.1136266440153,  -0.0306795835495,   0.1715010106564,  -0.0082661900669,  -0.2069508731365,   0.0188071187586,   0.1703090965748,  -0.0126049695536,   0.0713239982724,   0.1588364541531,  -0.0656881481409,   0.1058836132288,   0.0539533272386,  -0.1771299988031,   0.0407776273787,  -0.2435011118650,  -0.2028993368149,  -0.1879708021879,  -0.1516462564468,  -0.1004810407758,  -0.0844144597650,  -0.0763677209616,  -0.0974625051022,  -0.0066051152535,  -0.0515441000462,   0.2622320652008,  -0.1142243742943,  -0.1743163913488,   0.1499503403902},
   {  -0.1044966951013,   0.1248377114534,   0.1911575496197,  -0.0521242171526,   0.1963612139225,  -0.0014864645200,   0.0036268662661,   0.2372062504292,  -0.0978964641690,   0.0451517626643,  -0.0168795268983,   0.1780819296837,   0.1506508439779,   0.1711968332529,  -0.2323167622089,  -0.1660839319229,  -0.1199094951153,  -0.1046159788966,  -0.1605295091867,   0.0695506036282,  -0.0794987156987,  -0.2152549922466,  -0.1299874633551,  -0.0799961909652,  -0.0395361594856,  -0.1198866665363,   0.0094738993794,   0.1739028841257,  -0.1239385008812,  -0.1353038847446,  -0.1211657226086,  -0.0164022520185,  -0.2137674540281,   0.0530335903168,  -0.1983857452869,  -0.2238022983074,   0.0175312440842,   0.1902352422476,  -0.2544792890549,  -0.1122039631009,  -0.0664838925004,  -0.0047814836726,   0.0938580334187,  -0.0073258350603,  -0.1294337213039,  -0.0575763210654,  -0.0851620733738,   0.2067337036133,   0.1902616620064,   0.1802730709314},
   {   0.0253948457539,  -0.0302255228162,   0.2307533770800,  -0.0890647843480,  -0.0146372951567,   0.0414412096143,   0.0069480482489,  -0.1488372236490,  -0.1439406424761,  -0.0073633440770,   0.0594048760831,   0.0197239946574,   0.1342846304178,   0.0744011402130,   0.0476395078003,   0.0201775040478,   0.2097316384315,  -0.0991164296865,  -0.2423075586557,   0.1840020418167,  -0.0414949096739,  -0.0086447130889,  -0.1342396736145,  -0.1708236634731,  -0.1650504767895,   0.1040777266026,  -0.1548867374659,  -0.2170161753893,   0.0611399263144,   0.1647323369980,   0.0540076531470,  -0.1851477175951,  -0.0777124837041,   0.0449841842055,  -0.1574683785439,  -0.1512710303068,  -0.0870839431882,  -0.0951095223427,   0.1940680146217,  -0.0463556908071,  -0.0732606798410,  -0.0078197298571,   0.0346174500883,   0.1055451780558,   0.0978220328689,  -0.2315974384546,   0.0614895112813,  -0.0120871616527,  -0.0718588083982,  -0.0821714773774},
   {  -0.0003395907115,  -0.1749460548162,  -0.1995601952076,  -0.0391154401004,   0.0844805389643,   0.0958910584450,  -0.1249373033643,   0.1754838973284,  -0.1374732553959,   0.1296572685242,   0.0609815791249,   0.0882043093443,  -0.2081210166216,  -0.1769723743200,  -0.1597082316875,   0.1130086034536,  -0.1167172566056,  -0.1854897290468,  -0.1117316260934,   0.0117057077587,  -0.0864179283381,   0.0901541337371,  -0.1920408904552,   0.0159256029874,  -0.1064540967345,   0.0900362804532,  -0.0419835299253,  -0.1966899335384,  -0.0946111157537,   0.0736406296492,   0.0778198093176,  -0.1091674193740,  -0.1873692274094,   0.0133356256410,  -0.1842465549707,  -0.2210392355919,   0.0449555180967,  -0.1443884968758,   0.0993607640266,   0.1683508455753,  -0.1767116039991,   0.1310627907515,   0.2438568770885,   0.1449046581984,   0.1678992956877,   0.1172850653529,  -0.2060340791941,  -0.0148369884118,  -0.0325779169798,   0.2040156126022},
   {   0.0324248038232,   0.2372660785913,  -0.2265198975801,   0.0272812843323,   0.2193499356508,   0.0480390563607,   0.1340835392475,   0.0464844182134,  -0.1012372672558,  -0.0636496469378,  -0.1064706221223,  -0.1960728764534,  -0.1708263009787,  -0.1805754303932,  -0.1163239106536,  -0.1470718681812,  -0.0122346905991,  -0.0678902119398,  -0.0169334299862,  -0.1103193089366,   0.0500774942338,  -0.1593679934740,   0.0365930050611,   0.0731669217348,  -0.1645992696285,   0.0956807807088,  -0.1750933527946,  -0.1491115093231,  -0.0160768777132,   0.2030893564224,  -0.1777985543013,  -0.1427078098059,   0.1687885522842,   0.2320540249348,  -0.1638640463352,  -0.1043600142002,  -0.1238478869200,  -0.1550187319517,   0.0474297776818,  -0.2521866858006,   0.0343527607620,  -0.1842803955078,   0.1100212559104,   0.2457084506750,   0.1267608404160,   0.0963053107262,   0.1551436185837,   0.1830416768789,   0.1165096834302,  -0.0230007264763},
   {   0.1902566701174,  -0.0227990597486,   0.1819428950548,   0.1094069629908,  -0.0704442560673,   0.0751482769847,   0.1339344829321,  -0.1533028632402,   0.0872095972300,   0.0924725681543,  -0.0355715230107,  -0.0937303230166,  -0.1375557780266,  -0.1970287114382,  -0.0651737302542,   0.1108820438385,  -0.1383718550205,  -0.0866704136133,  -0.1299504786730,  -0.1901548504829,  -0.1901288181543,   0.1243388205767,   0.2076621204615,  -0.0142862424254,   0.1154397726059,  -0.0291963461787,  -0.1606692522764,   0.0892321988940,  -0.0651203244925,  -0.1202975437045,   0.1804440915585,  -0.0264312345535,   0.0043072020635,   0.0719599276781,   0.0298681911081,   0.1228704825044,  -0.1245630979538,   0.0819837749004,  -0.1107682138681,   0.0555016547441,   0.0863396078348,  -0.0741407424212,   0.1777760982513,   0.0357192568481,   0.0086365099996,   0.0743234530091,   0.2133021056652,  -0.2197893410921,  -0.0854270309210,  -0.1919836550951},
   {  -0.2200203388929,  -0.1727920323610,  -0.0194880906492,   0.0235251858830,   0.0474624522030,   0.1181413158774,   0.0930276960135,   0.0859041139483,  -0.2435798943043,   0.0034169296268,  -0.2010057717562,  -0.1155104488134,  -0.0358441919088,   0.1934548765421,  -0.1674407720566,  -0.1104316934943,  -0.1552509069443,  -0.0395506098866,  -0.0076114395633,   0.2273654043674,  -0.1616967320442,  -0.1082576364279,  -0.0768273249269,   0.0728077441454,   0.1389760077000,   0.1927929818630,  -0.1182686835527,   0.0122321126983,  -0.1328002363443,   0.2213971018791,  -0.0267041809857,  -0.2171099781990,   0.1315010786057,   0.1593032032251,   0.0784717425704,   0.2096604555845,  -0.1816243529320,  -0.0523308105767,  -0.0119539536536,  -0.0378198735416,  -0.0531746596098,   0.0497130751610,   0.1373898684978,   0.1740375310183,   0.2205730676651,   0.1715378314257,  -0.0378954336047,   0.1249962449074,   0.2001638561487,   0.0183899998665},
   {  -0.0108749819919,  -0.1531814932823,  -0.0681303218007,   0.1017211154103,   0.0425342805684,   0.1998567134142,  -0.0404272228479,   0.1815420240164,   0.0036223989446,  -0.0517678335309,   0.1294071525335,   0.2298752218485,  -0.0106057431549,   0.0908330604434,  -0.0941119417548,  -0.0679129064083,  -0.0901098474860,  -0.1713383197784,   0.2213952392340,   0.0512468032539,  -0.1262227296829,   0.0038835972082,  -0.2048398256302,  -0.1281443685293,   0.1892745494843,  -0.2235590219498,  -0.1710307896137,   0.0776772871614,  -0.2077435404062,  -0.0768986567855,  -0.0348907448351,  -0.0925548598170,   0.1352719515562,  -0.0560805946589,  -0.2229132503271,   0.0118683967739,  -0.0952597707510,   0.1367956548929,  -0.1963026374578,  -0.0980858802795,  -0.1095298454165,   0.2310050129890,   0.1228478029370,  -0.0721052959561,  -0.2224584817886,  -0.1721342355013,   0.1648891121149,   0.0019920857158,   0.0360302515328,  -0.1415032744408},
   {  -0.1163584962487,  -0.0225318260491,  -0.1542883217335,  -0.1040949374437,   0.1765281558037,  -0.1921842694283,  -0.1169884577394,   0.0924928858876,  -0.2073856443167,   0.0583024919033,   0.0118062933907,   0.2293243259192,   0.1448223441839,   0.0127742532641,   0.0230837613344,   0.1609864234924,  -0.1715152859688,   0.2077874690294,   0.0623608008027,  -0.1027437224984,   0.1111002266407,   0.2011741399765,  -0.2284631282091,  -0.1222427487373,  -0.2104372233152,  -0.0664541944861,   0.2168547362089,   0.2097211480141,   0.0007530868752,   0.0900344252586,   0.0933535620570,  -0.0187728460878,   0.0783960148692,  -0.0160402357578,   0.1090974956751,   0.1952928900719,   0.0730210542679,  -0.1935591995716,  -0.0457787699997,  -0.1423669308424,   0.0054791555740,   0.1512096822262,   0.0891268327832,   0.0782153755426,   0.0767024457455,  -0.0787702575326,  -0.1346288621426,   0.1493550986052,   0.0158650521189,   0.0053001260385},
   {   0.1729089021683,  -0.0120413014665,  -0.0120776956901,   0.1994216442108,  -0.2385331392288,   0.1594351381063,   0.2572259902954,  -0.2495201677084,   0.1742773801088,  -0.1290197670460,   0.0524780973792,  -0.2003403156996,   0.0331624113023,  -0.0501646474004,  -0.1878652423620,   0.1182542219758,   0.2145106196404,   0.1486104726791,   0.1487861275673,   0.1726705878973,   0.1253941208124,  -0.0629222914577,   0.0489559508860,   0.1127053275704,  -0.1620097905397,   0.2375018298626,  -0.0418396145105,  -0.1658172160387,   0.0046556671150,   0.1468675136566,  -0.2033576965332,   0.0332603007555,  -0.1941612213850,  -0.1557833850384,   0.1816268563271,   0.1557565629482,  -0.1889537125826,  -0.0036882527638,  -0.0500584468246,   0.0379246361554,   0.0571172758937,   0.0363367833197,   0.0253986362368,   0.2212236821651,  -0.1946066766977,  -0.0516017824411,  -0.0819698125124,   0.0504434108734,  -0.0594023130834,  -0.0000512812549},
   {  -0.1036059334874,  -0.1670031100512,  -0.0437684878707,  -0.0935152396560,  -0.1903712302446,   0.0164319518954,   0.0562125667930,   0.1831748634577,   0.1613015085459,  -0.0674995481968,   0.0702831000090,   0.0142268734053,   0.0550865717232,  -0.0124093145132,   0.0612329207361,   0.1454979181290,   0.2053790539503,   0.2354590892792,  -0.1498085409403,  -0.1857628822327,   0.1245623677969,   0.0085395099595,   0.1311375349760,   0.0177739243954,  -0.0668691545725,  -0.1115122735500,  -0.1445895433426,  -0.1167412400246,   0.2239058166742,  -0.1520779579878,  -0.0955630466342,   0.0740560516715,   0.0364763177931,  -0.1934133470058,  -0.1160490885377,   0.2453998625278,   0.0623879469931,  -0.0022885291837,   0.1608959287405,   0.0117664672434,  -0.0008932607016,   0.2092078477144,   0.0767496526241,   0.0014304132201,   0.0274352151901,   0.1557872444391,   0.1084729507565,  -0.1819972991943,  -0.0518662370741,  -0.1390242874622},
   {  -0.0091254906729,   0.2547597587109,  -0.1831934899092,  -0.1023090332747,  -0.1113234534860,   0.1376325190067,  -0.1921877413988,   0.1769504696131,   0.0634818896651,   0.1318202763796,   0.1365887969732,  -0.1509834229946,  -0.0978522747755,  -0.0466329641640,  -0.1349095851183,   0.1007596030831,  -0.0634136870503,  -0.0524992011487,  -0.0712088271976,   0.0142149636522,  -0.1602349430323,   0.2024545222521,  -0.2173440456390,   0.2013386636972,  -0.0987397208810,   0.1278691142797,  -0.1210937723517,   0.1981025487185,  -0.1589757502079,   0.0503635741770,   0.0810394808650,  -0.1446560174227,  -0.1680634021759,  -0.0563302785158,   0.0353320538998,   0.1685757637024,  -0.0912782624364,   0.0722889453173,  -0.1078086197376,  -0.2272076010704,  -0.0458172932267,  -0.0892589166760,   0.0360565520823,  -0.0139267062768,  -0.2055137604475,  -0.1163498088717,  -0.2103796303272,   0.0308369733393,  -0.0566721782088,   0.1697513908148},
   {   0.0731498003006,  -0.1099415272474,  -0.0998098477721,   0.1820609271526,   0.1171863302588,  -0.1845037192106,   0.0434233807027,  -0.0252376757562,  -0.2516792416573,   0.0901135876775,  -0.0979887619615,   0.1881438493729,  -0.1755302548409,   0.2279511988163,   0.1809071451426,  -0.1912607550621,  -0.1439858675003,   0.1656270921230,   0.1241760328412,   0.2409105449915,  -0.0550843849778,   0.1518508642912,   0.0309834629297,  -0.2260150760412,  -0.1996644437313,   0.0620344765484,   0.1839099973440,   0.1177399903536,  -0.1766685694456,  -0.1630124896765,  -0.0104596531019,   0.1207508668303,  -0.0453668348491,   0.0944031327963,  -0.1487629264593,   0.1631153076887,  -0.1277288645506,  -0.2036196142435,   0.1698572039604,  -0.2209858596325,   0.0132339335978,   0.0133185116574,   0.1211480498314,   0.2211974859238,   0.2289970666170,  -0.0385727621615,   0.0204984433949,  -0.0275064930320,  -0.1837694942951,   0.1068661585450},
   {   0.1293458938599,   0.0045777661726,  -0.1681052446365,   0.2103354036808,   0.0359745547175,   0.2143402397633,   0.0463982261717,  -0.1676693707705,   0.1982842832804,   0.0562883391976,  -0.0331000424922,   0.1826933473349,  -0.1745337843895,   0.1717103272676,   0.1385003179312,   0.0897072181106,   0.0704308748245,   0.2215971499681,   0.1960684061050,  -0.2342464029789,  -0.1428232342005,   0.1036306619644,   0.0548248589039,   0.0677391365170,   0.1842985898256,  -0.1493338346481,   0.0145220160484,   0.1180779039860,  -0.0118806026876,   0.1083095297217,  -0.0737145692110,   0.1096269041300,   0.0128280147910,  -0.2239831537008,  -0.1729744821787,  -0.0826592668891,   0.1942288130522,   0.0553270690143,   0.1616862565279,  -0.0417218767107,   0.0023817862384,   0.0339372456074,  -0.2420389205217,  -0.1627871394157,   0.1532002836466,   0.0194379091263,   0.1454523801804,  -0.1558357775211,   0.0433184131980,  -0.0722029432654},
   {  -0.2017280906439,  -0.0612765289843,  -0.1066864654422,   0.2145156711340,  -0.2235530316830,   0.0668847337365,  -0.0120627284050,   0.0931537002325,   0.0833334326744,   0.0838469341397,  -0.0941970050335,  -0.1939847320318,   0.0907543897629,   0.0897227972746,  -0.0475395768881,  -0.1142979711294,  -0.0553535148501,   0.1988299190998,  -0.1797459125519,   0.1614819616079,  -0.0682571381330,  -0.0015198299661,   0.1787193268538,  -0.2184265553951,   0.0214185733348,   0.1681699007750,   0.2065356075764,   0.1129974797368,   0.1916107088327,   0.0257641989738,  -0.1106671243906,  -0.1442995816469,   0.0324452482164,   0.0599955022335,  -0.0516057722270,   0.0918653905392,  -0.2199909836054,   0.0462903752923,   0.0516075529158,  -0.0685488581657,  -0.1390992105007,  -0.1559587568045,  -0.1087149009109,   0.0853883773088,   0.0788740962744,   0.1628207862377,  -0.0642014071345,   0.1189951822162,  -0.1058757156134,   0.1411480605602},
   {  -0.0190342664719,  -0.0583221875131,  -0.1923447549343,   0.1751423478127,   0.2024613320827,  -0.0670429393649,   0.0147220594808,  -0.0419195406139,  -0.1397953331470,  -0.0823554098606,   0.2100357711315,  -0.0238841995597,   0.1940189898014,  -0.0611957162619,   0.1879023462534,  -0.2232108414173,  -0.0496264845133,   0.0365236774087,   0.0192515235394,   0.1088830754161,   0.1393393576145,  -0.0498823709786,  -0.2042189687490,  -0.0531078018248,  -0.1931695938110,  -0.2292843610048,  -0.1822941452265,  -0.0976427718997,   0.2153300046921,   0.1400508582592,  -0.0920240283012,  -0.0697069391608,  -0.1019264236093,   0.1534832268953,   0.2242939025164,  -0.1276965737343,  -0.1262240558863,   0.0708737596869,   0.1634899526834,   0.1129136979580,   0.1251711547375,  -0.1933311820030,   0.1500573456287,   0.1128533557057,  -0.2057110816240,  -0.2254071980715,  -0.0804297626019,  -0.0269497428089,   0.0373610183597,   0.1026438772678},
   {  -0.0376682206988,   0.1775362789631,  -0.0141878193244,   0.0326186791062,  -0.0440394692123,  -0.2569943964481,   0.1176135912538,  -0.1354108154774,   0.2031058669090,   0.1148993819952,  -0.0710064992309,   0.0726959258318,  -0.0920171141624,  -0.0091068437323,  -0.0446980632842,  -0.1622355580330,   0.1161160096526,   0.0989797189832,   0.0367595590651,   0.1049739718437,   0.0489834770560,   0.1596873551607,   0.0296703297645,   0.1973711252213,  -0.0318479016423,  -0.2356016039848,   0.0036801539827,   0.1741959601641,  -0.2407440841198,  -0.2215379178524,  -0.0705546662211,  -0.0298054367304,  -0.1747516691685,   0.0232247170061,   0.1656112819910,   0.0054888976738,   0.0665023252368,  -0.0776084661484,   0.0065261120908,  -0.1705736517906,   0.1437263786793,   0.1775430291891,   0.2556598186493,  -0.2070484161377,   0.0578936673701,   0.1655932962894,   0.0549238510430,   0.0369780734181,  -0.1031633913517,   0.2658073008060},
   {  -0.2049366980791,  -0.0100730219856,  -0.0317186117172,  -0.2425754219294,   0.2185310423374,   0.1812636554241,  -0.1380959302187,  -0.2295755445957,  -0.0810327082872,   0.1202110275626,  -0.0150126665831,   0.0846878588200,  -0.1192321851850,   0.1969207078218,   0.0299238599837,   0.1212971583009,   0.0755022689700,   0.2103787511587,   0.0523469336331,   0.0885160490870,  -0.1728157103062,   0.2147709131241,  -0.2036136537790,  -0.1366041600704,  -0.0614275857806,   0.0047425543889,   0.1277897804976,  -0.1648700237274,   0.1730843782425,   0.1872714161873,   0.1156668737531,  -0.2097582519054,  -0.1221821829677,  -0.2229015082121,   0.0486767999828,  -0.0479504317045,  -0.1751042455435,   0.2013293504715,  -0.0456227809191,  -0.0205128230155,   0.1009842455387,   0.1832276135683,   0.1642131358385,  -0.1110862120986,   0.1114862337708,  -0.1379368603230,   0.1566712707281,   0.1944715827703,   0.1692713499069,  -0.0238158553839},
   {   0.1266011595726,   0.2098407745361,   0.1472958475351,   0.0003589201369,   0.1733817458153,  -0.0970852524042,   0.1032234802842,  -0.0023070182651,  -0.0552768595517,  -0.1009633168578,   0.1522688567638,  -0.0178648922592,  -0.1867170929909,   0.1466480195522,  -0.2164105176926,   0.0796742290258,  -0.0583021715283,  -0.1351097971201,   0.2057538181543,   0.0515867210925,   0.0544621534646,  -0.1673025786877,   0.1305944323540,   0.0533640831709,   0.1390406936407,   0.2043535858393,   0.0471065603197,   0.1885133683681,  -0.0380283482373,  -0.0162984542549,  -0.0560939200222,   0.1483601033688,   0.0119610559195,   0.1077496036887,  -0.2060089409351,  -0.0573778897524,   0.2059319466352,  -0.1414376646280,  -0.1320533007383,  -0.1750642508268,   0.0425807759166,  -0.1189137920737,  -0.2167844772339,   0.1593619734049,  -0.1386839896441,   0.1131898388267,   0.2311577051878,  -0.0337711833417,  -0.2075636684895,  -0.1875026375055},
   {  -0.0809636339545,   0.1238984316587,  -0.1122728511691,   0.1444749087095,  -0.0449655205011,  -0.1942620426416,  -0.1265488862991,  -0.0402549952269,  -0.2393959164619,  -0.1986522674561,   0.1555681079626,   0.1774880886078,   0.2195603698492,   0.1261344850063,  -0.1579238474369,   0.0862963497639,   0.0092005543411,   0.1424224078655,   0.2302980870008,  -0.1499882042408,   0.1494663506746,   0.0976331382990,  -0.0489640124142,   0.1517330408096,  -0.1001514270902,   0.1736916303635,  -0.0158358905464,   0.1082261651754,  -0.0417306087911,  -0.0374690294266,  -0.0475923195481,  -0.2308183461428,  -0.1410214155912,   0.1583683043718,  -0.1549922078848,  -0.2245174348354,  -0.0488214455545,   0.1843065321445,  -0.1920181512833,   0.0498248636723,   0.0883515849710,  -0.0703136026859,  -0.1730134487152,   0.2224069535732,  -0.0895037800074,   0.0484507456422,  -0.1102835685015,   0.0093341199681,   0.2135600000620,   0.0562586970627},
   {   0.0257350280881,   0.1606127768755,  -0.1864050030708,  -0.1379864215851,   0.0087703727186,  -0.1414012908936,   0.0937058478594,  -0.0917822793126,  -0.1912723332644,   0.0810337141156,  -0.0052978051826,   0.0196882672608,   0.0964130908251,   0.0278785638511,   0.1701340973377,   0.1444757282734,   0.0328960791230,   0.2089615464211,  -0.0635847225785,   0.2054072618484,   0.1976474672556,  -0.0361874103546,   0.0502329058945,  -0.0834659039974,  -0.0582961663604,   0.1659592539072,  -0.0770814418793,  -0.1608136892319,  -0.1765142232180,  -0.2274911552668,  -0.0782176479697,   0.1274983286858,  -0.0910648331046,   0.1513503342867,  -0.0478409118950,   0.0992850437760,   0.0208775009960,  -0.0906100347638,   0.0781642124057,   0.1084006801248,  -0.0118930963799,  -0.1741055250168,  -0.0828738138080,   0.1143931448460,  -0.0759018883109,   0.0736029967666,   0.0472654290497,   0.2235980331898,   0.2021616101265,   0.0400971025229},
   {   0.2236983031034,   0.0656539797783,  -0.1966355890036,  -0.2452132552862,   0.0426691547036,  -0.1029904335737,   0.0015651044669,  -0.0231507141143,  -0.0040424205363,   0.1949014216661,   0.2014086991549,  -0.2044691443443,   0.1891067177057,   0.1464697271585,  -0.1615776270628,  -0.1721022278070,   0.0794326066971,   0.1716187745333,   0.0734301209450,  -0.1936717927456,   0.0015173025895,   0.0423345901072,  -0.0920737087727,  -0.1134055480361,   0.0672483965755,  -0.0186140555888,  -0.1034746319056,   0.2061355412006,   0.0283969063312,  -0.0191343203187,   0.1373387426138,  -0.0929479971528,  -0.0583924241364,  -0.0455600172281,   0.1305624544621,  -0.1700021028519,   0.1135123372078,  -0.1726180762053,  -0.1936857551336,  -0.2280216515064,   0.1352858096361,  -0.0941669419408,   0.1585029661655,   0.1996255666018,   0.0844683945179,   0.1576043963432,   0.0349375009537,   0.0439548753202,   0.2243772000074,   0.0929391533136},
   {   0.2228070348501,   0.1091783195734,   0.0525799319148,  -0.2099612653255,   0.1445187926292,   0.1429391801357,   0.0332540795207,  -0.1811913698912,  -0.0149345714599,  -0.0163553357124,   0.1889082044363,  -0.2427701503038,  -0.0769314691424,  -0.1148596853018,   0.2324429452419,  -0.2359024733305,  -0.1619587540627,  -0.1483984589577,  -0.1843005418777,  -0.2510115504265,  -0.0168916322291,  -0.0313154757023,   0.2268659472466,  -0.0410798490047,  -0.1848564147949,  -0.0438676215708,   0.0876582786441,   0.2506948709488,   0.2412105649710,   0.0540972054005,   0.1437967717648,  -0.2074196338654,   0.1638029813766,   0.1826075613499,   0.0801069512963,   0.0275069009513,   0.0526564419270,   0.0630457997322,   0.0019481182098,  -0.1196935400367,   0.0736568793654,  -0.0090776961297,   0.1943350732327,   0.0059434380382,  -0.0903665050864,   0.2295826077461,   0.1750622093678,  -0.0622916333377,  -0.1909025907516,  -0.1048129722476},
   {   0.0096150329337,   0.2374045699835,  -0.1227446570992,   0.0944662317634,   0.0185783207417,   0.0912862345576,  -0.0060119703412,  -0.2655488848686,   0.0500846505165,   0.0558476895094,  -0.1151831075549,   0.1549809575081,  -0.2014896869659,   0.1949941068888,   0.0483209639788,   0.1347451210022,   0.1262460649014,  -0.0326864309609,  -0.0900498405099,  -0.0670700222254,   0.0907525047660,   0.0228179935366,   0.1075745224953,   0.1700565665960,  -0.1310953944921,   0.0588874593377,  -0.0310070626438,  -0.0883255749941,  -0.0361998006701,  -0.2098315358162,   0.0822051241994,  -0.2120249569416,  -0.0422697514296,  -0.0267174821347,  -0.1473069041967,  -0.0493481718004,   0.0857245549560,   0.0941915512085,  -0.0090338364244,   0.0778346806765,  -0.1153958514333,   0.1617852747440,   0.0788052305579,  -0.0267120208591,   0.0398821830750,   0.1928120106459,  -0.0185258071870,   0.1677187383175,  -0.0713333711028,  -0.1538370698690},
   {   0.1706723868847,  -0.2113012224436,  -0.0599010102451,   0.0389871783555,   0.1631365865469,   0.0331439785659,   0.1075315251946,  -0.0203367397189,   0.2488382607698,  -0.0238684490323,   0.1357229351997,  -0.1861947327852,  -0.2134918421507,   0.0411022566259,  -0.1630605906248,  -0.1562156677246,  -0.1301382184029,   0.1482304036617,   0.1435880661011,   0.1302055716515,   0.2139924764633,   0.0586657114327,  -0.0967294052243,  -0.0977347865701,   0.0520065166056,  -0.1059054955840,  -0.0027007982135,   0.0114918267354,   0.0332294851542,   0.1310729682446,  -0.2072939127684,   0.1771860867739,   0.0764734819531,   0.0592696033418,   0.1176919788122,   0.2432828843594,  -0.1649652570486,   0.0164407417178,  -0.1464529633522,  -0.1418652832508,   0.1623139530420,  -0.0733897984028,  -0.1989313513041,   0.2549662590027,  -0.1841424107552,  -0.1217870339751,  -0.1007855683565,   0.0802285298705,  -0.0908739492297,  -0.2411538511515},
   {  -0.0608801469207,  -0.1234276145697,   0.2062010169029,   0.0899004787207,  -0.0674135237932,   0.1298898458481,  -0.2291577458382,  -0.1977749168873,  -0.1602687388659,   0.0454607941210,  -0.2076947987080,   0.2155205905437,   0.1809452623129,   0.0724149271846,   0.0380562171340,   0.0430840514600,   0.0653253644705,  -0.0261620730162,   0.0560097955167,  -0.2023750245571,   0.0168893896043,   0.1512926071882,  -0.1209554225206,   0.0463192351162,  -0.0637713819742,   0.1560254544020,   0.2013432383537,  -0.0555189326406,   0.0469814129174,   0.0659981295466,   0.1107450276613,   0.0046587768011,   0.0889512151480,   0.1302410662174,   0.1400805711746,  -0.1170386597514,   0.1514547616243,   0.2267042994499,  -0.2395313978195,   0.1802819520235,   0.0688335150480,  -0.0690432265401,   0.0536625161767,   0.1315077841282,   0.2299278080463,  -0.2084669917822,   0.1786591857672,  -0.1765606552362,  -0.0941372215748,  -0.2030183523893},
   {  -0.1688559800386,   0.1931288838387,   0.0425940565765,  -0.1865885704756,  -0.1625357270241,   0.2018862366676,  -0.1714180558920,   0.0265994537622,  -0.1955799013376,  -0.0853395611048,   0.0681957304478,   0.1865836232901,  -0.1028368622065,   0.1445894241333,  -0.1901866644621,  -0.1987970620394,  -0.2533546686172,   0.1613066643476,  -0.2326008677483,   0.1982695013285,   0.0602839477360,  -0.1199025213718,   0.1404712051153,   0.1661341786385,   0.0422204062343,   0.2047761231661,   0.1918615847826,  -0.2297178059816,  -0.0563553571701,  -0.1539182960987,  -0.0020508070011,   0.1950493603945,  -0.0973411500454,   0.2005342841148,   0.0507729873061,   0.0334254801273,   0.0686247348785,   0.1184418648481,   0.1943226009607,  -0.1251581758261,  -0.0859634652734,   0.0435485132039,  -0.0087503688410,   0.2133083343506,  -0.0083699328825,   0.2163583040237,  -0.2028285562992,   0.0342561528087,   0.1823794841766,   0.0511901304126},
   {   0.1572659015656,  -0.0343008786440,  -0.1650571674109,  -0.1220115721226,  -0.1204514950514,  -0.2001133114100,  -0.1531045883894,   0.1331133842468,  -0.2250332385302,   0.1999277621508,   0.2117387652397,   0.2173765003681,  -0.2309754192829,   0.1853083819151,   0.2083225101233,   0.0010129733710,  -0.0666210800409,  -0.0341610834002,  -0.0156546682119,  -0.0023684487678,  -0.1048394963145,  -0.2348518073559,  -0.1302860975266,   0.1678320765495,   0.2283123284578,  -0.1938643008471,   0.1646551191807,   0.1209518238902,  -0.1372386962175,   0.2031574845314,  -0.1203332841396,  -0.0182902757078,  -0.0025120186619,  -0.0075914575718,  -0.1611967384815,  -0.2164096981287,  -0.1863145530224,   0.2116624563932,   0.1578871458769,  -0.2145349830389,  -0.0923456847668,  -0.0461212992668,   0.1160465255380,  -0.2314052134752,  -0.0791758820415,  -0.1687654852867,  -0.1888770759106,  -0.1873602569103,   0.1628649681807,  -0.1801793277264},
   {  -0.1699588298798,  -0.0640354678035,   0.2130631804466,  -0.2071056216955,   0.1927648484707,  -0.1545155197382,   0.0086065856740,   0.0252350457013,  -0.0362292528152,   0.0250160880387,  -0.0734957754612,   0.2041200101376,   0.1030799522996,   0.1871968209743,   0.0820580124855,   0.1255669146776,   0.0660616159439,   0.0378912352026,   0.1712205708027,  -0.2228266745806,   0.2107003778219,   0.0356396213174,   0.0352113544941,   0.1398059725761,   0.0321989282966,  -0.0803626179695,   0.1946687102318,  -0.1085876896977,   0.1658444404602,  -0.0964906215668,  -0.0253138765693,   0.1536708176136,   0.0080844676122,  -0.1289834529161,  -0.1186895892024,  -0.1577136516571,   0.2109551727772,  -0.1166410148144,  -0.1998870819807,  -0.2466571033001,  -0.0347031727433,   0.1885791271925,  -0.1428154706955,   0.1496955007315,   0.1382529288530,  -0.2077029347420,   0.1751182973385,   0.1942151188850,   0.0463032126427,  -0.1683459728956},
   {  -0.0723808854818,   0.1128763705492,  -0.2073087841272,   0.0808778703213,   0.0163676068187,  -0.1956515312195,   0.1704935282469,  -0.0596001259983,   0.1990743875504,  -0.2038388699293,   0.1623708158731,  -0.1787158399820,   0.1457959860563,   0.0266472101212,   0.1584794074297,   0.0542823523283,  -0.1254024207592,  -0.1453168690205,   0.1413639187813,   0.2397010624409,  -0.2213691622019,  -0.0224359445274,  -0.1669573932886,  -0.2206527292728,  -0.2318381965160,   0.0047908416018,   0.2354013323784,   0.0068202787079,   0.2355381548405,   0.1971727907658,  -0.1693910807371,  -0.1443321108818,  -0.0797474756837,   0.1363362073898,  -0.1317301243544,   0.1260647028685,  -0.1510276794434,   0.2314001470804,  -0.1040752306581,   0.2339065819979,  -0.1750756055117,   0.2306607812643,  -0.1192829757929,   0.1647688597441,   0.1284389942884,   0.1452626734972,   0.2059727460146,  -0.2247694283724,   0.2091829180717,  -0.0589724257588},
   {  -0.0779699981213,   0.1602034866810,   0.2360649257898,   0.0026746552903,  -0.2502218782902,   0.2228935807943,  -0.1523268967867,   0.1751100718975,   0.0036125723273,   0.0088409623131,  -0.1773633211851,   0.0413742512465,   0.0704811140895,  -0.0848664566875,  -0.0606431066990,   0.1195679605007,  -0.0312987938523,   0.0797795951366,   0.1336891353130,  -0.0155575834215,  -0.1773334741592,  -0.0832630544901,   0.1676044315100,   0.1057497784495,  -0.2081106901169,   0.1788904964924,   0.1099276617169,  -0.1491016000509,  -0.0735715776682,  -0.0008755853632,   0.1950796395540,  -0.0522227920592,   0.1415077596903,  -0.0633630901575,   0.0131998397410,  -0.1907487511635,  -0.0214658286422,   0.2143279314041,  -0.0087160216644,  -0.1247718930244,   0.1060254424810,   0.0983018428087,  -0.0858876407146,  -0.0957330837846,   0.0968007892370,   0.1197747364640,  -0.0738165080547,   0.1621426790953,   0.0951586440206,  -0.1255996227264},
   {   0.1175985559821,  -0.1686011552811,  -0.0341172255576,   0.1942524760962,  -0.0191852319986,   0.2168137580156,   0.1245917677879,   0.0046461876482,  -0.1468344181776,  -0.1446456760168,  -0.0912345200777,   0.0891571342945,  -0.2345531433821,  -0.1557123064995,  -0.1319824606180,  -0.1982580274343,  -0.1925264447927,   0.0613627843559,   0.0540098585188,   0.0581300333142,  -0.1506533473730,   0.1252628266811,  -0.0060431822203,  -0.0964440628886,   0.0620620734990,   0.1989721059799,   0.0192032828927,  -0.1381835341454,   0.1868746131659,  -0.1342958062887,   0.0178615059704,   0.0241330489516,  -0.0147201716900,   0.1077184155583,  -0.2117803692818,  -0.0600970350206,  -0.0962248072028,   0.0652295649052,  -0.0082466835156,   0.0164595786482,   0.1035958826542,  -0.1496964693069,   0.0312481634319,   0.1158262267709,  -0.0965864136815,  -0.0804046988487,   0.1810920536518,   0.2416388094425,  -0.1098158806562,  -0.1463659703732},
   {  -0.1208694577217,  -0.0850197821856,   0.0760532692075,  -0.2471352219582,  -0.1048409491777,  -0.1887892931700,   0.2154193669558,  -0.2046016752720,  -0.0494584105909,  -0.0756786987185,   0.0874242782593,   0.0112693663687,   0.0784740597010,  -0.2065610736609,  -0.1977031528950,   0.1695849001408,  -0.2124463468790,  -0.1746246367693,  -0.0775838941336,   0.0591363795102,   0.2398347109556,  -0.1480216830969,   0.1071475297213,  -0.0128797814250,  -0.1451756656170,  -0.0576540306211,  -0.0785592496395,   0.0800289064646,   0.0117405429482,   0.2090971469879,  -0.2300312221050,  -0.0624626167119,  -0.1040976420045,  -0.1946322619915,   0.1054833680391,  -0.0648921355605,   0.0859902054071,   0.1842582374811,  -0.2012354582548,   0.1006368324161,   0.1193280741572,   0.2094299048185,   0.1057576239109,   0.1269110739231,   0.1485708951950,   0.0280137993395,  -0.2186036854982,   0.1784454286098,   0.0880697742105,   0.1232270821929},
   {   0.0773130655289,  -0.0920960232615,  -0.0539911463857,  -0.0821234807372,   0.1396862864494,   0.0569224096835,  -0.2101976722479,   0.1300686150789,  -0.1196867153049,   0.1472627222538,  -0.2133459448814,  -0.1756784617901,  -0.0614583157003,   0.1170212402940,   0.1278927028179,  -0.0236294548959,   0.0542188771069,  -0.1458787620068,   0.1423133462667,   0.2223888784647,  -0.1846766024828,  -0.0461777634919,  -0.0521745830774,  -0.0939283072948,   0.0250056721270,  -0.0899360254407,   0.1631681025028,   0.0610738433897,   0.1201508194208,   0.0997218862176,   0.0508953593671,   0.1179959252477,   0.0638515502214,  -0.1191975176334,   0.0053904983215,   0.2080013602972,  -0.1082173585892,   0.0794113725424,   0.1711762249470,   0.0091028269380,  -0.1804952770472,  -0.0464118495584,   0.1615161597729,  -0.1898643225431,  -0.1614937633276,   0.0035579842515,  -0.2439550161362,   0.1717422753572,  -0.2386490255594,  -0.2011362165213},
   {  -0.0642336010933,  -0.0934298112988,  -0.1642027795315,  -0.2240313589573,   0.2215718179941,   0.0221639275551,   0.1205135360360,  -0.2246044874191,   0.1066102311015,   0.1231725215912,   0.1502021700144,  -0.1913212984800,  -0.0833689197898,   0.1979272067547,   0.0343541577458,  -0.0799159556627,   0.0688885673881,   0.1528775393963,   0.0905803218484,   0.0277401749045,   0.2280136346817,   0.1986945718527,  -0.0671063885093,   0.0632116720080,   0.0903631448746,   0.1666858941317,  -0.0069860639051,   0.1583275347948,   0.1767746955156,  -0.1850240230560,  -0.0523762069643,   0.1744535565376,  -0.2459079623222,  -0.2244401425123,  -0.0583002977073,  -0.1443328410387,   0.1014266684651,   0.2310546189547,   0.0565225407481,   0.1891022771597,   0.0990861430764,   0.1178577765822,  -0.0811434835196,   0.1522783041000,   0.2408789098263,  -0.2071951478720,   0.1110110133886,  -0.1061052531004,   0.1871625930071,  -0.0575994588435},
   {  -0.1298485398293,   0.1718663275242,  -0.0215674191713,  -0.2373428046703,  -0.0614670813084,   0.0333652570844,   0.1108887419105,   0.1317425817251,  -0.1872996836901,  -0.1391350924969,   0.0466005541384,  -0.1494069248438,   0.0304152742028,  -0.1135171800852,   0.0405215658247,  -0.1494965106249,  -0.2218308895826,  -0.1976622790098,   0.1782930642366,   0.2302210479975,  -0.0386016443372,   0.0090677356347,   0.0555206499994,   0.1786273717880,  -0.0694256797433,  -0.2303080260754,   0.1731396764517,   0.0023416241165,  -0.2145579457283,   0.0083280298859,   0.2284775376320,   0.2093597054482,   0.0817356854677,  -0.2156175374985,  -0.1046848297119,  -0.2116648405790,  -0.1635943800211,   0.1601673811674,  -0.1297930628061,   0.1476162672043,   0.0872609913349,   0.0769414082170,   0.0693577304482,  -0.0996378585696,  -0.1187737211585,  -0.0611406005919,  -0.0185025557876,   0.1517711132765,   0.1512308567762,   0.1036528944969},
   {   0.0500488132238,  -0.0192448869348,   0.2013595849276,   0.0971069857478,   0.2114612460136,   0.1766253560781,   0.0469950884581,  -0.1923242807388,   0.0250148531049,  -0.1638355404139,  -0.0231492985040,   0.2055626213551,   0.1973536908627,   0.2149983048439,   0.0324391201138,  -0.1509102284908,   0.0376971848309,  -0.0416719652712,   0.2139895260334,   0.1065675914288,   0.1771287769079,   0.1897761523724,   0.1341407001019,   0.0621157102287,   0.1623532325029,  -0.0817154645920,   0.1899387240410,   0.0460568740964,  -0.1667729467154,   0.2004039138556,  -0.1580929905176,  -0.1701500713825,  -0.0124671757221,   0.0594830326736,  -0.2048812061548,   0.1122335493565,  -0.1157672330737,   0.0596686862409,   0.0713218376040,   0.0984286665916,  -0.0323854386806,  -0.2440819293261,   0.1628901213408,   0.1116954535246,  -0.0746393799782,  -0.1187203153968,   0.1754399985075,  -0.0142936613411,  -0.1257138103247,  -0.0036887703463},
   {  -0.2063888907433,   0.0376099832356,   0.0352058000863,   0.0439279861748,  -0.0093791699037,  -0.0741105228662,  -0.1478664278984,   0.1121813133359,  -0.1826620101929,   0.2175477147102,  -0.0978211611509,  -0.0968636274338,  -0.1827769875526,   0.0582535266876,   0.1549583971500,  -0.1674938648939,  -0.2066820412874,   0.1951799392700,  -0.0472613871098,  -0.0121507877484,   0.2380724400282,   0.1071770414710,   0.1535176932812,   0.1301572769880,  -0.2246881872416,   0.2358188331127,  -0.1932222694159,   0.0666080713272,  -0.1190640553832,  -0.0099066197872,  -0.1913419216871,  -0.1674980819225,   0.0595052652061,  -0.1916573792696,  -0.1766588836908,  -0.0499356947839,  -0.2257823050022,  -0.0787862762809,   0.0420070476830,  -0.0628133043647,  -0.0614432692528,  -0.0025583039969,  -0.0769996196032,  -0.0469931513071,  -0.2072927951813,  -0.2024664878845,  -0.1648626178503,  -0.0806141048670,  -0.1897410005331,  -0.0537605062127}};
  const float bias_0[50] = {   0.0193828698248,   0.0206793844700,  -0.0257343016565,   0.0058727995493,   0.0104479482397,   0.0095495330170,   0.0228106901050,   0.0109754409641,   0.0080637214705,  -0.0212252382189,   0.0089343246073,   0.0221253931522,  -0.0051017464139,   0.0177483763546,   0.0020203290042,   0.0217874590307,   0.0150107834488,   0.0202348306775,   0.0296146180481,   0.0038996667136,   0.0080887526274,   0.0228338222951,   0.0148034123704,   0.0042026727460,   0.0270095169544,   0.0077124563977,   0.0221872739494,  -0.0248885862529,   0.0038405824453,   0.0200222488493,   0.0196736827493,   0.0045502558351,   0.0277128219604,   0.0286343917251,   0.0093246921897,   0.0183539669961,   0.0216636266559,   0.0170711465180,   0.0189347062260,   0.0181523524225,   0.0108287762851,   0.0174002628773,   0.0299016218632,   0.0116895344108,   0.0096189044416,   0.0066433800384,  -0.0017764810473,   0.0210910569876,  -0.0034136204049,   0.0204107258469};
  // Declare the arrays in the stack
  const float kernel_1[50][50] = 
  {{   0.0593092590570,  -0.1546854078770,  -0.0344006866217,  -0.1498705148697,   0.1009435802698,  -0.0491752736270,   0.2269477546215,   0.1951161623001,  -0.0732070133090,   0.1612804234028,   0.2398599833250,   0.0762021020055,   0.1667346954346,   0.1196988001466,   0.1109752729535,   0.0137132387608,   0.0242808070034,   0.0314432829618,   0.0190547425300,  -0.1563682109118,   0.0262503828853,  -0.0467973463237,   0.0044202618301,   0.0222239941359,   0.1991836130619,   0.2098058313131,   0.0724460631609,  -0.0559496432543,  -0.2201244235039,  -0.2585955560207,   0.0852249041200,  -0.0704315900803,   0.1335555016994,  -0.2313404530287,   0.0670681744814,   0.0388513728976,   0.0974027439952,   0.2265029698610,  -0.2559591233730,  -0.0171770807356,  -0.2474018484354,  -0.0865756943822,   0.0314334407449,  -0.1976797580719,  -0.1674233078957,  -0.1222860813141,  -0.1234547421336,   0.0502888187766,  -0.0254737921059,  -0.1495049595833},
   {   0.0933922231197,  -0.1953227818012,  -0.1006562486291,   0.0497128292918,  -0.1284622550011,   0.1538205146790,  -0.1153884083033,   0.1063878834248,   0.1379456222057,   0.1510945111513,  -0.1614229828119,   0.1692128777504,  -0.0628356188536,   0.0047908332199,   0.1149391159415,  -0.0032578413375,   0.0906706973910,   0.0706039518118,   0.2478671967983,  -0.0950660109520,   0.1229459270835,  -0.1261221766472,  -0.0752739310265,   0.2218574583530,   0.1148014217615,   0.0343821756542,  -0.0125261964276,   0.2069431841373,  -0.2101645171642,  -0.0947586521506,  -0.0002719633922,  -0.0514812320471,  -0.1754385381937,   0.0288850888610,   0.0357280559838,   0.1204855218530,   0.2373757511377,  -0.1896210759878,  -0.2440128177404,   0.1430572718382,   0.0891100391746,  -0.0544099286199,  -0.1944321841002,   0.2199860364199,  -0.0361577011645,  -0.1995465904474,   0.0373606644571,  -0.1898701041937,   0.2470677495003,   0.0359038151801},
   {   0.0906644314528,  -0.1858273744583,  -0.1364983320236,   0.0064480612054,  -0.1270431131124,   0.0209833774716,  -0.1303302049637,  -0.1109320446849,   0.1867475062609,   0.1146125793457,  -0.1982464045286,  -0.1756213158369,   0.0305141936988,  -0.1314418315887,   0.1780840009451,   0.1245251223445,   0.0346617251635,  -0.2125486880541,   0.1652055233717,  -0.1467750668526,  -0.0703552737832,  -0.1943317353725,  -0.1964483410120,   0.1390944272280,  -0.0545254871249,  -0.0731643810868,  -0.1526357531548,  -0.1472448408604,   0.0180209632963,   0.2232468426228,   0.2357261478901,  -0.0496383160353,   0.2024368792772,   0.1103900745511,  -0.1191268265247,  -0.1027540341020,   0.1285982877016,   0.2155082374811,   0.1359023451805,   0.1090865433216,   0.0525587238371,   0.0924966409802,   0.1431446820498,   0.2062761634588,   0.2541265785694,  -0.2244436591864,  -0.1440386772156,   0.0906759873033,   0.0864140391350,  -0.1336670666933},
   {  -0.2316979914904,   0.1652758866549,  -0.2166484147310,   0.0886313095689,   0.1053345352411,  -0.1124840378761,   0.1690943092108,  -0.1323115080595,   0.1213938519359,  -0.0503061898053,   0.0047304686159,   0.2107850462198,  -0.2127897143364,   0.1078078597784,  -0.1887545585632,  -0.1597531586885,  -0.0693093016744,  -0.2230276912451,  -0.1325137168169,   0.2489134222269,  -0.0869249850512,   0.2142819762230,  -0.1541208922863,  -0.2483680546284,  -0.1668885797262,  -0.0618142597377,   0.0102503811941,   0.1377228498459,  -0.0601392872632,  -0.1253386735916,   0.2117506563663,  -0.0844172090292,   0.1097779199481,  -0.0042188479565,   0.1100522801280,   0.1797766089439,  -0.0138708688319,   0.1434888839722,  -0.0698957368731,  -0.1651494801044,  -0.0932040736079,  -0.1361779123545,   0.2085232436657,  -0.1923768520355,  -0.2325398623943,   0.0615012645721,  -0.0419545508921,  -0.0658838078380,  -0.0185075979680,   0.1850511282682},
   {  -0.1274868994951,  -0.2176344245672,  -0.1605588644743,  -0.2179917544127,   0.0912728235126,  -0.0234287679195,  -0.2179810702801,   0.1764377653599,  -0.1942483633757,  -0.1618967205286,   0.2532047033310,  -0.1194640174508,   0.0052175740711,   0.1534995436668,   0.1216549649835,  -0.2467701584101,  -0.0464858487248,  -0.1983966529369,   0.2356675714254,  -0.1091148704290,  -0.1899061352015,  -0.0754954442382,   0.0312617756426,   0.2495257556438,  -0.0245529953390,  -0.0580298453569,   0.1021092012525,  -0.1206191256642,   0.2354087978601,  -0.1482062041759,  -0.2222190052271,  -0.2489687800407,   0.1363215893507,   0.0177359469235,   0.1502833217382,   0.0569351986051,   0.2263768315315,   0.1600385010242,   0.2375463247299,   0.0887023285031,  -0.0653020963073,   0.2080563008785,  -0.1307298988104,  -0.0239071175456,  -0.0771306231618,   0.0844869911671,  -0.0659759640694,  -0.1708679348230,   0.1455877274275,  -0.0230652168393},
   {   0.1071956083179,  -0.1799003481865,  -0.0363649278879,   0.0585187450051,   0.2054330855608,  -0.2256237715483,  -0.2473039627075,   0.1623113155365,   0.0570125877857,  -0.0254605449736,   0.1473693400621,   0.2485683113337,   0.0409065447748,   0.0220774151385,   0.0540469624102,   0.1483727395535,  -0.1004152446985,   0.0682157948613,  -0.2263230830431,  -0.1265295296907,  -0.1192926317453,   0.0894427970052,   0.0627207756042,   0.0694881379604,   0.0903332456946,   0.2087845206261,   0.1853935569525,   0.0288448147476,   0.2012526839972,  -0.0623783655465,  -0.0218369401991,   0.1075855866075,  -0.1863134503365,   0.0488086603582,   0.2136225402355,   0.0515665374696,   0.0126548986882,  -0.0177409015596,  -0.0006345466827,   0.1667770296335,  -0.0849632397294,  -0.2241315990686,  -0.0964181274176,   0.0365546718240,  -0.1456308215857,  -0.1347172856331,  -0.0417978428304,   0.0720118582249,   0.1614132374525,  -0.0172251425683},
   {   0.0796834230423,  -0.1299349814653,   0.0592109933496,  -0.0173759236932,  -0.2548725008965,  -0.2333134710789,  -0.0869412869215,  -0.1261091977358,   0.1302800774574,  -0.2184886932373,   0.0116626797244,  -0.2388829290867,   0.1581567972898,  -0.1786226332188,  -0.1808903515339,   0.1099664792418,   0.2495685368776,  -0.0237480998039,   0.0969992801547,  -0.0888443440199,  -0.1740370392799,   0.2365727573633,  -0.0812167748809,   0.1484528630972,   0.0679509192705,  -0.1378889828920,  -0.0646124482155,  -0.1033928319812,   0.1108712926507,  -0.0070573934354,   0.0524716265500,  -0.1567544639111,   0.0098920939490,  -0.1305928081274,  -0.1196231320500,   0.1617599427700,  -0.0957314372063,  -0.0711229145527,   0.1520676910877,   0.1150088533759,  -0.0868872404099,   0.0971523523331,   0.1913136839867,  -0.0930851623416,   0.0120781911537,   0.2067069858313,   0.1506104618311,   0.1289834827185,   0.1728842854500,  -0.1415363550186},
   {  -0.0345723479986,   0.1503244936466,  -0.0057749724947,   0.2517029941082,   0.1615300923586,   0.0361445359886,  -0.2199624031782,  -0.1794257909060,   0.2536911964417,  -0.1406327337027,  -0.2145888954401,  -0.0257035270333,  -0.1319671571255,   0.1669217795134,  -0.1516175419092,  -0.2132841199636,  -0.2237055897713,   0.2235012352467,  -0.0577824823558,  -0.1402036249638,  -0.1818969696760,  -0.0915095284581,  -0.0251643788069,   0.2092175036669,  -0.0652441382408,   0.2123323976994,  -0.1233578249812,   0.2067603319883,  -0.0468953028321,   0.1866054981947,   0.0303265303373,   0.0959746316075,  -0.2242016494274,  -0.1384834349155,  -0.1404522210360,  -0.1076279878616,  -0.0228615924716,  -0.0339217744768,  -0.2288971841335,   0.2466876357794,  -0.1573052555323,  -0.1603965759277,   0.1652682870626,  -0.1267802268267,  -0.0107118701562,  -0.0417826101184,  -0.0366165228188,   0.0219490081072,  -0.2414624392986,   0.0553696453571},
   {  -0.2383662909269,   0.1400173008442,  -0.1583351492882,   0.0360538661480,  -0.2329024225473,   0.0801351219416,  -0.2156901657581,  -0.0525769814849,  -0.1217819005251,  -0.2239554524422,  -0.2230362296104,  -0.2083945870399,  -0.0145198935643,   0.0190045237541,   0.0352064371109,   0.0028911803383,  -0.1508968919516,  -0.0049253990874,  -0.0386034995317,   0.1069302186370,   0.2547150850296,   0.2116886228323,   0.1946026384830,   0.0720263272524,  -0.2547863721848,   0.1538573503494,   0.2395474165678,   0.1117656454444,  -0.1890079677105,   0.2270254641771,  -0.1019173488021,  -0.0936826393008,   0.1147607266903,   0.1655416041613,   0.1086729392409,   0.0550015233457,  -0.0194644667208,   0.0258849970996,   0.1925623118877,  -0.1045306548476,  -0.0850349739194,   0.1752660721540,  -0.0031195252668,  -0.0604408308864,  -0.0334325097501,  -0.0487563647330,  -0.0559978187084,  -0.0135308569297,   0.1202650889754,  -0.0694969594479},
   {  -0.1927217990160,  -0.1393760591745,  -0.2242822647095,  -0.0622843764722,   0.1541867703199,   0.2036644518375,   0.0192768499255,  -0.2278196513653,   0.2092322111130,   0.0487011261284,  -0.2441124618053,  -0.1326405256987,  -0.2034261077642,  -0.0391930118203,  -0.1428150087595,   0.2260082215071,  -0.2165575325489,   0.0167072657496,  -0.1256852298975,   0.2406379133463,  -0.1879206001759,  -0.1571640968323,  -0.1991510689259,   0.0610453672707,  -0.2432340830564,  -0.1897116601467,  -0.1850585043430,  -0.0902656540275,  -0.1665524095297,  -0.1548646092415,   0.1219351068139,  -0.1844162940979,  -0.1307026594877,   0.0593480542302,  -0.1407244652510,  -0.0194562803954,   0.2639740109444,  -0.1485666334629,  -0.0650675669312,   0.1141731664538,   0.1596436947584,  -0.0459026582539,   0.0569641441107,  -0.0313834063709,   0.2322308570147,   0.1743690371513,  -0.1671132296324,   0.2152950912714,   0.2469684332609,   0.1760375648737},
   {  -0.2144829779863,  -0.0631229281425,  -0.1082562878728,   0.0696717575192,  -0.1153946816921,  -0.1313930451870,  -0.0580094642937,   0.1066334843636,  -0.0637876763940,   0.1846264153719,   0.1206930428743,   0.0936817750335,  -0.1858036220074,   0.2063101977110,  -0.1404342651367,   0.0141837596893,  -0.1377645283937,  -0.2454598695040,  -0.1902224123478,   0.0827374681830,   0.1552911698818,   0.1359782218933,  -0.2252421081066,  -0.1339550763369,   0.1457031369209,  -0.1669512689114,  -0.2012832611799,  -0.0011806121329,  -0.0042825490236,  -0.0686783865094,   0.0366587601602,  -0.1507385671139,   0.0153248468414,  -0.1229829043150,  -0.0528211295605,   0.1459347605705,  -0.2045589685440,  -0.1876787990332,  -0.1253921687603,  -0.1913660764694,   0.1446333080530,   0.0050956406631,  -0.2311233729124,  -0.0862523242831,  -0.0365120135248,  -0.2234336882830,   0.0173995941877,  -0.0245962552726,  -0.1551744937897,  -0.1207950487733},
   {   0.1095842123032,   0.1112720817327,  -0.0012173582800,   0.2265451103449,   0.0536447688937,   0.0363113693893,  -0.0158093459904,  -0.0784707516432,  -0.0868363827467,   0.0990097001195,  -0.0113453436643,  -0.2037870585918,  -0.1585722267628,  -0.0022439409513,   0.1730452477932,  -0.1002836748958,   0.1261483281851,  -0.1653719991446,  -0.2507107555866,   0.0376694537699,  -0.0799025595188,   0.0195874124765,   0.0437831021845,   0.1933756023645,   0.0666617825627,  -0.1403354704380,  -0.0585544519126,  -0.2057838886976,  -0.0178762525320,   0.2037884742022,  -0.1152192205191,   0.1699311584234,  -0.1789988875389,  -0.1846899241209,  -0.1433065682650,  -0.1751266419888,   0.1027522608638,   0.1112497225404,   0.0479385517538,  -0.0839735269547,   0.0545446537435,   0.0583703666925,   0.2110881209373,   0.1591028720140,  -0.0957510396838,  -0.0229639243335,   0.1943442076445,  -0.1688950061798,   0.0235519427806,  -0.0073003578000},
   {  -0.1907743662596,  -0.0559031441808,   0.1218766197562,   0.0104288496077,   0.0703684762120,   0.2206071764231,  -0.2552656233311,   0.2236809432507,  -0.0610091276467,   0.1027973368764,  -0.0104257520288,   0.1055562943220,   0.0979601293802,   0.1631716340780,  -0.0842449888587,   0.1024031415582,   0.1662776917219,  -0.2175979912281,   0.1590440124273,  -0.1039338111877,   0.1728618443012,  -0.1118659079075,  -0.0118430573493,   0.2217745333910,  -0.0737748816609,   0.0304634496570,  -0.0899500027299,  -0.1114572584629,   0.1427775919437,  -0.2287044823170,  -0.2040261775255,  -0.2352648973465,   0.2110711038113,   0.0478304289281,   0.1312710642815,   0.1419015377760,   0.1248750239611,  -0.0858561769128,  -0.1176444366574,   0.1571062058210,  -0.0453700497746,  -0.0102965869009,   0.0276999697089,   0.1289334148169,  -0.1369755715132,   0.0156381409615,   0.1974113285542,   0.1715730726719,   0.1990415751934,  -0.1297714561224},
   {   0.0132225286216,  -0.2110184133053,  -0.0779471993446,   0.0831494852901,   0.0591538324952,   0.2516810894012,  -0.0581475980580,   0.0706687942147,   0.1803549379110,   0.0574007853866,   0.1198894232512,  -0.1895267963409,  -0.1585272401571,  -0.1327012628317,   0.1422454565763,  -0.0184335671365,  -0.2113919109106,  -0.0406890884042,   0.0300341658294,  -0.2338626384735,   0.0564298704267,   0.0303222443908,   0.1924419552088,   0.0149763375521,  -0.0800524055958,  -0.1006096452475,   0.2555023133755,  -0.0713959112763,   0.1626588702202,  -0.1747632473707,   0.2316419035196,  -0.1587255299091,   0.2223793417215,  -0.1039298176765,  -0.1205188259482,  -0.2024946659803,   0.0249205920845,  -0.2125491350889,   0.1629051119089,  -0.1686131656170,  -0.1607392281294,  -0.0452308729291,  -0.1855095475912,  -0.2412607967854,  -0.1111737713218,  -0.1441154032946,  -0.0017242680769,   0.2272001951933,  -0.1895650178194,   0.1010166332126},
   {  -0.2207126468420,  -0.1682362556458,  -0.1115899458528,   0.0512238666415,  -0.1041272133589,  -0.1067823022604,  -0.1476205140352,  -0.2080307155848,   0.0154311126098,   0.1998137831688,  -0.0619798786938,   0.1812263280153,   0.1411281675100,   0.1210406646132,  -0.0465235710144,  -0.1745762526989,  -0.0686789453030,   0.0531571842730,   0.0433492958546,   0.1796933859587,   0.1831876784563,  -0.0414869002998,  -0.0026498830412,  -0.2337568700314,   0.0003253441828,  -0.0934970229864,   0.0848279744387,   0.0651024505496,   0.1512718498707,   0.1408654600382,   0.0299637187272,  -0.0818765535951,  -0.0681465044618,   0.2380915582180,   0.1817307919264,   0.1127344593406,  -0.1408983170986,   0.0583798587322,   0.0440658889711,   0.2190996408463,   0.2462538182735,  -0.0814466401935,  -0.1184457615018,  -0.1006013527513,  -0.1972935199738,  -0.0845184698701,   0.0537264496088,   0.2170239984989,  -0.1797168403864,  -0.0734883993864},
   {  -0.0518708303571,   0.1621826440096,  -0.0619495660067,  -0.0889126732945,  -0.0520826280117,   0.1931552886963,  -0.0745736509562,   0.2606078088284,   0.0630539804697,   0.2006256580353,  -0.0448321104050,  -0.1792558282614,  -0.1962949186563,   0.2388557046652,  -0.2560383081436,  -0.0117157604545,   0.1740057766438,  -0.2462474256754,  -0.1251800656319,   0.0747782289982,   0.0972409546375,   0.2055038213730,  -0.0573386289179,   0.0967879295349,   0.0357907153666,  -0.1304714083672,  -0.0478555448353,   0.1287342160940,   0.0619128979743,  -0.2066131830215,   0.0500463992357,   0.1654200851917,   0.0762404724956,   0.1194066107273,  -0.0964542776346,   0.0384697876871,  -0.1927915662527,   0.2316530942917,   0.1620242148638,  -0.1440093368292,  -0.1132557168603,   0.2177718579769,   0.0254578310996,   0.0720802918077,   0.2340335398912,   0.2098456025124,  -0.0894799977541,  -0.0074694044888,  -0.0329679511487,  -0.0046649659052},
   {  -0.0970229282975,   0.2262027859688,  -0.1825011819601,   0.2513882517815,   0.0321810208261,  -0.1133368909359,  -0.0737825855613,   0.0699843168259,   0.2545045912266,   0.1170471981168,  -0.2334542870522,   0.1835984140635,  -0.1043605431914,  -0.1021485254169,  -0.0600797198713,   0.0664881989360,  -0.1716861426830,   0.2410832643509,   0.1601205468178,   0.0771415680647,   0.1370927989483,   0.2005842328072,  -0.0561802685261,   0.0683150589466,  -0.0920410901308,   0.0353782363236,   0.2034342437983,  -0.0544194206595,   0.1584485471249,  -0.1037729009986,  -0.1523338705301,  -0.0035771213006,  -0.2132714986801,  -0.1036121100187,   0.0878393203020,  -0.0167142227292,  -0.2099924534559,  -0.1319038420916,  -0.2140322923660,   0.0714385956526,   0.1143214404583,   0.2189513891935,   0.0023487419821,   0.2089527845383,   0.1245370805264,   0.0580134429038,   0.0209239907563,   0.0100532043725,  -0.2147663831711,   0.0778155475855},
   {   0.2355989068747,  -0.0423340499401,   0.0537785217166,   0.2252694517374,   0.0667349398136,  -0.1485857665539,  -0.0338469482958,  -0.0601280033588,   0.2196424156427,   0.2155559957027,  -0.0468843467534,   0.1549360007048,  -0.2119563519955,  -0.0521858371794,  -0.1169282048941,   0.2464066892862,   0.2338224649429,   0.2511904835701,   0.0606912970543,   0.1248964592814,  -0.2422490268946,  -0.1007787659764,   0.0741268470883,  -0.0580938085914,   0.1702642291784,  -0.1629575937986,  -0.0834031030536,  -0.2170424759388,   0.2497266978025,  -0.1812074184418,  -0.0145374368876,  -0.0996782034636,   0.1391355693340,   0.1700390875340,   0.0226002391428,  -0.1094463691115,  -0.0055080098100,   0.0700198337436,   0.0177414529026,   0.0149047458544,   0.1567098647356,   0.2091727107763,   0.0970413610339,   0.1106908321381,   0.1880020350218,  -0.1510961353779,   0.1573032438755,  -0.1097006723285,   0.0925073847175,   0.0161845758557},
   {   0.0407919473946,   0.0431531108916,  -0.1672503352165,  -0.1743942499161,  -0.0064113996923,   0.0381065793335,   0.1779401302338,   0.2512872815132,  -0.2166304141283,  -0.2105665653944,   0.0111928768456,  -0.1451124101877,   0.0522990971804,  -0.0686780065298,  -0.1680844128132,   0.1335937976837,   0.1621338576078,  -0.0754234120250,  -0.1912003159523,   0.0565318875015,   0.1999466568232,   0.1535271853209,   0.1988709270954,  -0.1102259904146,   0.1000351533294,  -0.0289524253458,  -0.0324723310769,  -0.2191138267517,  -0.1995802968740,   0.2490766346455,   0.2406624704599,   0.1153214201331,  -0.0355522111058,  -0.0320699103177,   0.2173314839602,  -0.1125482171774,   0.1634380966425,   0.2207683324814,   0.0380051136017,   0.0050586787984,  -0.1912521123886,  -0.0796193554997,  -0.0260020699352,  -0.1559447348118,   0.1131538748741,   0.1855313330889,  -0.1169502958655,   0.0461422465742,   0.0470773354173,   0.1650143414736},
   {  -0.2390062958002,   0.0946126356721,   0.0589335672557,   0.0642659813166,   0.0519406870008,  -0.0885019302368,  -0.0679419040680,  -0.1707818508148,  -0.1231525316834,   0.1393397897482,   0.2148969173431,  -0.0925209373236,  -0.1953484565020,  -0.1748799979687,   0.0827513188124,   0.1321657598019,   0.1240504160523,  -0.1985310912132,   0.1865337342024,  -0.0301671661437,  -0.2448423206806,  -0.2300299853086,  -0.1069544628263,  -0.1438277363777,  -0.1239424347878,  -0.2264112979174,  -0.0719559714198,   0.1286371350288,   0.0621143579483,   0.1636128872633,   0.1047526970506,  -0.0766788348556,   0.1948347538710,   0.2330642789602,  -0.0599204190075,   0.1421260535717,   0.2461349964142,  -0.1451872140169,  -0.1667872220278,   0.1976445317268,  -0.1879048943520,   0.2486776411533,   0.1271263062954,  -0.0930170416832,  -0.0774956941605,   0.0274750180542,  -0.1722780019045,  -0.1120738610625,  -0.0531810484827,   0.1819615662098},
   {   0.2474225908518,  -0.1722428798676,  -0.0221632458270,  -0.1371876448393,   0.1542960256338,   0.0706925913692,   0.1676599681377,  -0.2259567081928,  -0.0821729972959,   0.1937263458967,   0.0367894880474,   0.0644924938679,  -0.0846478268504,  -0.1591460257769,  -0.1642825752497,   0.2004575431347,   0.1129149273038,  -0.2263947725296,   0.0004307079362,   0.2206174880266,   0.0737867951393,  -0.1357420831919,  -0.0623417533934,  -0.0777673125267,   0.0685353949666,   0.1239400357008,   0.1412049680948,  -0.0828388258815,  -0.1487855464220,  -0.1952705085278,  -0.0559743158519,   0.0886139124632,   0.2046094089746,   0.0372375808656,  -0.2601305842400,   0.1614019274712,  -0.1714279204607,   0.0977180600166,  -0.0424191430211,  -0.0919586867094,  -0.1694787591696,   0.0088398642838,   0.1518184393644,  -0.1793967485428,  -0.1866410970688,   0.1359603703022,  -0.1346776932478,  -0.0459922552109,  -0.0727643594146,  -0.0659023150802},
   {  -0.0465411916375,  -0.0074566532858,  -0.2255498170853,   0.1065681651235,   0.1037245243788,  -0.2004410028458,   0.2287409454584,   0.0259285643697,   0.0059943394735,   0.1305344402790,   0.0138658080250,   0.0175819229335,   0.1410879790783,   0.0330707766116,  -0.0011731479317,  -0.1852394342422,   0.2043721079826,  -0.2048238664865,  -0.2203232795000,   0.0809290930629,  -0.0472355708480,   0.0375947318971,  -0.0074119982310,   0.1024029850960,   0.1987399756908,  -0.1692098230124,   0.1800799667835,   0.1644830405712,  -0.0853665620089,   0.1440519839525,  -0.2344761788845,  -0.0035026203841,  -0.0658016353846,   0.1850830018520,  -0.1012864187360,  -0.0541349016130,  -0.1838905960321,   0.0144166992977,   0.1936952322721,   0.1082944348454,   0.0369295924902,   0.1825580745935,  -0.1546885073185,  -0.0645218864083,   0.2021935582161,  -0.1292682439089,  -0.0032380921766,   0.0961039811373,   0.0020495615900,  -0.0760453119874},
   {   0.1341703981161,  -0.0862468406558,   0.1512126773596,   0.2185957878828,  -0.1360885649920,   0.1789980530739,   0.2414799481630,   0.0149180172011,  -0.0369097888470,  -0.0789327174425,   0.0897915884852,  -0.0062029380351,  -0.0258335210383,   0.2542129158974,  -0.2054182738066,   0.1974005848169,   0.2125344127417,   0.1920027285814,  -0.1796493977308,  -0.0832329168916,  -0.0089801847935,  -0.1423467546701,   0.0682829022408,  -0.0414658524096,  -0.2115321159363,   0.1764065623283,  -0.0990004986525,   0.0047486168332,   0.0932903960347,  -0.1569186151028,   0.2132045924664,   0.0903748273849,   0.1642321199179,  -0.2270971536636,   0.2325392663479,   0.0283669680357,  -0.2338771373034,   0.1752440929413,   0.2449545413256,  -0.1109578311443,  -0.2322283685207,  -0.1206716373563,  -0.1854407489300,   0.0907893925905,   0.0777736753225,   0.0149058084935,  -0.0147062409669,   0.2313554584980,  -0.1671126037836,  -0.0959868580103},
   {   0.1300264447927,  -0.1490065902472,  -0.1883954405785,  -0.1737783104181,  -0.0520741380751,   0.1553733795881,  -0.1301724016666,  -0.1538730263710,  -0.0964507684112,   0.1255523860455,  -0.1259398609400,  -0.1026268675923,   0.0122431162745,   0.2597186863422,  -0.1706491559744,  -0.1796022951603,   0.1967086493969,  -0.1240692660213,  -0.2016168236732,   0.0388107895851,  -0.1361358612776,   0.2402691394091,  -0.0016464464134,   0.2383686751127,   0.1851050853729,  -0.0318485237658,   0.0066655953415,   0.0286682005972,   0.2457635998726,  -0.2309374958277,  -0.1166821494699,  -0.2397851198912,  -0.0400042012334,   0.1412756741047,  -0.2318460047245,  -0.2123239189386,   0.0495693385601,  -0.2213281691074,   0.1903883069754,  -0.2311344742775,  -0.2155473977327,  -0.0088515188545,   0.0449056774378,   0.1640877425671,  -0.0498067662120,   0.0144150210544,  -0.1871535778046,  -0.1111503466964,   0.0180890318006,   0.1762742698193},
   {   0.1046380624175,   0.0702215880156,   0.0235502570868,  -0.1286033838987,  -0.1174851432443,   0.1333223283291,  -0.0966107025743,   0.0401056706905,   0.2330100536346,  -0.0297316536307,   0.2289983779192,  -0.2052399814129,   0.1836381405592,   0.2213464826345,  -0.1147096008062,   0.0669546425343,  -0.1017619147897,  -0.1184478476644,  -0.0154864359647,  -0.0803973674774,  -0.2120792269707,  -0.2163674086332,  -0.2186517864466,   0.1655826419592,   0.1285281181335,   0.1671095788479,  -0.1188203468919,  -0.2121237814426,   0.0032637761906,  -0.0294646788388,   0.1652978360653,   0.1721695363522,  -0.1644636243582,   0.0543864108622,  -0.0043497220613,   0.2408267408609,   0.1698857098818,  -0.1593655496836,  -0.0602787323296,  -0.0546790733933,   0.1679838895798,   0.2518009543419,  -0.1163352653384,   0.1658751815557,  -0.1357559114695,   0.1185448914766,   0.0831451416016,   0.1252724230289,   0.0193818341941,  -0.0795875638723},
   {   0.1344563513994,  -0.2176771163940,  -0.1119799837470,  -0.1634520888329,  -0.0458785742521,   0.0833182111382,   0.0467963106930,   0.1963965445757,   0.0707231014967,  -0.1912772059441,   0.2127961665392,  -0.1619443893433,   0.0127066262066,   0.1669290661812,   0.2229929566383,   0.0004010958946,   0.0899816751480,  -0.0985098257661,   0.0135664157569,  -0.1185957565904,  -0.2291342169046,  -0.0377013199031,   0.0060929362662,   0.0314177460968,  -0.0982902348042,  -0.0323802828789,  -0.1003242433071,   0.2485499382019,  -0.2162576913834,   0.2047517150640,   0.0824133828282,  -0.2126172631979,  -0.2062364667654,   0.1493305712938,   0.1950193196535,  -0.1118417233229,   0.1007697060704,   0.0868040174246,  -0.2065625935793,  -0.1939299553633,  -0.1761799752712,   0.0527591072023,   0.0370097905397,  -0.0297709926963,  -0.1204746291041,   0.1083915457129,  -0.1887694299221,   0.0482448190451,   0.0707946196198,  -0.1545053422451},
   {  -0.1155715435743,   0.1947527974844,   0.0293922089040,   0.0719553977251,   0.1576309800148,  -0.2565443217754,   0.1962226480246,   0.1034691110253,   0.0137927113101,   0.1777214407921,   0.0927527770400,  -0.0996091216803,   0.0328975915909,   0.1755736172199,   0.1630523055792,   0.2144444137812,  -0.2406230866909,   0.0981424152851,   0.0142724774778,  -0.2260632067919,   0.1124678924680,   0.1841579973698,   0.1039460524917,   0.1207864284515,   0.2094251215458,  -0.1906738430262,   0.2267495989799,  -0.0284283403307,   0.0096952272579,   0.0161346364766,   0.1682907938957,   0.1948730349541,   0.1847240924835,  -0.2115023285151,   0.1183099076152,   0.0394090786576,   0.1420952230692,   0.1011683046818,   0.0461149886250,  -0.0805322378874,  -0.1245281398296,  -0.0648290365934,   0.2037692070007,  -0.1083517894149,   0.0947543531656,   0.1555160731077,   0.2059028446674,   0.2017122805119,   0.2679522931576,  -0.0655827745795},
   {  -0.0378792658448,   0.1976381391287,   0.1362683475018,   0.0640858188272,  -0.0635577216744,   0.0350856296718,   0.1890544593334,  -0.1794479042292,  -0.1840986311436,   0.1356163620949,  -0.0896159708500,  -0.0029500201344,   0.0399724543095,   0.0065814801492,   0.1040284633636,  -0.2258213013411,  -0.0250707287341,  -0.0901421532035,  -0.1353782713413,  -0.0535820014775,   0.1459604799747,   0.1365410387516,  -0.1149526536465,   0.0063078464009,  -0.1775828301907,  -0.2421824634075,   0.1332669556141,   0.0919742286205,   0.1161463186145,  -0.1724205762148,   0.0623892247677,  -0.1892329752445,   0.0011106468737,   0.1644650995731,   0.1362126022577,   0.0070426622406,   0.0176269002259,   0.0397081896663,   0.0462362170219,   0.1512897908688,   0.1488244086504,  -0.1494670659304,   0.2222167551517,   0.1021159514785,   0.0893875658512,  -0.1764546781778,  -0.1056262180209,   0.1710624992847,   0.1194371804595,   0.1353112757206},
   {  -0.2241826355457,  -0.0758035480976,   0.1877478212118,   0.2064780890942,  -0.0766137912869,  -0.1254234313965,   0.0993403270841,   0.0449783056974,  -0.1213277801871,   0.1492354124784,  -0.0306079965085,  -0.0823574438691,  -0.1893392056227,  -0.1752164661884,   0.1913516074419,   0.1039500087500,  -0.0513822920620,   0.1104746237397,  -0.0403428599238,   0.0630857944489,   0.0129641797394,   0.0364364720881,   0.0770637542009,  -0.1299769878387,   0.1404245644808,   0.0884948819876,   0.2237994670868,   0.0106573263183,   0.0008856584900,   0.0597762838006,   0.0975339114666,  -0.0757349506021,   0.0195216313004,  -0.0498828180134,   0.0472870394588,  -0.2206128537655,  -0.2430803030729,   0.1061050593853,   0.1045177206397,   0.0384157225490,  -0.0219692625105,   0.1161561533809,  -0.1388086229563,   0.1630200445652,  -0.2060566842556,   0.1520481556654,   0.0281858537346,   0.0143659412861,   0.1070538759232,  -0.1730026751757},
   {  -0.0054072141647,   0.0254919677973,  -0.0928348153830,  -0.0729608088732,   0.0735294297338,  -0.1190357208252,   0.2337937206030,   0.2222905755043,  -0.1278349161148,   0.1809340566397,   0.2224006056786,   0.0366317220032,  -0.2661196589470,   0.0313983112574,  -0.0104768630117,   0.2450575530529,  -0.0152048226446,   0.0848909839988,  -0.0836224108934,  -0.1814263015985,  -0.0462123453617,   0.2109546959400,  -0.1558626145124,   0.1725272238255,  -0.2180767953396,  -0.2149026840925,   0.1476648449898,  -0.1539546698332,   0.0051511046477,   0.0681775882840,  -0.1494409739971,  -0.1663844585419,   0.0346315056086,   0.0741541385651,   0.1292018443346,   0.0640436932445,  -0.0354145430028,   0.1281270682812,  -0.0323324240744,   0.2097286283970,   0.0284486953169,   0.1303807944059,  -0.0397987067699,   0.2052811086178,   0.1681745946407,   0.2627132534981,   0.0990011841059,  -0.0174964126199,  -0.0441575460136,  -0.1591309010983},
   {   0.0288165882230,   0.0504644028842,  -0.1079851984978,   0.0881135314703,  -0.0533342733979,   0.2358763962984,  -0.2053389847279,  -0.1309656798840,  -0.0360178090632,   0.1261324286461,   0.1331254690886,   0.1966741681099,  -0.0368172936141,  -0.0654821321368,  -0.2396384030581,  -0.0170069057494,  -0.0915342643857,  -0.1662548184395,   0.1447090059519,   0.2157837450504,   0.0191796738654,  -0.0678703337908,   0.0655577927828,   0.0116290180013,   0.0347802676260,   0.0416157096624,   0.1298225373030,  -0.1141676381230,   0.0202789083123,   0.2140145599842,  -0.1793126165867,  -0.0130362603813,  -0.0208006929606,  -0.2483502179384,  -0.2562948763371,   0.0964385122061,   0.1992105096579,   0.0971741750836,   0.2418811321259,   0.1986873447895,   0.0070459274575,   0.1470700651407,   0.0114804459736,  -0.1684526354074,   0.2389988303185,   0.0702244788408,  -0.0267241224647,  -0.0237104594707,   0.1164085566998,   0.2114247232676},
   {  -0.0167254041880,  -0.0560049898922,  -0.0182304419577,   0.2064563333988,  -0.1148108839989,   0.2076825052500,   0.0793870538473,   0.0779669508338,  -0.1010298058391,  -0.2084577679634,  -0.1500096917152,   0.0600471012294,   0.0326038002968,   0.2033280730247,  -0.2180497050285,   0.0701866224408,   0.2006526738405,   0.1237576752901,   0.1527976244688,   0.1867490112782,  -0.0648454800248,   0.1896058022976,   0.0169783607125,   0.1506641805172,   0.1250432282686,   0.1779632866383,  -0.1723068207502,  -0.0449224933982,  -0.1419212371111,  -0.1156385838985,   0.0830138549209,  -0.1730221211910,  -0.1855949312449,  -0.0451716892421,  -0.1334273666143,  -0.0095018213615,   0.0537551976740,   0.1280374228954,  -0.0212770141661,   0.0534236319363,  -0.0174267608672,   0.1096702367067,  -0.1782265007496,   0.0153403105214,   0.1025002449751,  -0.0370830185711,   0.0669317916036,  -0.1651412844658,   0.1090485975146,   0.1669946610928},
   {   0.0834686607122,  -0.0143918441609,   0.1012964695692,   0.2083035409451,  -0.2600770294666,   0.1273243576288,   0.0239065550268,  -0.0455328635871,  -0.1643986850977,   0.1342178136110,  -0.1333722025156,   0.2469017058611,   0.1363450437784,   0.0539620444179,   0.0625477805734,  -0.0722440108657,   0.1131785586476,  -0.1121714934707,   0.1518623828888,   0.1754096746445,  -0.2510194480419,   0.2191293835640,   0.1186184585094,   0.1331066489220,   0.1253957003355,  -0.0940475389361,  -0.1199955046177,  -0.0141953956336,  -0.0355509221554,  -0.0875977873802,  -0.1574995368719,  -0.1100755780935,  -0.2150630503893,  -0.1130450442433,  -0.1836860328913,  -0.2057798057795,  -0.0289301015437,   0.1071348339319,   0.0345953293145,   0.2228033691645,  -0.1350958645344,   0.0452566966414,   0.0569599792361,  -0.1283463835716,  -0.2358671575785,  -0.2271080762148,   0.1682073026896,  -0.1034636646509,  -0.0193086452782,  -0.0236388482153},
   {   0.2077198475599,  -0.0103746261448,   0.1495847553015,   0.0046395673417,  -0.0207673348486,   0.0479639694095,  -0.2020652145147,   0.1325361132622,   0.1243333443999,   0.2412776648998,   0.2663524448872,   0.0026637658011,  -0.0173502881080,   0.1540048569441,   0.0680696144700,  -0.1997447013855,   0.0099116414785,  -0.0201587006450,  -0.0360114388168,   0.0023642426822,  -0.1329351961613,   0.2148694545031,   0.0655015930533,  -0.0198740400374,  -0.2373039722443,   0.0904440060258,  -0.1062428951263,   0.2023143470287,   0.0156074743718,   0.2573754191399,  -0.0572969131172,   0.1150043085217,   0.0669763013721,  -0.0304531231523,  -0.1778079867363,  -0.1091282814741,  -0.1804038584232,   0.1571089923382,   0.1677102297544,  -0.1672313362360,   0.0845081955194,  -0.0954955741763,   0.0218573901802,  -0.1377416551113,   0.1495770365000,  -0.1418265551329,   0.1130604594946,   0.1204339563847,   0.1539309024811,   0.1567844152451},
   {  -0.1362139582634,  -0.1359078139067,   0.0474387668073,  -0.0173081308603,   0.1522035896778,   0.2334555983543,   0.1620028913021,  -0.0200799200684,  -0.0570379942656,  -0.1843295097351,  -0.1884841918945,  -0.2116226106882,   0.0087808473036,   0.1268367320299,  -0.1183370426297,   0.1816843450069,  -0.0748542547226,   0.0463043339550,  -0.1255179941654,  -0.0564846768975,   0.0923145636916,  -0.0537443533540,   0.0509308278561,   0.0136649403721,  -0.1455639451742,   0.0351782701910,   0.1936939060688,  -0.1470618396997,   0.1122208163142,  -0.2033420503139,  -0.0784105658531,   0.0515591837466,  -0.1354520916939,   0.0162398759276,   0.2135666161776,   0.1332471519709,   0.1924909502268,   0.2276560515165,  -0.0727452263236,   0.1911414563656,   0.2034673690796,  -0.2108010500669,  -0.0847881063819,   0.1070187762380,  -0.0108300680295,  -0.0858422368765,   0.2530354261398,   0.0994496420026,  -0.0245691519231,  -0.1420737504959},
   {   0.0214967168868,  -0.2410287410021,  -0.2111275047064,  -0.2366327047348,  -0.0508483164012,  -0.0955686196685,  -0.0667954608798,  -0.1250650882721,  -0.0793720707297,  -0.1276136636734,   0.0766960307956,  -0.0225218571723,   0.1745578348637,  -0.0623710975051,  -0.1193001791835,   0.0527826361358,   0.1775979697704,  -0.2117250114679,   0.0463538095355,  -0.0254252944142,   0.1919804513454,   0.1243108883500,   0.0593990013003,   0.1495824605227,   0.1111382469535,  -0.2309456914663,   0.1223326101899,  -0.1085631400347,   0.1088554784656,   0.0061629461125,   0.2028774470091,   0.0647106096148,  -0.0586504824460,  -0.0924855843186,   0.0077195377089,   0.0407545492053,  -0.0104830730706,   0.0192932542413,   0.0440332628787,   0.0552492402494,   0.0899709686637,   0.0126535836607,  -0.1113907322288,   0.1178637444973,   0.1221916973591,   0.0275780931115,   0.1182560324669,   0.2539825141430,  -0.1549636572599,  -0.0992929115891},
   {  -0.0880505889654,   0.0239788498729,   0.0372904054821,   0.0709139555693,  -0.0207293778658,   0.0470252893865,   0.2086752206087,   0.0733847618103,  -0.0525947324932,  -0.0886634141207,   0.0181231554598,  -0.1125153824687,  -0.2174957990646,  -0.1607653200626,  -0.1364055126905,   0.1552923172712,  -0.0752914622426,  -0.0170949790627,  -0.1262259334326,   0.0052884244360,  -0.1938934475183,   0.1053918004036,   0.1492294073105,   0.2220666110516,  -0.2241462171078,   0.1607079803944,   0.2150791287422,  -0.1598956882954,  -0.0376245118678,   0.0385505631566,   0.0632731020451,  -0.1056961119175,   0.0232859626412,  -0.0575528033078,  -0.1807976216078,   0.2408717572689,   0.1038473322988,   0.0172165632248,  -0.1680916994810,   0.1640876829624,  -0.1604907810688,   0.1052964106202,   0.1447718739510,   0.1977328956127,   0.0177326165140,   0.0895532220602,   0.0534007139504,   0.1628135293722,  -0.0622752159834,   0.2053626179695},
   {  -0.0614037029445,   0.0158316791058,  -0.0219069644809,  -0.1458925008774,   0.1792824417353,   0.0168312340975,   0.2464970350266,  -0.1346917897463,  -0.1801248639822,  -0.0575029365718,  -0.1128600016236,  -0.1576721072197,  -0.0342397391796,   0.1897117197514,   0.1364632546902,   0.0799661278725,  -0.1268113404512,  -0.0278535522521,   0.2401940673590,  -0.2086006551981,  -0.1019804105163,  -0.1268697381020,   0.0643646642566,  -0.0678494796157,   0.0972225293517,  -0.0197576060891,   0.1240604668856,  -0.0154766337946,   0.2237494289875,   0.1328558176756,   0.2572916150093,  -0.1663224250078,   0.0192600786686,  -0.1872671991587,  -0.0331939458847,   0.1906151920557,   0.2115649282932,   0.1944197267294,  -0.1849988847971,  -0.0257495976985,   0.0388256534934,  -0.1988135427237,   0.1652639508247,  -0.1338552087545,  -0.1608109921217,  -0.0640224367380,   0.1238753348589,  -0.0029409611598,   0.2124012559652,   0.0457603186369},
   {   0.2228105068207,  -0.1675715297461,   0.1618497222662,   0.0337203666568,   0.1966376453638,  -0.1089651733637,   0.1435979604721,  -0.2096960991621,   0.2105974406004,   0.2150179743767,   0.2352050542831,   0.2341411858797,   0.0723635032773,   0.1820124238729,   0.2285095304251,  -0.0180799327791,   0.0642050579190,   0.0974777489901,  -0.1242524385452,  -0.0008732679416,  -0.1343107819557,   0.1827628612518,   0.1185983344913,   0.0031123508234,  -0.1566963046789,   0.2585911452770,   0.2084300965071,   0.1626717001200,  -0.2720234096050,   0.0637760162354,  -0.0904942303896,   0.0919442772865,   0.0686913356185,   0.2532934248447,   0.1989104747772,  -0.1866046488285,  -0.1068419218063,   0.0375635400414,  -0.1409057378769,   0.0451505295932,  -0.0258166212589,  -0.2070232778788,   0.0457874238491,  -0.0188477020711,   0.0751415044069,   0.0266268439591,   0.0340162515640,  -0.2554642856121,   0.2103785127401,  -0.2524835467339},
   {   0.0631708055735,  -0.0950170680881,  -0.1943435519934,   0.1532529294491,   0.1489475965500,   0.2012114673853,   0.1925502121449,   0.0339563749731,  -0.1814034134150,   0.1995124220848,   0.1957953423262,  -0.2321714162827,  -0.1018773689866,   0.2113746702671,   0.2003841996193,   0.1499030888081,  -0.0363038368523,   0.1744859069586,   0.0978477522731,  -0.0654356256127,   0.0492388904095,   0.0709265619516,   0.1227324754000,   0.2644313275814,   0.2258589863777,  -0.0784531310201,   0.2581254839897,   0.0942056253552,   0.1477787494659,  -0.1665521413088,   0.0362247638404,   0.1125564202666,  -0.0601786486804,   0.1719090193510,  -0.0812071412802,   0.2329906523228,  -0.2488931864500,  -0.1537905335426,   0.2602372765541,   0.0233340505511,  -0.0873329639435,  -0.0469472110271,  -0.1727274209261,   0.0944015607238,   0.1402463912964,   0.1577102243900,  -0.1883241236210,   0.1011195406318,   0.0954147055745,  -0.2194472253323},
   {  -0.1167815327644,   0.1329498142004,  -0.1587645411491,   0.2117854207754,   0.0136640574783,  -0.1358409076929,   0.0227090176195,   0.1875146776438,   0.1601824760437,  -0.0704499855638,  -0.0058011603542,  -0.2081895321608,  -0.2000578045845,  -0.1464803218842,   0.0968059971929,   0.2130552679300,  -0.0702324435115,   0.0965434014797,   0.0675387009978,  -0.1022714897990,  -0.0839438959956,   0.1070701479912,  -0.2122142314911,  -0.1298088282347,   0.0502155758440,  -0.0642459988594,  -0.1101361289620,  -0.2451601922512,  -0.2179509252310,  -0.1104316040874,   0.0157911963761,   0.1836555302143,   0.1824743449688,   0.1808649301529,   0.1813451796770,  -0.0472918227315,   0.0390736386180,   0.0231631062925,   0.1219876185060,   0.1622598469257,  -0.1162299141288,  -0.0358079671860,   0.2047408968210,   0.0736394673586,   0.0700994580984,  -0.2335509061813,  -0.1403611302376,   0.0420782454312,  -0.1458989977837,   0.0679132416844},
   {  -0.0394122339785,  -0.2459289729595,  -0.1119233742356,  -0.0492245554924,   0.1163482964039,  -0.1469767242670,  -0.1227236688137,  -0.0945539548993,   0.1687570810318,  -0.1726206839085,   0.0892245620489,   0.0920060873032,  -0.2554935216904,   0.2380886226892,   0.1021634042263,   0.1064461246133,   0.1220762431622,  -0.0312432684004,  -0.0695501789451,   0.2088849246502,  -0.1571426838636,  -0.0705138742924,  -0.2005009502172,   0.0132343377918,  -0.2090991735458,   0.0603161007166,   0.2506422698498,   0.0787932872772,  -0.1464551389217,  -0.0167208500206,   0.1335938572884,  -0.2015258818865,  -0.0868876799941,  -0.2326835244894,   0.0263474434614,   0.0875165760517,  -0.0788145959377,  -0.1483346521854,   0.0059222169220,   0.2623782455921,  -0.0779012218118,  -0.1998271346092,   0.0912989079952,  -0.0216931905597,  -0.0686042010784,  -0.1608311831951,   0.2168470174074,  -0.2020451128483,  -0.0668562054634,   0.0404925681651},
   {   0.1308932900429,   0.1137967407703,  -0.0681157708168,   0.2602598369122,   0.0377073436975,  -0.1444099843502,  -0.1472166031599,  -0.0609227158129,   0.2342905402184,   0.0564419515431,   0.0204865857959,  -0.0299054384232,   0.1214020252228,  -0.1531741470098,  -0.0130492849275,  -0.1669888943434,  -0.1897213608027,   0.1069026440382,  -0.0010132752359,  -0.0189423039556,   0.0985902771354,   0.1515540331602,  -0.0038283101749,   0.0676706209779,  -0.0229246951640,  -0.1057736352086,   0.2561906278133,   0.2313450276852,   0.1156219094992,   0.0587816052139,  -0.0963821634650,   0.0696324929595,  -0.1343597620726,   0.0556008070707,  -0.1833986490965,  -0.1892849355936,   0.0655926018953,  -0.0455222725868,  -0.2009635716677,  -0.1247587502003,  -0.0726973637938,   0.0268812812865,   0.1262167990208,  -0.1942265480757,   0.2057141661644,   0.1208115741611,  -0.0362409651279,   0.0552811957896,  -0.0563989169896,   0.0329027771950},
   {  -0.0829634964466,  -0.0964146107435,   0.0151579743251,  -0.2276577353477,   0.1233910694718,   0.1557831317186,   0.1830059140921,   0.0777387470007,   0.2444789558649,   0.0292756203562,  -0.1636408716440,  -0.1008886471391,  -0.2485356926918,  -0.1071484833956,  -0.2097957730293,   0.2562929987907,   0.1471647918224,   0.2278813123703,   0.1825193911791,  -0.1851047873497,  -0.2345525771379,   0.2339860945940,  -0.1358827203512,  -0.1275051385164,  -0.0561877042055,   0.0572041459382,  -0.1343610435724,   0.1365598142147,   0.2019862681627,   0.2532818913460,  -0.0415363088250,  -0.1885149627924,   0.2317848801613,   0.0605317801237,  -0.0027695929166,  -0.2507736980915,  -0.0763194188476,  -0.1275900602341,  -0.0730022639036,   0.1271722912788,   0.2012295126915,  -0.0724942386150,   0.1301901191473,   0.1824147701263,   0.0901038125157,   0.0799139663577,  -0.1592739522457,  -0.0753626823425,   0.0632086694241,  -0.1241747662425},
   {   0.1659285873175,   0.1325436532497,   0.1310030072927,  -0.1266838759184,  -0.1161703914404,  -0.2152366042137,   0.0817563459277,  -0.1832382827997,  -0.1373957246542,   0.1854542642832,   0.0749636292458,   0.0194297153503,   0.2141157388687,   0.1942378878593,   0.0003461271990,   0.1600534170866,  -0.1252341568470,   0.2619326114655,  -0.0680726394057,  -0.0947096347809,   0.1911503225565,  -0.2188308686018,   0.0111401909962,  -0.0044023492374,   0.2633377015591,   0.2125892490149,   0.0977925732732,  -0.0938544422388,  -0.0039227679372,   0.1940853297710,  -0.0298948939890,   0.0316030420363,   0.0555081404746,   0.1208522021770,   0.1637161672115,  -0.2342074066401,  -0.0648016408086,  -0.0117400651798,  -0.1349425762892,   0.1080742627382,   0.0670163929462,  -0.1862303316593,   0.2128378748894,   0.0729308202863,  -0.0369101017714,  -0.0283832810819,   0.0479676425457,  -0.1999824345112,  -0.1071233376861,  -0.1055493429303},
