
    // Select all (Ctrl+A), Copy (Ctrl+C), paste to an empty text file (Ctrl+V) and save that file as 'generated_code.h'
    // 
    // Auto-generated header file. Assumes img to be a floating point array
    // of 64 elements (corresponding to an 8x8 b&w image)

    #include <math.h>

    float norma_LL;
    
inline float activation_LL_0 (float x, float n) 
{ return x > 0 ? x : 0;}
inline float activation_LL_1 (float x, float n) 
{ return x > 0 ? x : 0;}
inline float activation_LL_2 (float x, float n) 
{ return x > 0 ? x : 0;}
inline float activation_LL_3 (float x, float n) 
{ return x > 0 ? x : 0;}
inline float activation_LL_4 (float x, float n) 
{ return x > 0 ? x : 0;}
inline float activation_LL_5 (float x, float n) 
{ return x > 0 ? x : 0;}
inline float activation_LL_6 (float x, float n) 
{ return x > 0 ? x : 0;}
inline float activation_LL_7 (float x, float n) 
{ return x > 0 ? x : 0;}
inline float activation_LL_8 (float x, float n) 
{ return x > 0 ? x : 0;}
inline float activation_LL_9 (float x, float n) 
{ return exp(x)/n;  }

    float guess_LL (const float *img, int flag)
    {
    
  // Declare the arrays in the stack
  const float kernel_0[57][50] = 
  {{  -0.0308321081102,   0.0161057207733,  -0.0697315856814,  -0.0990782901645,   0.0614047311246,  -0.0840817391872,  -0.0986966788769,  -0.1090208292007,  -0.0601379722357,  -0.1122571527958,  -0.0646925121546,   0.1588536053896,  -0.2281088531017,  -0.0676518380642,  -0.2145556658506,   0.2042016834021,  -0.1623451560736,   0.1529150158167,  -0.1676007956266,  -0.0161011870950,  -0.0396243594587,   0.2263704985380,  -0.1221721172333,   0.0850076898932,  -0.0588705539703,   0.1292539536953,   0.1693124920130,   0.1493509113789,   0.0114069757983,   0.0342996791005,   0.0699751600623,  -0.1756732612848,  -0.1510630846024,   0.1008765324950,  -0.0525961816311,   0.1918983906507,  -0.1579783856869,  -0.0555258356035,  -0.0422228723764,   0.1751018911600,  -0.0388083271682,   0.1142362132668,   0.1016242727637,  -0.0773678347468,   0.1757877171040,  -0.1683930903673,   0.1367302238941,  -0.0209493525326,  -0.1451239883900,   0.1210491433740},
   {   0.0669555440545,  -0.2227539271116,  -0.1684502065182,  -0.1248571351171,  -0.1812645196915,  -0.0983602777123,   0.1182155385613,  -0.1091408729553,   0.1261393576860,  -0.1572574973106,  -0.2070363759995,   0.1787638515234,  -0.1603952348232,  -0.1811996698380,  -0.0235326774418,  -0.0510666929185,   0.0106949536130,  -0.0158629436046,  -0.0423624366522,   0.0470686070621,   0.0593098290265,  -0.2416149079800,  -0.0673433840275,  -0.1445627808571,  -0.1447648257017,  -0.1717328429222,   0.1529803276062,   0.0456160269678,   0.0964389592409,   0.2022726684809,   0.1633122265339,   0.2227861136198,   0.0995026007295,   0.1662639975548,  -0.2101198881865,  -0.1006441563368,  -0.0350452624261,   0.0257594715804,  -0.0992809385061,  -0.0702121630311,   0.0744237229228,   0.1266009211540,   0.0098405675963,  -0.0762182101607,  -0.2267639040947,   0.1306550949812,   0.1735050976276,   0.1549479365349,   0.2060481756926,  -0.0687678009272},
   {   0.2330211848021,   0.0835553854704,  -0.2274107336998,  -0.0623181983829,  -0.0901890024543,   0.2006404101849,  -0.0841664746404,  -0.1344283223152,  -0.0140477418900,   0.2151917219162,   0.0736719146371,  -0.0756260752678,   0.0489013418555,   0.0268544368446,  -0.1758386492729,   0.1994380354881,   0.2220031023026,  -0.2159620374441,  -0.0408244505525,   0.0774057283998,   0.0058557200246,  -0.1274754106998,  -0.2196945399046,  -0.1778931170702,  -0.0465810149908,   0.0471972748637,  -0.1883027106524,   0.1583430171013,  -0.0076026418246,  -0.1205463558435,  -0.1230230182409,  -0.1371434926987,  -0.0733180269599,   0.0766127780080,  -0.1060720607638,  -0.1395645290613,   0.1296675950289,   0.1927515715361,  -0.1676099002361,  -0.1148288026452,  -0.0709079056978,   0.0641680210829,  -0.1233424469829,  -0.2275792807341,   0.0091215232387,  -0.0526205748320,  -0.1469978392124,   0.1862683445215,   0.0419985949993,   0.2063995301723},
   {  -0.2155403196812,  -0.0164264179766,  -0.2378781586885,  -0.0952214822173,  -0.1772125661373,   0.0810364782810,  -0.0693428814411,   0.0522796399891,   0.0850965753198,  -0.2428194284439,   0.1244803443551,  -0.1041982099414,   0.2305781692266,  -0.1617415249348,   0.0492967516184,  -0.1131012588739,  -0.1620158404112,  -0.1962119042873,  -0.0682364776731,   0.1716660857201,   0.0671117529273,   0.0734628587961,  -0.0757660269737,  -0.0083950236440,   0.1271759420633,  -0.0712041556835,  -0.1657474488020,   0.1569814980030,   0.1625936329365,   0.1291075795889,   0.0291600022465,   0.1072607189417,  -0.0613169781864,   0.0784752964973,   0.0520920567214,  -0.2319262921810,   0.0602997504175,  -0.2602407932281,  -0.1959467083216,  -0.2360750138760,  -0.2092353552580,   0.1506126224995,  -0.0533185787499,   0.1943240463734,   0.1603424102068,   0.0595932342112,   0.1069553196430,  -0.1032185330987,   0.1738767176867,  -0.0483018942177},
   {   0.1173631921411,   0.2108925729990,   0.1984236985445,   0.2283359915018,  -0.1781726777554,  -0.0812139883637,  -0.1976701021194,  -0.1882620900869,   0.0840939804912,   0.0019100425998,   0.0104200057685,  -0.1023677811027,   0.1293625533581,   0.2272636443377,  -0.0883686244488,   0.1876941174269,  -0.0725954025984,   0.1398442387581,  -0.2012070715427,  -0.0775119289756,   0.0321401357651,  -0.1682690680027,  -0.0019912165590,   0.1325859278440,  -0.0452506169677,   0.1129260584712,   0.2293350249529,  -0.0373385548592,  -0.0251906178892,   0.0627752766013,  -0.1179796680808,   0.1956913471222,   0.0321791879833,  -0.1656379550695,   0.1176282837987,   0.2247495651245,   0.2002148926258,  -0.0239809602499,  -0.0997871905565,  -0.1350325793028,   0.0707276985049,  -0.0946470275521,  -0.0616672262549,  -0.1412312835455,  -0.2339105010033,  -0.1443050205708,  -0.0387291833758,  -0.0509184934199,   0.2222527414560,   0.1242193281651},
   {  -0.1623114347458,   0.0232600420713,  -0.2246873974800,  -0.0931609272957,  -0.2463108897209,  -0.1676533520222,  -0.1130631268024,  -0.0027839750983,  -0.0247802697122,  -0.2238944917917,   0.2190491855145,  -0.0613994821906,  -0.1450586766005,   0.0691858455539,  -0.0793530344963,  -0.1025163680315,  -0.0681392475963,  -0.0801921859384,   0.1558922529221,   0.0470286570489,  -0.1209338903427,   0.0233551207930,  -0.2521938681602,   0.1717397123575,  -0.1577737033367,  -0.0419352576137,  -0.0033654174767,  -0.1053820177913,  -0.2537867426872,  -0.0128133641556,   0.1884439140558,  -0.2055533081293,   0.0397139340639,   0.0969175994396,  -0.0026792320423,  -0.0591071136296,  -0.0910808071494,  -0.1983175724745,   0.1712959110737,   0.2412601411343,   0.0795448124409,  -0.1198485344648,   0.1085177734494,   0.1232574358582,  -0.1291629672050,   0.1228264570236,  -0.0215711370111,   0.0975597873330,  -0.0373468138278,  -0.0485576428473},
   {   0.0112707633525,   0.1127560883760,   0.0871539041400,   0.1039797589183,   0.0055937105790,   0.0036281552166,   0.1666358858347,   0.0786118358374,   0.1500890851021,   0.1031147167087,   0.1101323291659,  -0.2288527339697,   0.2558983862400,   0.0078668603674,  -0.1328540891409,   0.2156946510077,   0.0342654474080,  -0.2236592769623,  -0.0781592577696,   0.1885713487864,   0.0914762094617,   0.0060998774134,   0.0548507049680,  -0.0810409039259,  -0.1093365997076,  -0.1764663606882,   0.1147765517235,  -0.0140100205317,  -0.1053223162889,   0.2310633361340,  -0.2307009696960,  -0.0955039188266,  -0.0373374782503,   0.0949760153890,  -0.0434130802751,  -0.1131182089448,   0.0739041641355,  -0.0476871207356,  -0.0689012333751,   0.2278190851212,  -0.2079183459282,   0.0083013754338,  -0.1800530999899,  -0.1043212860823,  -0.0786659196019,   0.0066864788532,  -0.1960648000240,   0.1990215480328,  -0.1152631640434,  -0.0125374775380},
   {  -0.0625785738230,  -0.0035057330970,   0.1451624184847,  -0.1346448361874,  -0.2139651775360,  -0.0155579447746,   0.2212280333042,   0.1831173598766,   0.1103377863765,   0.0719715431333,  -0.1277837604284,  -0.1103975772858,   0.0599570646882,   0.0748912692070,  -0.1185780689120,  -0.0892142504454,  -0.0119169037789,  -0.1188509911299,  -0.2108858972788,  -0.0702824071050,   0.0658529698849,  -0.1847225278616,  -0.0150352492929,  -0.2019058316946,  -0.1960603147745,   0.0854113101959,  -0.2079633027315,  -0.1398567259312,   0.0205535981804,  -0.0408291965723,  -0.1458448618650,  -0.0332371443510,  -0.0851453915238,   0.0967161059380,  -0.0748214572668,   0.0859952941537,   0.0108024524525,   0.1268792301416,  -0.1095521077514,   0.1843720078468,  -0.2453520447016,  -0.0886357277632,  -0.0685619488358,   0.0991790741682,   0.1046167016029,   0.1420269608498,  -0.1934251338243,  -0.0425056293607,   0.1854529380798,   0.0612177290022},
   {  -0.2304054200649,   0.1859152466059,   0.2433467507362,   0.1951903849840,   0.0711420774460,  -0.2056394517422,  -0.2264503091574,  -0.0382945574820,   0.1841989010572,   0.0472575835884,  -0.1144967228174,  -0.0655681490898,   0.2327577471733,  -0.0047812261619,   0.1362495869398,  -0.1452381908894,  -0.0508140660822,  -0.0972589999437,  -0.0454543344676,  -0.1194147542119,  -0.0981835499406,   0.0090981218964,  -0.1636365354061,   0.1246016621590,   0.0886284112930,   0.0405141115189,  -0.0889028310776,  -0.0385077893734,  -0.0480319000781,   0.0656818673015,   0.2336175441742,  -0.0407002456486,  -0.0978153720498,   0.1912821680307,  -0.1480496972799,  -0.0313383899629,   0.2370352745056,  -0.0932974293828,  -0.2115522176027,   0.1911709010601,  -0.1405440717936,   0.0016115356702,  -0.0831723883748,  -0.2381107658148,   0.1412345021963,  -0.2328522056341,  -0.0497974716127,  -0.0884721502662,   0.1025627702475,   0.2452664226294},
   {  -0.1690347045660,  -0.1754683554173,   0.1679393202066,   0.0538319014013,  -0.1147151291370,  -0.1342169344425,   0.0712623447180,  -0.1208516284823,  -0.0280548650771,  -0.0653742551804,   0.1627427786589,  -0.1445690542459,   0.0335046052933,   0.0871915295720,   0.0895296260715,   0.1955176442862,  -0.0556969456375,   0.1257665604353,   0.0584325529635,  -0.0117416176945,   0.1822143495083,  -0.0322055481374,   0.1806021183729,  -0.2570371627808,  -0.1147703975439,  -0.2238458842039,   0.1953895986080,  -0.2142779827118,  -0.0158150400966,   0.1121935471892,   0.1990439891815,   0.1494408994913,   0.0422615148127,   0.0862745195627,  -0.0585450641811,  -0.1704085916281,   0.1112686246634,  -0.0100356023759,  -0.0276525840163,   0.1809661239386,   0.1803736388683,  -0.0319745577872,  -0.1369207948446,   0.0494972951710,  -0.0687915608287,   0.2396411001682,  -0.0853860676289,  -0.0900842547417,  -0.2112153023481,  -0.1119034066796},
   {  -0.0706572905183,  -0.0008686158108,  -0.0572144314647,   0.1200271993876,   0.1828909367323,  -0.0797133669257,  -0.1275466233492,   0.1831085085869,  -0.0011819392676,   0.0873204022646,   0.1076280698180,   0.0640179961920,  -0.0407962985337,   0.0528491511941,  -0.1008436828852,   0.2224673032761,  -0.1106294095516,   0.0250381249934,   0.2402215003967,   0.1000314950943,   0.1303331702948,  -0.1375792324543,  -0.2050806134939,   0.1554494798183,   0.0392949581146,   0.0440839417279,  -0.0253752637655,   0.1103302165866,   0.0735334604979,   0.1069931760430,  -0.0574824735522,  -0.1520559042692,   0.1443020403385,   0.0599578097463,  -0.1854834556580,  -0.1434428095818,  -0.1561197638512,   0.0696049407125,   0.0462415702641,   0.1936939805746,   0.0199056696147,  -0.0764509141445,   0.2245502322912,  -0.0913245528936,   0.2619477808475,   0.2394577711821,   0.1564500480890,  -0.1976455301046,   0.0171874575317,   0.0248895063996},
   {   0.1540506333113,   0.0367929413915,  -0.1146759465337,  -0.1629830896854,   0.1156318783760,  -0.1999115794897,   0.0086079621688,  -0.1355691105127,  -0.1430235058069,   0.2568403482437,   0.2015228271484,  -0.1562346071005,   0.0348785258830,  -0.0032300169114,   0.0943003892899,  -0.0640908181667,   0.0463869497180,  -0.1928106397390,  -0.1354725062847,   0.1000748202205,  -0.2284839600325,   0.0374892130494,  -0.0329598560929,   0.1317780464888,   0.1497555226088,   0.2213713228703,   0.1552668362856,   0.0879297181964,  -0.2463878244162,   0.0660093650222,   0.1223671287298,   0.0451507158577,  -0.2405636459589,  -0.1034059375525,  -0.1094398051500,   0.1309504657984,  -0.1048615127802,  -0.0805502906442,  -0.1861663907766,  -0.0476544313133,  -0.1020676866174,   0.0979541093111,  -0.1183507665992,  -0.0578582026064,  -0.0116469478235,   0.0022982272785,   0.1386455446482,   0.1870363503695,   0.0907491818070,  -0.0519473329186},
   {   0.2357470393181,   0.1864431798458,  -0.2094414234161,  -0.0558608137071,   0.2587684690952,  -0.0609959363937,   0.2133273035288,   0.0261999927461,   0.1911043226719,   0.2444582730532,   0.1628512293100,  -0.1542132645845,  -0.2624777555466,   0.0099722417071,   0.1196768432856,   0.1912117600441,   0.0092446561903,   0.0698084309697,  -0.0546169690788,  -0.1882996410131,   0.0995230153203,  -0.0386730320752,   0.2029227465391,   0.0356710590422,   0.0065410933457,  -0.1588803082705,  -0.0495094880462,  -0.2627205252647,   0.1742499768734,  -0.1716231405735,  -0.0795521065593,   0.2152675986290,   0.0256775375456,   0.1968159079552,   0.0787298679352,   0.0385525710881,   0.0441326424479,   0.0392903760076,  -0.1170430481434,   0.0863550230861,   0.1768901199102,   0.0914819315076,  -0.2128350138664,  -0.2073448747396,  -0.1791118383408,  -0.0319660753012,   0.0008521733107,   0.1614715605974,   0.1380148380995,   0.0845516324043},
   {  -0.1332732290030,   0.1961956471205,   0.0460780337453,  -0.1159570738673,  -0.0211452487856,   0.1143995597959,  -0.0308627653867,  -0.0306607652456,  -0.2143786251545,   0.1322795599699,  -0.0176615621895,   0.1239475980401,   0.2523413300514,  -0.1030466258526,  -0.1452424675226,  -0.2076838910580,  -0.2378297299147,  -0.2339752167463,   0.0024639642797,   0.1203223913908,   0.0195876341313,  -0.0901422798634,  -0.2169714570045,   0.1256782263517,   0.0011402094970,  -0.1523137539625,  -0.0279392022640,  -0.0547742545605,  -0.0133740380406,   0.0135409478098,  -0.0722412243485,   0.0563715361059,  -0.0734856128693,   0.0997422412038,  -0.1191996484995,   0.1422229707241,  -0.2208346873522,   0.1446897685528,  -0.0237652529031,  -0.1953004300594,   0.0653862133622,  -0.1705608516932,  -0.2260399758816,  -0.2508148252964,   0.0165436901152,  -0.1813608855009,  -0.1250122636557,  -0.1411687284708,   0.0631489157677,  -0.1770009398460},
   {   0.1790518760681,  -0.1219504252076,  -0.1190740838647,   0.1177140697837,   0.0132234618068,  -0.1960540264845,   0.1909425556660,   0.0167582146823,  -0.1239019632339,  -0.0546978749335,   0.0140334703028,   0.1063624694943,   0.1609552800655,   0.1730438470840,   0.1351439356804,  -0.1966887116432,  -0.1376223266125,   0.0304526071995,   0.1426238119602,  -0.0566450431943,   0.1339176595211,   0.2420735955238,   0.1400583982468,   0.0322543494403,   0.1426652669907,   0.1623791307211,  -0.0242927838117,  -0.0281121935695,   0.0414744690061,   0.1180695965886,   0.2586480975151,  -0.1505042314529,  -0.0648564100266,   0.2288503050804,  -0.0495063588023,  -0.0953499451280,  -0.1454062610865,   0.2063630521297,  -0.0385316945612,  -0.1949637383223,   0.0254366211593,   0.1846375167370,   0.0235724281520,   0.1424877941608,   0.1086762249470,  -0.1688007861376,  -0.0141875213012,   0.2007368505001,   0.1607940196991,   0.0985456034541},
   {  -0.0396064706147,   0.0497333183885,  -0.0075712022372,  -0.1057206988335,  -0.1246691867709,   0.0933432877064,   0.0353177748621,  -0.2135405391455,   0.1747414171696,  -0.1666646301746,   0.0803759470582,   0.1726494282484,  -0.1936751157045,  -0.0917088016868,   0.0593587718904,   0.0865743681788,  -0.0017096754164,  -0.0154843600467,  -0.0335442833602,   0.0243040025234,   0.1893644183874,   0.0744950324297,  -0.1023993939161,   0.0726691633463,  -0.0100279627368,   0.2194204330444,  -0.0986712500453,   0.2048731595278,  -0.1273276954889,   0.2420981377363,   0.1880731582642,   0.1329082399607,   0.0083391424268,   0.1374239474535,  -0.1689680218697,  -0.0898429527879,  -0.0118098994717,  -0.1995367407799,  -0.0990270525217,  -0.0905691757798,  -0.0385730862617,  -0.0901723355055,  -0.1508696079254,  -0.0768767967820,  -0.1053447946906,  -0.0592241548002,  -0.1993338316679,   0.0483446121216,  -0.2054056376219,  -0.1139536425471},
   {   0.1736389398575,   0.1341183781624,   0.2523263692856,  -0.0013808832737,  -0.1691488772631,  -0.1974384635687,   0.1005544662476,  -0.1301701515913,   0.1925376057625,   0.0192884281278,  -0.0669806003571,  -0.1203177124262,   0.0682741254568,  -0.2151490747929,  -0.0612925924361,   0.2260836213827,   0.0237586181611,   0.0772617012262,  -0.2612251341343,   0.1744303852320,  -0.2414390295744,  -0.0884640663862,  -0.1654872894287,   0.0358958318830,  -0.0111220264807,  -0.0393377728760,   0.0506433323026,   0.1311890184879,  -0.0497442446649,   0.1031108349562,   0.0795160382986,  -0.0656908378005,  -0.1243840754032,  -0.0904167667031,   0.1581032574177,  -0.2497402131557,   0.0090973246843,   0.0073339627124,   0.1022654622793,   0.0479778833687,  -0.2105124592781,  -0.0352015756071,   0.1942980438471,   0.0077109499834,  -0.0074229259044,  -0.0280723292381,  -0.2239349335432,  -0.2171521037817,  -0.2023555189371,   0.1641253530979},
   {  -0.1779962927103,   0.1169467568398,   0.1899086236954,  -0.1394352167845,   0.1613914370537,   0.0331142246723,   0.0350736975670,   0.1841579824686,  -0.0227963961661,  -0.0548526123166,   0.2029129117727,  -0.0426884815097,  -0.0605655685067,  -0.1793015450239,  -0.1367657929659,  -0.0977754816413,  -0.2039488106966,   0.1450108289719,   0.1004345268011,  -0.0176617372781,   0.1169634014368,   0.0057141645811,   0.0813421010971,  -0.1822857856750,   0.0719148218632,   0.0230824593455,  -0.0047444836237,   0.2059808969498,   0.0345422513783,  -0.1377948075533,   0.1308756619692,  -0.2419057637453,   0.2436957359314,  -0.1450743377209,   0.0448931790888,  -0.1563074737787,  -0.0624950602651,   0.1455812752247,  -0.1739795953035,   0.1507987231016,   0.1056706979871,  -0.1620855629444,  -0.1512736082077,   0.2563497722149,   0.0556295253336,  -0.1449448466301,   0.1342968791723,  -0.2218233793974,   0.2018055915833,   0.1510644555092},
   {   0.0210809223354,   0.0164684932679,   0.0906222537160,  -0.0451843589544,   0.1441094577312,   0.0411455258727,   0.1605769693851,  -0.1242914944887,   0.0680559575558,   0.0713568702340,   0.1649294346571,   0.0842575356364,   0.1779265701771,  -0.0497188195586,   0.1414588987827,  -0.1748628616333,  -0.0668888241053,  -0.1919379979372,  -0.1848463118076,  -0.1976271569729,  -0.0734992474318,  -0.1236982196569,   0.0232660919428,  -0.2116264849901,  -0.0462899319828,  -0.0125350868329,  -0.1733517199755,   0.1599031835794,  -0.2422708570957,   0.1513315737247,  -0.1970160603523,  -0.1454189121723,   0.0091823013499,   0.1750030517578,  -0.2002416104078,  -0.0972969830036,  -0.1045442745090,   0.0278226006776,   0.1442502439022,   0.2452446222305,  -0.0606431402266,   0.1706565618515,   0.1931827515364,  -0.0808398723602,   0.0452776700258,  -0.0269286707044,  -0.1188172921538,  -0.0483973063529,  -0.1833973824978,   0.1946037411690},
   {   0.2159814089537,  -0.0152157219127,   0.0504933930933,   0.2198914438486,  -0.1619865298271,  -0.1288105696440,  -0.1529448926449,  -0.0711491480470,  -0.0956236422062,   0.2113871574402,   0.0902900621295,   0.0283602923155,   0.0028565665707,  -0.0794730782509,   0.0149621199816,   0.1463887244463,  -0.0457629039884,  -0.2101477682590,  -0.0554548017681,   0.1362544745207,  -0.0961270183325,  -0.2390434294939,  -0.0432344153523,   0.1562444567680,  -0.2568596005440,   0.0204900149256,  -0.1624934673309,   0.1967104673386,   0.1851783543825,  -0.1911344826221,  -0.2310461401939,  -0.1291745454073,   0.0066983411089,  -0.2415626496077,  -0.2002579271793,  -0.1875691115856,  -0.1661060005426,  -0.0206375177950,  -0.1662424206734,  -0.0495348870754,   0.2005482167006,  -0.1069424375892,  -0.1501803845167,   0.2066107690334,  -0.0930337011814,   0.2162488698959,   0.1248641461134,  -0.1528685688972,   0.0755215063691,  -0.0069890515879},
   {  -0.0733775869012,   0.1767533421516,   0.1528073400259,  -0.1003972738981,   0.2013172209263,  -0.2098476737738,  -0.1805412322283,  -0.0717765837908,  -0.1559698134661,   0.1638573557138,   0.1781337410212,  -0.1583895832300,  -0.0280804764479,   0.1269741803408,   0.0678345784545,   0.1307948082685,  -0.1643662303686,  -0.1639690399170,   0.2378829419613,  -0.1930753141642,   0.2294640243053,  -0.0555255897343,   0.1120879501104,   0.2228032201529,  -0.0064498102292,   0.0498777814209,  -0.1193313673139,  -0.0092717809603,   0.1058179661632,  -0.1465350985527,   0.2367416173220,   0.1833495646715,   0.2425425499678,   0.0380145162344,   0.0480415076017,   0.0551449656487,  -0.1120809912682,  -0.1331325322390,   0.0600208789110,  -0.2136686593294,  -0.1304824352264,  -0.0805597156286,   0.0371989049017,  -0.2006000429392,   0.1122524440289,  -0.1541858613491,   0.1876005977392,   0.2030614763498,  -0.0940515398979,  -0.0410222932696},
   {  -0.1430625468493,   0.1278967410326,  -0.2346147298813,  -0.0582547299564,   0.1375258266926,   0.0441746003926,  -0.0718910619617,   0.0632653161883,  -0.0655139833689,   0.0197827853262,  -0.0902098640800,   0.2286674082279,  -0.0507469624281,   0.1794654279947,  -0.2194851487875,  -0.0621762685478,  -0.1810007989407,  -0.0172088723630,   0.1854729652405,   0.2279920130968,  -0.0780757889152,  -0.2174252867699,   0.0029878308997,   0.2130345106125,   0.1877583712339,  -0.2407378405333,   0.1959718018770,   0.2166923731565,   0.0014882066753,   0.0431028343737,   0.0052614202723,   0.1001786813140,  -0.1479047685862,  -0.1745967864990,  -0.1273129582405,  -0.0048623513430,  -0.0722187831998,   0.1255765259266,   0.2085809707642,   0.2454699277878,  -0.0808503106236,   0.0722382143140,   0.1722243428230,  -0.1151389554143,   0.2340271919966,   0.0283578932285,  -0.1904243081808,  -0.1352175176144,  -0.1382867991924,   0.0148607427254},
   {   0.0750026851892,  -0.0725942179561,  -0.0284812320024,   0.0922901704907,   0.1607130020857,  -0.0969506502151,   0.1925045847893,   0.0985497012734,   0.0013020223705,   0.0319766625762,   0.2012622654438,   0.0592271462083,  -0.2348334342241,  -0.0382009409368,  -0.1407020539045,  -0.0398801490664,  -0.0040968721732,   0.1668641865253,  -0.0005363904056,  -0.1948870122433,  -0.1875092685223,   0.0151124401018,  -0.1683622747660,   0.0766249299049,  -0.0575189366937,  -0.1840922534466,   0.1453474014997,  -0.0230641309172,  -0.2080425024033,   0.0480783991516,   0.0226967446506,  -0.2411007881165,   0.1079177334905,   0.0768998935819,  -0.1497780680656,  -0.2062840908766,  -0.1087599918246,  -0.1228106766939,  -0.0460102297366,   0.0215075407177,   0.1503301113844,   0.0822577327490,   0.0399905703962,  -0.1404217332602,  -0.0970621258020,   0.1642971634865,   0.0895795598626,  -0.1109258756042,   0.2589180171490,   0.0454120934010},
   {   0.1064273416996,   0.1205721572042,  -0.1683821827173,  -0.1026462838054,  -0.0135634578764,  -0.0745021104813,  -0.0088805044070,  -0.0616667568684,   0.2379175275564,   0.0155811728910,   0.1154344156384,   0.0079105291516,  -0.1364223510027,  -0.0376298427582,   0.0467484854162,  -0.0528853461146,   0.1304443329573,  -0.1934689879417,  -0.0414055660367,  -0.2000990509987,   0.1127429008484,  -0.1613093912601,  -0.1150528490543,   0.2010544985533,  -0.1665075123310,  -0.0453974865377,   0.1454812586308,   0.1522418260574,   0.0736431330442,  -0.0878335088491,   0.0414281710982,  -0.1422050744295,   0.0681518390775,  -0.1907819658518,   0.0577115565538,  -0.1827649176121,   0.2000025510788,   0.0432131774724,   0.0947214066982,  -0.1463508009911,  -0.2071701735258,   0.1986902952194,   0.0951734781265,  -0.1556614786386,   0.0592315532267,  -0.0279211290181,  -0.1892466247082,  -0.1997741907835,  -0.0475110933185,   0.2074480354786},
   {   0.1775466054678,  -0.1023909449577,  -0.2216544002295,   0.2381255775690,   0.1885195821524,   0.1136608719826,   0.0825455337763,   0.0575105473399,   0.0716297179461,  -0.0428391471505,  -0.0975938886404,   0.0579020939767,  -0.0651790350676,   0.1127502918243,   0.1896743774414,  -0.1297177374363,   0.0319176241755,  -0.0829777196050,  -0.0499884970486,  -0.0981201678514,  -0.2105320692062,  -0.1625311076641,  -0.1508096903563,   0.0253253635019,   0.1727342754602,  -0.0426760204136,  -0.1337094604969,  -0.0431485138834,  -0.0270783547312,  -0.0346307866275,   0.0333468206227,  -0.0670206770301,  -0.0800690576434,  -0.2382780015469,   0.1180832237005,  -0.0210475288332,   0.1734154671431,   0.0462650619447,   0.0415676049888,   0.1241796687245,  -0.1510028690100,  -0.1376795619726,   0.1701522618532,  -0.1999507546425,  -0.1964847445488,  -0.0119190244004,  -0.1505710184574,   0.0292660538107,  -0.0532202720642,  -0.0443100072443},
   {  -0.1749700307846,  -0.1019820943475,  -0.0867873132229,   0.1865310817957,   0.1314797848463,  -0.0880266427994,   0.1973332911730,   0.2394486218691,   0.1612199544907,  -0.0736218243837,  -0.2495980113745,   0.2236464619637,  -0.0725625306368,   0.2212235033512,  -0.1056054681540,   0.0168151222169,  -0.1778359115124,  -0.1908125430346,   0.1862245500088,  -0.1015029326081,  -0.1344306915998,  -0.0238866731524,  -0.0335019491613,  -0.0453596673906,   0.0344962403178,   0.0769498124719,   0.0480646938086,   0.2128598541021,  -0.0595484375954,  -0.1253181695938,   0.0577628426254,  -0.0270175691694,  -0.2178599834442,  -0.1091596037149,   0.1045197099447,  -0.1879554986954,  -0.2069075554609,  -0.0535023510456,  -0.1389877349138,   0.0898783728480,   0.2106613218784,  -0.2086038142443,   0.1671267896891,   0.0963406190276,   0.2505231499672,  -0.0483081266284,  -0.0476711764932,   0.2426397502422,   0.1656929850578,  -0.0754653885961},
   {  -0.1600958853960,   0.2060920000076,  -0.1147472113371,  -0.1790260970592,  -0.0366030521691,  -0.2130028605461,   0.1503803282976,   0.0749865323305,   0.1868409365416,   0.2022333294153,   0.1037057563663,  -0.0364695787430,  -0.0544011294842,   0.2211428284645,   0.0710848420858,   0.0563139133155,   0.1464941799641,  -0.0646654814482,   0.1627107113600,  -0.1017920374870,   0.0061955614947,  -0.2128222435713,  -0.0975701287389,  -0.0995325744152,  -0.1477396339178,   0.1363146603107,   0.0848276987672,  -0.1811024993658,  -0.1571010053158,  -0.0798100456595,   0.1238922178745,   0.0979543551803,  -0.1222118437290,  -0.0771239772439,   0.1930835098028,  -0.2005195319653,  -0.0085492432117,   0.2223817110062,   0.0334751456976,   0.1705934107304,  -0.0967238470912,  -0.2243432104588,  -0.0853862985969,   0.0221324879676,  -0.0899469926953,   0.0202224738896,   0.0873971506953,  -0.2252959758043,   0.1005063951015,  -0.0427407361567},
   {  -0.2214996665716,   0.1799684315920,   0.1205279827118,   0.1295853853226,  -0.0101687442511,   0.0629228577018,   0.0538088455796,   0.1769802570343,  -0.1068322584033,   0.2062816172838,  -0.0093497689813,  -0.0880341902375,  -0.0685829594731,  -0.2137299478054,   0.1834409832954,  -0.0607749558985,  -0.0792910829186,  -0.0511176064610,  -0.0721494182944,  -0.1603295952082,   0.2355702221394,   0.1717563122511,  -0.0119035653770,  -0.2148956656456,   0.1121974810958,   0.1370641291142,   0.2422053366899,   0.1208154633641,  -0.1387239694595,   0.1317930221558,   0.0399240367115,   0.1174188926816,  -0.0752896741033,   0.0840592011809,  -0.1523904800415,  -0.0934269204736,   0.0696770474315,   0.2219187319279,   0.2493799775839,   0.1822717338800,   0.1246201172471,  -0.1129651963711,   0.2247106432915,   0.1834147870541,   0.0750065892935,   0.2074126601219,  -0.0914534106851,  -0.1501004397869,   0.1096182316542,  -0.1565847545862},
   {   0.2049164026976,  -0.0537416115403,   0.1809826493263,   0.0387648940086,  -0.0036317070480,  -0.0359147153795,  -0.1036495417356,   0.0616215579212,  -0.0157967153937,  -0.2324855476618,   0.1428566575050,  -0.1565455347300,  -0.1279503554106,   0.1878605931997,  -0.0875376239419,  -0.0543553121388,  -0.1609984785318,   0.0243270397186,   0.2274280935526,   0.0815083384514,  -0.1870460808277,  -0.0939039960504,  -0.1165223643184,   0.2144589871168,   0.2213854789734,   0.1767154633999,  -0.0431335419416,   0.1262936592102,  -0.0325317569077,  -0.0814307332039,   0.1798046678305,   0.0875201225281,   0.1244481801987,   0.1825480759144,  -0.0491127632558,  -0.0644128695130,   0.0041834763251,  -0.0219140760601,  -0.0062185442075,  -0.0965018793941,   0.0878975838423,   0.0966938808560,   0.1177368164062,  -0.1647899895906,  -0.1785002499819,   0.2233042567968,  -0.1020792052150,  -0.0066251805983,   0.0536839626729,   0.1565113663673},
   {   0.0148621341214,  -0.0311454515904,   0.1284967064857,  -0.1215237230062,   0.1372432410717,   0.0677270740271,   0.0936204940081,  -0.0938509777188,   0.2357947379351,   0.0227654334158,  -0.1165730133653,  -0.0248280297965,  -0.1285403668880,  -0.1166535541415,  -0.1257255822420,   0.1786042302847,   0.0553836598992,   0.1437952518463,  -0.1156260445714,   0.2350687086582,   0.2256931662560,  -0.1342345923185,   0.0134732844308,   0.1423315852880,  -0.0824990347028,  -0.0578466914594,   0.2155940681696,  -0.2187069356441,  -0.2234190553427,  -0.0104168700054,   0.1874833405018,   0.0150340944529,   0.0161721184850,   0.1377810537815,  -0.0293799526989,   0.0422458276153,   0.0118149910122,   0.1465262472630,   0.0514758117497,  -0.0645686089993,   0.1062617227435,  -0.1559536308050,  -0.0673106908798,   0.0896417424083,   0.2244948148727,   0.0953600555658,   0.0193566270173,   0.1409852355719,  -0.2013819515705,  -0.0077604386024},
   {  -0.0403518192470,   0.1048767119646,   0.1020693182945,  -0.2407431304455,  -0.0006269966834,   0.0537457726896,   0.1163381338120,  -0.0643765777349,   0.0821124538779,   0.1066147610545,   0.0247448515147,   0.0187002159655,  -0.1778748184443,  -0.1076773926616,   0.0076247504912,  -0.0258337259293,  -0.1789460331202,   0.0183956138790,   0.1176245361567,   0.1477192342281,   0.1840093433857,   0.2213502675295,  -0.0679560527205,   0.2230078279972,  -0.1777939349413,   0.0723378062248,   0.1275243610144,   0.1906467676163,  -0.0028460172471,  -0.1734313368797,   0.0310809463263,   0.1751410216093,   0.1471206098795,   0.1461354792118,  -0.1036870628595,   0.0418216399848,  -0.0020672383253,  -0.0042868210003,   0.1198361590505,   0.0194654669613,  -0.1118902489543,   0.1123977005482,   0.1712731570005,   0.0689761266112,  -0.1367610543966,   0.1928994506598,   0.1691817790270,  -0.2470271885395,   0.2413156777620,   0.1745367497206},
   {   0.2223366796970,  -0.0237205699086,   0.0090687824413,  -0.2395989298820,  -0.0060305562802,   0.1960809677839,   0.1186214089394,   0.1355159729719,   0.2138889431953,   0.2042719721794,   0.1443167477846,   0.0880033075809,  -0.2094939053059,   0.2325738072395,   0.1017453745008,  -0.0264555700123,  -0.0427533201873,  -0.1916037201881,   0.1813849806786,  -0.0863529294729,  -0.0245223771781,   0.1650128960609,  -0.1290840953588,   0.0101218288764,  -0.2117669582367,  -0.1714301407337,  -0.1290778964758,  -0.1139982044697,  -0.1080735921860,   0.1960181593895,   0.2030673772097,   0.0759719759226,  -0.0238573476672,  -0.1650305837393,  -0.2037018537521,   0.1400270313025,   0.0924911648035,   0.1433387845755,   0.2135699689388,   0.1451119184494,  -0.1558290421963,  -0.2144890129566,   0.1076585799456,  -0.1895987242460,   0.0256065595895,   0.2288791239262,   0.1080966219306,  -0.1196570992470,   0.2021687924862,   0.0475386269391},
   {   0.2440958470106,   0.0605751760304,   0.0248082429171,   0.1263247579336,   0.1394239664078,  -0.0226763691753,  -0.0188532266766,  -0.0226298030466,   0.1459623426199,  -0.0792138800025,  -0.0471217557788,   0.0069014783949,   0.0718417614698,   0.1581931412220,   0.2238490283489,   0.0723915547132,   0.0760522261262,  -0.0435796491802,   0.0873876139522,   0.0292645357549,  -0.0610765181482,   0.0101324506104,  -0.0494299829006,   0.1539670079947,   0.0530959777534,  -0.2569054663181,   0.0262509994209,  -0.2105087190866,  -0.1324547976255,   0.0931344702840,  -0.2001024931669,   0.1747739911079,   0.1251345574856,  -0.0367781594396,   0.1823402494192,  -0.0153278755024,  -0.2403047978878,   0.1918568313122,  -0.0560807213187,   0.0423550195992,   0.1293303668499,  -0.1744212955236,   0.1877717971802,  -0.0983122438192,  -0.2357662469149,  -0.2054751366377,  -0.0021528368816,   0.1655474305153,  -0.2262820154428,  -0.1692758798599},
   {  -0.0549146272242,  -0.1860802024603,  -0.0558939054608,   0.0656704008579,  -0.1986722797155,   0.1554364860058,   0.2162119746208,  -0.1951363235712,   0.1796006262302,   0.0264619514346,   0.0360922962427,  -0.1934140324593,  -0.0168429967016,   0.1779424250126,   0.1526978611946,   0.0683997273445,   0.0729701742530,  -0.2479155957699,  -0.0294989347458,   0.2363425940275,  -0.0158341713250,   0.1231353282928,  -0.1302948445082,   0.1669853329659,  -0.1468594074249,  -0.0267632938921,  -0.0300169531256,  -0.2286292463541,  -0.0338703580201,  -0.1492227911949,  -0.2095515578985,   0.1878535449505,   0.0587105639279,  -0.0931897982955,   0.1644576191902,   0.1369855552912,   0.2300495356321,  -0.1690283417702,   0.0710037276149,   0.2029653787613,  -0.1509283334017,  -0.1561576575041,  -0.1125655174255,  -0.0434705875814,   0.0361008793116,   0.1306516528130,   0.1361479014158,   0.0903249159455,   0.0468568541110,  -0.1006686463952},
   {  -0.0233055483550,   0.0069253970869,   0.0334774069488,  -0.1615456640720,   0.0126701835543,   0.1346914172173,  -0.0983001664281,   0.0050579258241,  -0.0241386126727,   0.0677458718419,   0.1421332955360,   0.2615314126015,   0.1368281543255,  -0.0678651258349,  -0.0162386335433,  -0.1829883903265,   0.0803301930428,  -0.2211036235094,  -0.0793096497655,  -0.1653830111027,  -0.0152630861849,   0.1061686500907,   0.1979611814022,  -0.1632181555033,   0.0247768908739,  -0.0599918849766,   0.0532512776554,   0.1157077327371,   0.0327886417508,   0.0526770651340,  -0.0442728549242,  -0.0077988412231,  -0.0240269601345,  -0.2188721299171,  -0.1452995538712,  -0.0082858987153,  -0.2065351605415,   0.0701007768512,   0.0919402986765,   0.0888667330146,   0.0693630501628,   0.2178307920694,  -0.1770280003548,   0.1737322658300,   0.2117332667112,  -0.0981916859746,  -0.1512971967459,   0.2338769733906,   0.0448765680194,  -0.1595478355885},
   {   0.0193657092750,   0.1427142918110,  -0.0958413258195,  -0.2035504877567,  -0.1634334474802,   0.0297822058201,  -0.0502272397280,  -0.1832001060247,  -0.0388123579323,   0.0731176063418,   0.0661897510290,  -0.1114314049482,  -0.2225303798914,  -0.2150303423405,   0.0940862372518,   0.0930475816131,  -0.0544849224389,  -0.0449571572244,  -0.1355125904083,  -0.1587536185980,   0.2360508590937,  -0.0046472689137,  -0.1968580484390,   0.0603804327548,   0.1549841016531,   0.0983195230365,   0.0587178841233,  -0.1151701807976,  -0.2323601543903,  -0.0486774370074,  -0.1632208377123,  -0.1317691057920,  -0.1553732305765,   0.1279866099358,  -0.0249848663807,   0.1398311108351,   0.0304829645902,   0.0027965945192,  -0.1828035563231,   0.0651784241199,   0.1560889631510,  -0.2157961428165,  -0.1094350516796,   0.0815385729074,  -0.0178817100823,  -0.0259652975947,  -0.1299207061529,   0.0215461719781,   0.1348604112864,  -0.1140900999308},
   {   0.1652851104736,  -0.2070828825235,   0.1401172876358,  -0.0381705276668,   0.0316052585840,  -0.0697163119912,   0.1266422122717,   0.2342057824135,   0.1683197617531,   0.2068118005991,   0.2140842676163,  -0.0394480600953,  -0.2082315087318,   0.0082744304091,   0.1126696541905,   0.1056467741728,   0.2114437967539,  -0.1687901765108,  -0.0969624295831,  -0.1935937106609,   0.0777610391378,   0.0097725912929,  -0.0646264851093,  -0.0328419841826,   0.0858435109258,   0.2457105666399,  -0.0487417504191,  -0.0540996529162,   0.0383960343897,  -0.1303400993347,  -0.1721991598606,  -0.0299432836473,   0.1360991597176,   0.0797981396317,  -0.2349714785814,  -0.0563479959965,  -0.0470142401755,  -0.1471647471189,  -0.1300637722015,  -0.2364251613617,   0.2326583117247,  -0.1651111543179,   0.0563341937959,   0.0056894291192,  -0.1339285224676,   0.1537946164608,   0.0773100107908,  -0.0443099997938,   0.0230654906482,   0.0696097835898},
   {   0.1428206712008,   0.1605665385723,   0.1643037945032,  -0.1579228341579,  -0.0227521844208,  -0.0836886465549,   0.1106834411621,   0.1118205562234,  -0.0637964159250,  -0.0265607982874,  -0.1920273005962,   0.1130112633109,   0.0679732114077,   0.0693134516478,  -0.0812458172441,   0.1762339919806,   0.1263217628002,   0.2373186796904,  -0.1268057972193,   0.1640677452087,  -0.1240101605654,   0.0563441216946,   0.1719254851341,  -0.1085577756166,   0.0178747661412,  -0.0273511763662,  -0.0755679607391,  -0.0265574753284,   0.0904324278235,  -0.1014041528106,  -0.0711576789618,  -0.0495459772646,  -0.1571363508701,  -0.0652325451374,   0.1524411290884,  -0.0975085124373,   0.1368215382099,  -0.1445555537939,   0.2238111048937,   0.1154096126556,   0.1273751258850,  -0.0909796655178,   0.1710929572582,  -0.1092861220241,  -0.0498241521418,  -0.1405759155750,  -0.0458462126553,   0.0817375034094,  -0.1227960065007,  -0.0453622080386},
   {   0.0873230546713,   0.0180426277220,   0.0760826170444,  -0.0870612561703,  -0.0826857835054,   0.1325449198484,  -0.0762641727924,   0.0325804315507,   0.1466365903616,  -0.0945619568229,   0.0146718220785,  -0.1764734387398,  -0.0361246541142,  -0.0704528242350,   0.1277810633183,   0.2504379451275,  -0.0926906093955,  -0.1724552214146,  -0.2421480566263,  -0.0600457228720,   0.0861848220229,  -0.2433162629604,   0.1077531501651,   0.1901412010193,  -0.1395936161280,  -0.0069431229495,   0.1399087905884,  -0.0449521802366,   0.2191259115934,  -0.1234462112188,   0.1831679642200,  -0.2037447243929,   0.0767302513123,   0.0524833872914,   0.1055406630039,  -0.1274182647467,  -0.2363209873438,  -0.0018453547964,  -0.0373244807124,   0.1427917331457,   0.1565388441086,   0.0577810741961,   0.2167703211308,  -0.0982063859701,   0.2061042636633,   0.0132598234341,   0.0722524300218,  -0.1240639686584,   0.1883191615343,  -0.0161231663078},
   {   0.1828131377697,   0.1133387163281,   0.0351398251951,  -0.1649703979492,   0.1940788924694,   0.0152844740078,  -0.1952406466007,   0.1119392588735,   0.0901409685612,  -0.1739669293165,  -0.2298105359077,  -0.1201045662165,  -0.0404391400516,  -0.0931061804295,  -0.1488386094570,  -0.1982169002295,  -0.0331170149148,   0.1117223873734,   0.0740851312876,  -0.0843757763505,   0.1524201333523,  -0.1094050034881,   0.1434560120106,  -0.1128981038928,  -0.2093359827995,   0.0957939848304,   0.1625168323517,   0.1840742528439,  -0.1005731821060,   0.1662456393242,  -0.0584850758314,   0.1604006439447,  -0.0373308584094,  -0.1506589353085,  -0.0040039536543,   0.0916047841311,  -0.0812733247876,   0.0147914169356,  -0.1366616040468,  -0.0002911234624,   0.1955535858870,   0.0030863485299,   0.0574763827026,  -0.0938476398587,   0.0529188029468,   0.2217990010977,  -0.1857750266790,  -0.1058257743716,   0.1698088794947,   0.1267398893833},
   {   0.0769171118736,   0.1088182255626,  -0.0765735059977,  -0.1613643914461,  -0.1200493350625,   0.2316089570522,  -0.0322706773877,   0.1962275505066,   0.0946371033788,  -0.0039211795665,  -0.0811613351107,   0.0917446389794,   0.0786606967449,   0.0636632293463,  -0.1035100370646,  -0.1414104402065,   0.2125835120678,  -0.0217029992491,  -0.1513848602772,  -0.0206532496959,   0.2141963541508,   0.2159417718649,   0.1506032645702,  -0.1942085623741,   0.1209556981921,  -0.1974799782038,   0.1826395541430,   0.0900493189692,   0.0504363328218,  -0.1476256102324,  -0.0902210846543,   0.1554626673460,  -0.2055740952492,   0.1218857988715,   0.1033982038498,  -0.0293892528862,  -0.1853647083044,   0.0005732552963,   0.1301395446062,  -0.0721793919802,  -0.0372399911284,  -0.2549835741520,  -0.0240361299366,  -0.1874448060989,   0.2438782453537,   0.2350973039865,   0.0170155297965,  -0.1703474819660,  -0.0923784002662,   0.1808516979218},
   {   0.0871056616306,   0.0056659500115,  -0.2299467921257,  -0.0138018829748,  -0.1562267392874,   0.1374148279428,  -0.1470863521099,   0.0038012994919,   0.0020019458607,   0.0701635330915,   0.0247947592288,  -0.2027061581612,   0.0326039306819,  -0.0179947055876,   0.1187372505665,   0.2070830911398,  -0.1233250796795,  -0.0481642894447,   0.1584757268429,   0.1983371078968,   0.1101338118315,  -0.0936333760619,  -0.1108171939850,  -0.0379591546953,   0.0434234514832,  -0.0437598377466,  -0.0402918644249,  -0.1672023087740,  -0.0063838181086,  -0.0055279769003,   0.0080872559920,   0.0156839471310,  -0.2351085096598,  -0.1528600454330,  -0.1815619766712,   0.1332053244114,  -0.0280769318342,   0.1855312436819,  -0.1097479984164,  -0.1743601411581,   0.1596119105816,  -0.1442458480597,   0.1431736201048,  -0.0328391008079,   0.0203797835857,   0.0810736790299,   0.0060471077450,  -0.0461838729680,  -0.1804992705584,  -0.0225971080363},
   {   0.1597114354372,   0.1421660035849,   0.2281385958195,   0.1127057373524,  -0.1453749090433,   0.0892161205411,  -0.1237024590373,  -0.0381682217121,   0.1764327436686,  -0.1277332752943,   0.1439814865589,   0.1677447706461,  -0.0344468988478,  -0.2063261121511,   0.1163979470730,   0.1040479019284,   0.2031218409538,   0.1075319200754,  -0.0102072078735,   0.0659338608384,   0.0280641894788,  -0.1672631204128,   0.0086788609624,   0.0351906679571,  -0.0433566533029,  -0.1127934902906,  -0.2437158226967,  -0.0480423532426,  -0.1771442741156,  -0.2481363117695,  -0.0781630873680,  -0.1236831843853,  -0.1922668963671,   0.0463226176798,   0.1661784946918,  -0.1041676774621,   0.0897948592901,  -0.0109829548746,   0.1249418407679,  -0.0246027875692,  -0.0339286699891,  -0.0208008177578,  -0.0046912892722,   0.2045713961124,  -0.0527671575546,   0.0032399198972,   0.0552677549422,   0.0603551678360,   0.0698799416423,  -0.0736346766353},
   {   0.0594915896654,  -0.0871943458915,  -0.0669856444001,  -0.1659181863070,   0.1340328902006,   0.0714254900813,   0.0508872829378,   0.0578871406615,   0.1174908354878,   0.0454926155508,  -0.1838278025389,  -0.1048111766577,  -0.2063511312008,   0.2021602988243,  -0.1178427264094,  -0.2331924289465,   0.0871442407370,  -0.0935806781054,   0.1800336390734,   0.1251998990774,   0.0755357667804,  -0.1470816135406,   0.0770001783967,  -0.0692895948887,  -0.1194825544953,  -0.0218375064433,  -0.0630299076438,  -0.1369002461433,  -0.1956259161234,  -0.1959428936243,   0.2277882248163,   0.1177137121558,   0.1964116394520,  -0.0986437126994,   0.0358277671039,   0.2201708406210,   0.0864552929997,   0.1348922997713,   0.2033804655075,  -0.2212504446507,   0.1887484490871,  -0.0883796215057,   0.2183697521687,  -0.2491419911385,   0.0866791754961,   0.1611275523901,  -0.2113011330366,   0.1537087857723,  -0.0175945684314,  -0.0343441218138},
   {  -0.0253088213503,   0.1686684638262,   0.1199468672276,  -0.1862486153841,   0.0559954270720,   0.0554179362953,  -0.0818854048848,  -0.1601863205433,  -0.0027148548979,  -0.1333414763212,   0.0123188504949,   0.1514830589294,   0.0443996712565,   0.0778575837612,   0.0410116463900,  -0.1070217490196,  -0.0721899792552,   0.0295400507748,   0.1346219927073,   0.1503380388021,  -0.1604699343443,  -0.1961309462786,   0.1476086080074,   0.0592268668115,   0.2066457867622,   0.2169820219278,   0.1743637323380,  -0.0956950187683,  -0.0881592705846,   0.0414807498455,  -0.1950355023146,   0.0671546906233,  -0.0860484540462,   0.0076039214619,  -0.1709234863520,  -0.0169573444873,  -0.1076692417264,   0.1368543058634,  -0.2021587938070,  -0.2358179986477,   0.1820567101240,  -0.0687715858221,   0.1972731500864,  -0.1795543581247,   0.1507886946201,   0.0025109308772,   0.0248538106680,  -0.1740392297506,  -0.2318650931120,  -0.0224387124181},
   {  -0.1238842681050,  -0.1897283643484,  -0.1752740442753,   0.0757052674890,   0.1653050929308,   0.1226373314857,   0.0317187979817,  -0.1638292521238,   0.0038189927582,  -0.1297809779644,  -0.0657969191670,   0.1026212126017,   0.1506623029709,  -0.1250382363796,   0.0694988593459,   0.1311818212271,   0.0730814114213,   0.0280959513038,   0.1373284757137,  -0.1911034286022,  -0.0433671213686,  -0.0635058283806,  -0.0618977695704,   0.2372095137835,  -0.1715891063213,  -0.2071735858917,   0.2001138329506,   0.1220078617334,  -0.2154839932919,   0.0645811036229,   0.0686171725392,   0.2028079926968,  -0.1697527617216,   0.0541380532086,   0.1142496690154,  -0.1878496110439,  -0.1613339185715,  -0.1251155585051,   0.0707625597715,   0.0474184453487,   0.1437436640263,  -0.0677502080798,  -0.0863009616733,  -0.0796511396766,  -0.0729466900229,  -0.1700235009193,  -0.0601931922138,  -0.1023018062115,  -0.1240298226476,   0.1283142119646},
   {  -0.1733324825764,   0.0896767228842,  -0.2042963802814,  -0.2038639038801,   0.0908277258277,   0.2116719037294,   0.0368714183569,   0.0248364098370,   0.1154335141182,  -0.1351357847452,  -0.1496568620205,  -0.1749415993690,   0.1429788321257,   0.0648371055722,  -0.0146061219275,  -0.2333904355764,  -0.1157202497125,   0.0806974396110,  -0.0226099602878,  -0.1805013120174,  -0.1583423018456,   0.0559685230255,   0.2194558084011,   0.1891622990370,   0.1411711871624,   0.0863885059953,   0.1614259183407,   0.1482231616974,  -0.1933066993952,   0.0766761973500,   0.0331858284771,  -0.1159626618028,   0.1332028806210,   0.1199748888612,   0.1282340437174,   0.0115562630817,   0.1641355752945,  -0.1995355635881,  -0.0807221084833,  -0.1539670079947,   0.0300454832613,  -0.1379162967205,   0.0260490924120,   0.1818407177925,  -0.2316301316023,  -0.1995510309935,   0.0758234560490,  -0.1379160583019,   0.0239053070545,  -0.1132161617279},
   {  -0.1151187270880,  -0.1247085183859,   0.1370028108358,  -0.0261857900769,   0.0536482185125,  -0.0466034486890,  -0.1714899837971,   0.0965372174978,   0.0145618040115,  -0.0187770761549,  -0.1310837715864,  -0.1936391890049,  -0.1239241212606,   0.1440538316965,   0.0594552718103,  -0.2154864519835,  -0.0834671705961,  -0.0430791713297,   0.1742721349001,  -0.0385293737054,  -0.0985083058476,  -0.0103178126737,   0.1931725144386,   0.2084530889988,   0.0140400724486,   0.0351508520544,  -0.2495813965797,  -0.0872738957405,  -0.1653495877981,  -0.0372873246670,   0.1607137769461,   0.0254538115114,  -0.1677115112543,   0.1657680273056,   0.0735395252705,  -0.0624691434205,  -0.2637099027634,   0.1521490812302,   0.1839719563723,   0.1259263753891,   0.1244602054358,   0.2266834825277,  -0.1956579387188,   0.2042761743069,   0.1047658249736,   0.2478387951851,   0.0719498768449,   0.1283634155989,   0.1145401149988,   0.1934235692024},
   {   0.0522992908955,  -0.0979962721467,   0.1375506222248,  -0.1684491038322,   0.1034431010485,  -0.0368635840714,  -0.0938660427928,   0.1990832835436,   0.1514952927828,   0.1375171393156,   0.0691494122148,   0.0444987341762,   0.1328257620335,  -0.1469477713108,   0.0266942922026,   0.2069342583418,  -0.1681994944811,   0.2117051929235,  -0.1355609744787,  -0.0463610664010,  -0.1850108951330,   0.0857651978731,   0.0430410355330,  -0.2069780081511,  -0.2168029248714,   0.1695097386837,   0.2058185487986,  -0.0627065300941,   0.2099540680647,   0.1424649059772,   0.0172017086297,   0.0387986265123,  -0.0351928025484,   0.2404759079218,   0.0864029228687,   0.1317957937717,   0.1421757191420,  -0.0797767713666,  -0.0445568300784,   0.1125317662954,  -0.1086245179176,   0.0591984540224,   0.0095681371167,  -0.2454421520233,  -0.1473343968391,  -0.0873749330640,   0.2426079809666,   0.2561933696270,  -0.0013565329136,  -0.0318137072027},
   {  -0.1930183321238,   0.1726537495852,  -0.1710018515587,   0.0812406390905,   0.0372629165649,   0.0454594120383,   0.0675671920180,  -0.2196304947138,   0.1399332880974,   0.2243088036776,  -0.1609950512648,   0.0852994546294,   0.0667126923800,   0.0381936915219,   0.1602682918310,   0.1608497649431,  -0.0954723656178,   0.1848555803299,  -0.0666466429830,  -0.1023970618844,  -0.1734423190355,   0.1552521437407,   0.1894614547491,   0.0814369320869,   0.0178533010185,  -0.1782792210579,  -0.1709505766630,  -0.0262056645006,  -0.1105935126543,   0.0626044049859,   0.2149861603975,  -0.1444318592548,  -0.2047131210566,   0.0588369295001,   0.2012339979410,   0.0965471863747,   0.1253476142883,  -0.0083130300045,  -0.0781771540642,  -0.0910447761416,   0.1993529796600,   0.1797409653664,   0.1331141591072,   0.0209257975221,   0.0656921789050,   0.1099631339312,  -0.1887275576591,  -0.1247348263860,  -0.0416785739362,   0.0334464237094},
   {  -0.0921852961183,  -0.0421465002000,   0.0567512512207,   0.0412095412612,  -0.0988033860922,  -0.0349513664842,  -0.2490389794111,  -0.1261233240366,   0.2151614427567,  -0.0655341744423,  -0.1027967780828,  -0.1631008237600,  -0.1649716943502,  -0.0934887081385,   0.1597930490971,   0.2055603712797,   0.0358312353492,  -0.1433403342962,   0.0210363678634,   0.1740979254246,   0.2005466669798,  -0.1758669912815,  -0.2434685230255,  -0.1193836480379,  -0.1082515940070,  -0.0717914476991,   0.0096434270963,  -0.1610097736120,  -0.1301499456167,   0.0488093644381,  -0.1566480398178,  -0.1134102344513,   0.2110788673162,   0.0569244548678,  -0.0998775213957,   0.0591579861939,   0.0963831245899,  -0.0050291339867,   0.0599229820073,   0.0946101620793,   0.1522274166346,  -0.0876246243715,  -0.0821973532438,  -0.2144723236561,  -0.1944919526577,   0.0558292865753,   0.1482637673616,   0.2028599232435,   0.0753601491451,   0.0543382912874},
   {  -0.0710675045848,  -0.0110927615315,   0.2508583068848,   0.0031630317681,  -0.1493457853794,   0.0632212087512,   0.0863855630159,   0.0987088158727,  -0.0906717926264,   0.0306190401316,  -0.0722598209977,   0.1322994232178,   0.0329845175147,  -0.1671770364046,  -0.2321932762861,   0.1793817132711,  -0.0895238742232,  -0.1795893609524,  -0.0995049998164,   0.0269777420908,   0.0992863774300,   0.1730801463127,   0.2296167910099,   0.0084050595760,  -0.2382089197636,  -0.2081727385521,   0.1308283656836,  -0.0747994184494,   0.0661959946156,   0.2077201753855,   0.1686182171106,   0.0486832372844,  -0.2497384101152,   0.2301816046238,  -0.2592436671257,  -0.0145748779178,  -0.0690363422036,   0.1572293043137,  -0.1965339332819,  -0.2115565538406,  -0.1442395746708,  -0.0398733131588,   0.1712385118008,   0.0282056760043,   0.0492297261953,   0.1830318421125,   0.2553640604019,   0.0675272196531,   0.1296559572220,  -0.0140971196815},
   {  -0.1483049094677,   0.1032966598868,  -0.0103099914268,   0.2129582762718,  -0.0373943299055,  -0.0147057520226,  -0.1557954847813,  -0.1629109084606,  -0.1584824323654,   0.0281134080142,   0.0390489771962,  -0.0460388138890,  -0.0003940262832,   0.0411510765553,   0.1452773511410,  -0.0079892147332,  -0.0403653047979,  -0.1344555914402,   0.1093270033598,   0.0020488854498,   0.1570208221674,  -0.1219891905785,  -0.1692543774843,   0.2350635677576,  -0.2169007956982,  -0.1993580609560,  -0.1092768907547,   0.0892328768969,   0.0049957977608,   0.0389485806227,   0.1686140447855,  -0.0378377176821,  -0.1901890337467,   0.0329047553241,  -0.2069455534220,   0.0244015976787,  -0.1158093363047,   0.1031005978584,   0.0267936307937,   0.0840617641807,   0.0502665713429,   0.0508163943887,  -0.1788544505835,  -0.0571902319789,   0.0506350025535,  -0.0406560823321,  -0.1304907202721,   0.1754159182310,   0.0698579847813,  -0.0777394920588},
   {   0.0384660325944,  -0.2131852507591,  -0.0201283097267,  -0.0896132215858,  -0.0820110738277,  -0.1883580088615,   0.0541340187192,  -0.0588492788374,  -0.1844967454672,   0.0453517027199,  -0.0564109310508,   0.0063287890516,   0.1175255477428,   0.0353615060449,   0.0009398251423,   0.2378450632095,  -0.0496555939317,  -0.0353078246117,  -0.1858014613390,   0.1168604716659,  -0.2161455750465,  -0.1319408714771,   0.0695746317506,  -0.0728480145335,   0.1397423446178,   0.2574853301048,  -0.1309469938278,  -0.1709601134062,  -0.2092526406050,   0.1522635668516,   0.0568804964423,   0.1928050518036,   0.0292549300939,   0.1666013151407,   0.0848309919238,  -0.0665737837553,   0.1187385842204,  -0.1171813160181,   0.0087534030899,   0.1742254346609,   0.0526040494442,   0.0025401497260,   0.1775265932083,   0.1251325607300,  -0.1446263194084,   0.1991431564093,  -0.2107656747103,  -0.0681651234627,   0.1783059537411,  -0.0164228659123},
   {  -0.1148529723287,   0.1678388118744,  -0.1736142933369,   0.2006078064442,   0.0909401550889,  -0.1516230106354,   0.1225476115942,   0.1604029238224,  -0.0633189678192,   0.1458273380995,  -0.1691203564405,  -0.0619969852269,  -0.0910486355424,  -0.0957682430744,   0.2013361304998,   0.0700922384858,  -0.0129756862298,  -0.0009561896441,   0.1749174594879,   0.0056794304401,   0.0155042149127,  -0.1038497462869,   0.1166706755757,   0.0630363970995,  -0.1254744380713,  -0.1189254596829,   0.0851742401719,  -0.0440143123269,   0.2126909494400,   0.0294437985867,  -0.0069055585191,   0.1184280961752,  -0.1451273411512,  -0.0958041325212,  -0.0923336148262,   0.2120199799538,   0.0795598477125,  -0.1670027673244,   0.1176671832800,  -0.1805277168751,   0.2280904501677,  -0.1711794734001,   0.2066193819046,  -0.0457275584340,   0.0968853235245,   0.0089383795857,   0.2539553940296,   0.0762069597840,  -0.2416256368160,  -0.0245503410697},
   {  -0.0620948523283,  -0.1193000450730,  -0.0035180998966,   0.1667469441891,   0.0211093761027,   0.1284603476524,   0.0311627332121,  -0.0835032016039,   0.0560505352914,  -0.0682861730456,   0.0056880940683,  -0.1877602338791,  -0.0165769513696,   0.0994179919362,  -0.2005326151848,   0.1818132102489,  -0.1492679119110,   0.1391066908836,   0.1189545169473,  -0.0257812570781,  -0.1178418397903,   0.0108928531408,  -0.1511872708797,   0.2394242286682,   0.1218134388328,   0.1878767609596,  -0.1418020725250,   0.1574175208807,   0.0430055074394,   0.0151095436886,  -0.0668694823980,  -0.2601696848869,  -0.1101602762938,  -0.1838348060846,  -0.1723039150238,  -0.0045563136227,   0.0412226729095,   0.1586250513792,  -0.2008956521749,  -0.1518657356501,  -0.1839378774166,  -0.0087079796940,  -0.2034791111946,  -0.0363827608526,  -0.0125898784027,  -0.0723876133561,   0.0104972003028,   0.1325180083513,  -0.1316399425268,   0.0421592928469},
   {  -0.1659777611494,   0.2556027173996,  -0.0602736957371,   0.0419805832207,  -0.0966554060578,  -0.0187234859914,  -0.2085984498262,   0.1850273609161,   0.2025756388903,  -0.0961205661297,  -0.0349034778774,  -0.1936750560999,   0.2108631432056,   0.1989422440529,   0.0518866963685,   0.0592152327299,  -0.0004322131863,   0.1434640735388,   0.1415383815765,  -0.1243085563183,  -0.1890508979559,   0.1590695828199,  -0.0746884122491,  -0.0561173707247,  -0.0103601114824,   0.1058266460896,  -0.1811225265265,   0.0770812556148,   0.0417282767594,  -0.2052588611841,  -0.0506680384278,   0.2076624929905,   0.0111109185964,  -0.2231269329786,  -0.0221131499857,   0.1793677955866,  -0.2507627904415,  -0.0970361158252,   0.1128153949976,   0.1342518776655,  -0.0480208247900,   0.1366696506739,   0.0812477469444,   0.0194187946618,  -0.1248584464192,   0.1808837652206,  -0.2117406874895,  -0.1717568039894,  -0.2405461668968,   0.0529284849763}};
  const float bias_0[50] = {   0.0018283731770,   0.0174408573657,   0.0135804563761,   0.0083121452481,  -0.0200538448989,   0.0278447568417,   0.0173987895250,   0.0202615354210,   0.0023927080911,   0.0030925269239,   0.0170111786574,   0.0242240354419,   0.0232718437910,   0.0148811750114,   0.0047205151059,   0.0234492328018,  -0.0194405652583,  -0.0001992639736,   0.0239394195378,   0.0117165120319,   0.0242288354784,   0.0134795885533,   0.0231821313500,  -0.0134766725823,   0.0131810074672,   0.0110021131113,   0.0062035331503,   0.0223059300333,  -0.0193648487329,   0.0144822336733,   0.0066780950874,   0.0230710729957,   0.0302837677300,   0.0312957875431,  -0.0037461179309,  -0.0030478553381,   0.0213052537292,  -0.0186660494655,   0.0093713505194,  -0.0093572679907,   0.0196187067777,   0.0125513719395,  -0.0259398911148,   0.0263340566307,   0.0058924029581,   0.0268113873899,  -0.0145268943161,   0.0221688728780,   0.0291726011783,   0.0123211117461};
  // Declare the arrays in the stack
  const float kernel_1[50][50] = 
  {{   0.0614041723311,  -0.0963098406792,   0.0935558825731,   0.1356906294823,   0.2385037988424,   0.1392784863710,   0.1762107759714,   0.0526631139219,  -0.0303684640676,   0.1416365355253,   0.0396723821759,  -0.2164865136147,  -0.1972314119339,   0.2532780170441,  -0.0886717438698,   0.1335049718618,   0.2341905087233,   0.0184682961553,   0.0719396695495,  -0.0356198772788,   0.0472217686474,   0.1933017075062,   0.1205247566104,   0.2268640547991,   0.2099590301514,  -0.2312481105328,  -0.2427071928978,   0.0094019761309,  -0.0603962279856,  -0.0793687999249,  -0.0826591327786,  -0.2330964505672,  -0.1262271553278,  -0.0667877793312,   0.1740134805441,   0.2225855290890,  -0.1586399823427,   0.0133635746315,  -0.1249547451735,   0.0521861501038,   0.0240156482905,  -0.0390421375632,   0.1203466281295,   0.0325344316661,   0.1367401927710,   0.2367377877235,  -0.0103317089379,   0.2245519757271,   0.1419225484133,   0.0518601424992},
   {   0.0266604162753,  -0.2155132144690,  -0.2113415598869,   0.0536351464689,  -0.1834705621004,  -0.0772311985493,   0.1596750468016,   0.2077051997185,   0.1636241972446,  -0.1486773937941,   0.2510606646538,  -0.0303621999919,   0.1016932576895,   0.1219715029001,   0.0570676922798,   0.1214469447732,  -0.1903735101223,   0.2226122170687,  -0.2217758148909,   0.0190061498433,  -0.1874968409538,  -0.1997335553169,   0.2092343568802,   0.1125859394670,   0.0321997404099,  -0.1551866382360,   0.0387887060642,  -0.1945808380842,   0.0022887901869,   0.1189256757498,   0.0264465492219,  -0.0698619186878,   0.1615261137486,  -0.1031126081944,   0.1809503883123,   0.2350939512253,  -0.1674399673939,   0.2444250732660,   0.1386370509863,  -0.0900805294514,  -0.1860851645470,   0.0967950150371,   0.2275975942612,  -0.0165121108294,  -0.0804440602660,   0.0108199194074,   0.2466429471970,  -0.0747881680727,   0.1355017125607,  -0.0043211774901},
   {  -0.0995431393385,   0.0662318244576,  -0.1518757194281,   0.1761646717787,   0.0550162158906,   0.1936220228672,  -0.1427120864391,   0.2336977273226,  -0.2066146731377,  -0.2526616454124,   0.1947748959064,  -0.2064946293831,   0.1558118611574,  -0.0119639849290,  -0.1424288898706,  -0.0385925322771,  -0.2106193304062,  -0.0038029300049,   0.2381722927094,  -0.2280571460724,  -0.0636155083776,   0.0673357024789,   0.2088028788567,   0.0075471084565,  -0.0667178407311,   0.1448154002428,   0.2177420407534,  -0.0695923194289,   0.0863472074270,  -0.1226782277226,  -0.1100370585918,  -0.0814283937216,  -0.1460554599762,   0.0045367982239,  -0.0734037682414,   0.1961362659931,   0.0934288948774,   0.1650123596191,  -0.2265601158142,  -0.1272971481085,   0.0455236546695,  -0.0598360747099,   0.1014696136117,   0.1710313856602,   0.1713572740555,  -0.0514840222895,   0.1947407275438,  -0.0571766123176,   0.0622567012906,   0.0796670317650},
   {  -0.0282402317971,  -0.0179282911122,  -0.2640072703362,  -0.0377023406327,   0.1959675103426,   0.0809852629900,   0.0342521294951,  -0.1404893547297,   0.2349096387625,   0.1768734455109,   0.1533506065607,  -0.1778462827206,   0.2033116221428,   0.1809686273336,  -0.0491653159261,  -0.0471194759011,  -0.0312734507024,  -0.1081226021051,  -0.2058178186417,  -0.0179100260139,  -0.0446337834001,   0.2208226472139,   0.1494061499834,   0.2582637369633,   0.0529957860708,  -0.1392852663994,  -0.1721725165844,   0.2128915935755,   0.1569266468287,  -0.2255054265261,   0.0626828297973,  -0.0973037853837,   0.2416783720255,   0.1559891998768,   0.1564016789198,  -0.0013385608327,  -0.1323038041592,   0.2010256499052,  -0.0845138058066,   0.2035001218319,   0.1678441911936,  -0.0158409066498,   0.0363253504038,  -0.2076182812452,  -0.1379500776529,   0.0759558454156,  -0.2144837528467,  -0.1922019422054,   0.0047754794359,  -0.1044409498572},
   {  -0.0469778627157,  -0.1153871044517,   0.0185731165111,   0.1604819297791,  -0.1411835849285,   0.0628151372075,   0.1049919873476,   0.1032433807850,  -0.1990660130978,  -0.2362637370825,  -0.1681533753872,   0.1600102633238,  -0.1393081694841,  -0.1650280654430,  -0.0027566454373,  -0.0233042314649,  -0.1646956801414,  -0.2115059942007,   0.0300216637552,   0.0262893289328,  -0.0417716838419,   0.0540724396706,   0.1081722006202,  -0.0731421560049,  -0.1177871748805,   0.2252444326878,  -0.2594145238400,  -0.0869189873338,  -0.1921741664410,   0.1348457485437,   0.0278565250337,   0.2315142154694,   0.1095502227545,   0.0596616342664,  -0.1340587288141,  -0.0431370548904,  -0.2266093194485,  -0.2159704118967,   0.0439356751740,  -0.1402664184570,  -0.1166943311691,   0.1248500496149,   0.2272003740072,  -0.1205550655723,   0.2266097217798,  -0.0483953952789,   0.0911586657166,  -0.1383740454912,  -0.1956708729267,  -0.0147249642760},
   {   0.1507655084133,  -0.2065594345331,   0.1223048865795,  -0.0207683816552,   0.0803360491991,   0.1307297796011,   0.1163647472858,  -0.1201969236135,   0.1245081573725,  -0.0814715549350,  -0.1220031753182,  -0.1627962440252,   0.0352546274662,   0.1878674477339,  -0.0716916993260,  -0.1968203634024,   0.2048025280237,  -0.1621268093586,   0.0144196162000,   0.2071312814951,  -0.1354593634605,  -0.1687891334295,   0.2284009903669,   0.0159268397838,  -0.1467580348253,  -0.0223828479648,  -0.0783515796065,   0.0769456401467,  -0.2187672406435,   0.0486558973789,   0.1314173191786,  -0.1873202472925,   0.1980132460594,   0.2008234858513,   0.0606266073883,   0.1601225137711,   0.2496695965528,   0.0460886806250,  -0.2387326210737,   0.0937672853470,   0.2057215869427,   0.1818412989378,  -0.1704076230526,  -0.0786665380001,  -0.1066363006830,   0.1987654864788,  -0.0626111030579,   0.1919084489346,  -0.1818284988403,  -0.2536035776138},
   {   0.1651232242584,  -0.2379488199949,  -0.1428352743387,   0.1968866586685,   0.0588758140802,  -0.1024344190955,  -0.0945187732577,   0.1818045228720,   0.0167247466743,   0.0750194266438,   0.1990359425545,  -0.1472864747047,   0.1495567560196,  -0.0429769679904,   0.1239717900753,  -0.1717149168253,  -0.2152698487043,   0.0262775868177,  -0.1144387722015,  -0.0363805331290,   0.1679256111383,   0.1996663659811,   0.2113428264856,  -0.2416890114546,   0.0126096606255,   0.1924938857555,   0.0859601125121,  -0.1704413294792,   0.2386756539345,  -0.1345284879208,  -0.1407749503851,  -0.1747661530972,   0.0238940585405,  -0.0653965324163,   0.0474390536547,   0.2526855766773,  -0.2097566723824,  -0.2366025447845,   0.0877033397555,   0.2283073216677,   0.2438565641642,   0.1179756298661,   0.0468615777791,  -0.0121866008267,   0.0494497269392,  -0.1780877113342,   0.0492815002799,   0.0683820545673,  -0.0351308882236,  -0.0786938667297},
   {  -0.0437644161284,   0.0408691614866,   0.0675669088960,  -0.0653692781925,  -0.0921494439244,  -0.1767925620079,   0.0302233751863,   0.0837506875396,   0.0277255456895,   0.1679104715586,   0.0985786616802,   0.1480833590031,  -0.0516562536359,   0.1888625025749,   0.1420081406832,   0.1860167682171,  -0.1310233473778,   0.0918394699693,   0.0999531820416,  -0.0503292381763,  -0.0324897579849,   0.1075437664986,  -0.0795303061604,   0.1238499358296,  -0.2190896123648,  -0.1773397326469,  -0.0624829642475,  -0.0269788336009,   0.0711544007063,   0.1177900657058,   0.0904645025730,  -0.0253595598042,  -0.0017717500450,  -0.0833438187838,  -0.1448397040367,  -0.0465125367045,   0.1687993109226,  -0.2661676406860,  -0.1646353304386,  -0.2003436088562,   0.0093213617802,   0.1872536540031,   0.1667496114969,  -0.1775419563055,  -0.1472125947475,  -0.0633847936988,  -0.1500857323408,   0.2308668941259,   0.2270272225142,   0.2364392578602},
   {  -0.1402508616447,  -0.1827213019133,   0.1721251606941,   0.1732506155968,  -0.0204811096191,  -0.0162915289402,   0.0418702140450,   0.1190143153071,  -0.0862698629498,   0.2425677925348,   0.2119614183903,   0.1288974434137,   0.0307330656797,  -0.1156347617507,   0.2410801351070,  -0.2081819772720,  -0.1016795337200,   0.1273380219936,   0.2094561457634,  -0.0701374039054,   0.0399183891714,  -0.2428163290024,  -0.0801220759749,  -0.1349933296442,  -0.2227111160755,   0.0517223663628,  -0.0557516440749,  -0.2336639761925,  -0.1849708706141,  -0.2265027761459,  -0.0149544654414,   0.0145337870345,  -0.2379838228226,  -0.1324049681425,   0.1259879767895,   0.0062567032874,   0.1152827888727,   0.2209555953741,   0.0208893418312,   0.1217955127358,   0.0739309415221,   0.2291052490473,  -0.1923829913139,   0.0371183678508,   0.2560306489468,  -0.0150818545371,   0.0949712544680,  -0.0737773254514,   0.0109492531046,   0.2202099859715},
   {  -0.2080256044865,  -0.1326670050621,   0.0577124208212,   0.1911500841379,   0.0406941249967,  -0.1026043742895,  -0.0031257371884,  -0.1422917246819,   0.0413866937160,  -0.1342754513025,  -0.1072383075953,  -0.1932716518641,  -0.2400005608797,   0.0826957747340,  -0.1218419373035,  -0.1318506747484,   0.0090340003371,  -0.2461095601320,   0.0923662036657,   0.0830666124821,   0.2183076143265,  -0.0164867937565,   0.1082307621837,   0.0806279703975,   0.1932948827744,   0.0773265436292,  -0.0520159117877,   0.0762414485216,  -0.2535562515259,  -0.1904986798763,   0.0897115990520,  -0.1398606002331,  -0.2260938286781,  -0.1499157249928,  -0.0297411307693,  -0.1068903207779,  -0.1885765641928,  -0.2323879450560,   0.2577642500401,  -0.1218748912215,   0.1168646514416,   0.0794571116567,  -0.0499366335571,   0.1818085461855,   0.2556358575821,  -0.0404911376536,  -0.0495891831815,  -0.0875779017806,   0.2493461221457,  -0.0151233002543},
   {  -0.1344489306211,  -0.2417113631964,   0.0366332121193,  -0.2012952864170,   0.1998105198145,  -0.1005464866757,   0.1237958148122,  -0.1299949735403,   0.2542006373405,  -0.1658026427031,   0.0770293101668,  -0.1210233867168,  -0.0439089350402,  -0.1424357444048,   0.1390012800694,   0.0189046040177,  -0.0717644095421,  -0.1464384645224,  -0.2477038055658,  -0.0066874888726,  -0.0312092415988,   0.0003979604226,  -0.1707033365965,   0.2543804645538,   0.0719175711274,  -0.0129324775189,  -0.1245829239488,   0.0976646095514,  -0.1808407604694,  -0.0269258841872,   0.1597168445587,   0.0690070018172,  -0.1082418635488,   0.2027360945940,  -0.0799374878407,  -0.0496161133051,  -0.2168542593718,   0.1737460494041,  -0.0615022256970,   0.0520799867809,   0.1543351411819,   0.1804811060429,   0.0863063186407,   0.1037810668349,   0.1544855386019,   0.0264983437955,   0.0417006537318,   0.0833245292306,  -0.0019594570622,   0.1383819729090},
   {  -0.0297977216542,  -0.0525889955461,  -0.2106945514679,   0.2174925804138,   0.0843507945538,  -0.0508866459131,   0.2158024460077,   0.0405560582876,   0.1850712597370,   0.1880289614201,   0.0813680961728,  -0.1653417795897,   0.0430032387376,  -0.0355379059911,  -0.0357457809150,   0.2020382732153,  -0.1657260209322,   0.2296644598246,   0.0044101658277,   0.1475317478180,  -0.0645681619644,   0.2093657553196,  -0.1984329521656,  -0.0943657532334,   0.2370557188988,  -0.0370690450072,  -0.1627789586782,  -0.1841601878405,  -0.2059832215309,  -0.2229616791010,  -0.0735225528479,   0.0582004971802,   0.1032915636897,   0.1222149357200,  -0.0181840583682,   0.1127393245697,   0.2466655075550,  -0.0575184151530,  -0.2105481624603,   0.1624121218920,  -0.0267233140767,  -0.1589547693729,  -0.0029945280403,   0.2147892266512,   0.1471935063601,   0.0942354425788,  -0.1717176586390,   0.0507207550108,  -0.1682454496622,   0.1553126126528},
   {   0.0821480080485,   0.1712296009064,  -0.1217229589820,  -0.1438449919224,  -0.1280955076218,  -0.0479292348027,  -0.2500115036964,  -0.0437234714627,   0.1229415461421,   0.1464399397373,  -0.1342988908291,  -0.1924571841955,   0.0971014946699,   0.1629039049149,  -0.1455494016409,  -0.1518987417221,  -0.1389713436365,   0.2177675217390,  -0.0845623090863,  -0.1118881776929,   0.0526934340596,   0.2437923550606,  -0.0081564802676,   0.1147785484791,  -0.2275939583778,   0.2506425976753,  -0.0117055187002,   0.0298634897918,  -0.0804103016853,  -0.1171887740493,   0.1993386298418,   0.1747592240572,  -0.1593868434429,  -0.1360672116280,   0.0081400340423,  -0.1738471537828,   0.1817016303539,   0.2570902407169,   0.0760269612074,  -0.0977134853601,   0.1613641977310,  -0.1476109325886,  -0.1657493859529,   0.1113662123680,   0.1795793473721,   0.0819694995880,   0.1182192564011,  -0.0318086333573,  -0.0155432457104,  -0.1821646094322},
   {   0.0014814722817,   0.1653811037540,   0.2168427407742,  -0.0416663475335,   0.1258681863546,   0.0586121007800,   0.2027611285448,   0.1998323202133,  -0.1498827636242,  -0.2299328297377,   0.0481307916343,   0.0715718120337,   0.1964662820101,   0.2073747068644,   0.0003678835346,   0.1712080240250,   0.2062825113535,  -0.1527727991343,  -0.0761254429817,  -0.1566627174616,  -0.0684739127755,  -0.0827806144953,   0.1954749971628,  -0.1131087616086,   0.0183236040175,   0.1461177170277,  -0.2356914132833,   0.1667468398809,   0.0104410583153,  -0.0842450857162,  -0.0444104559720,   0.0395392440259,   0.0036761376541,  -0.0903479978442,  -0.0813557505608,   0.0339156650007,   0.1848578453064,   0.1684345752001,   0.0563073121011,   0.2262031435966,   0.1840974390507,  -0.0391553640366,  -0.2274846881628,  -0.2196476608515,  -0.0348525829613,   0.1583186537027,  -0.1101163402200,   0.0336411334574,   0.0446379445493,   0.1580400466919},
   {   0.0272883102298,  -0.0178148522973,  -0.1200717762113,   0.2121865898371,  -0.1763571947813,   0.0093133356422,   0.0696738511324,   0.0775939077139,   0.1318408548832,  -0.1876944005489,  -0.0943984240294,  -0.1891316920519,  -0.1812896579504,   0.0554737336934,   0.0833748951554,   0.0046320534311,  -0.2641423344612,   0.1923784315586,   0.0390699729323,   0.1977498978376,   0.2526655197144,   0.0573855191469,  -0.2240973263979,  -0.1378566175699,  -0.1831346750259,  -0.2285991907120,   0.1859325915575,   0.1383544355631,   0.2130851149559,  -0.1319799423218,  -0.0549264810979,   0.1749441474676,   0.2292347401381,   0.1200340613723,   0.2157709747553,   0.1436211317778,  -0.1450203806162,  -0.1389565765858,   0.0524276010692,   0.1632901132107,  -0.1566888689995,  -0.0387641526759,  -0.0040574404411,   0.1483160704374,  -0.0279454234987,   0.0940974429250,  -0.1913869976997,   0.1371595263481,  -0.1174502298236,   0.1767103374004},
   {   0.2230177372694,   0.2297750413418,   0.1024120375514,   0.1323100924492,   0.0320466011763,  -0.0961056947708,  -0.1637001931667,   0.0960675776005,   0.0990548059344,  -0.1384009718895,   0.0189917907119,  -0.1367534548044,   0.1780245751143,  -0.1440608352423,  -0.2273169755936,   0.2042593061924,  -0.1346768885851,  -0.0981849804521,   0.0849162563682,   0.0193735696375,   0.0104192672297,  -0.0335050523281,   0.1902020126581,  -0.1757861524820,  -0.1834752708673,   0.0625351667404,  -0.0463027060032,   0.0604265145957,   0.0589191988111,  -0.1274153590202,   0.0699377357960,  -0.2323397547007,  -0.0359180644155,   0.0466441959143,   0.1223378777504,  -0.1665146946907,  -0.0214983318001,  -0.1575314700603,   0.1818324178457,  -0.0918127074838,  -0.0467056743801,   0.2206185907125,  -0.0905532389879,   0.2369988262653,  -0.1649919003248,  -0.0535303167999,   0.1365917772055,   0.0582313574851,  -0.1295715421438,  -0.0819144472480},
   {  -0.2389091253281,  -0.0069850347936,   0.1564994454384,   0.1007401198149,   0.2341208159924,   0.1448198556900,   0.0573938451707,  -0.1169432923198,   0.1161662563682,  -0.2347886413336,  -0.1395551860332,   0.1149949803948,  -0.0180165115744,  -0.1307585686445,  -0.0085808290169,   0.0844346955419,  -0.1651650369167,  -0.0184301268309,   0.0912249013782,  -0.1400866508484,   0.0188103392720,  -0.2486759573221,   0.0891885459423,   0.1273563951254,   0.0013081457000,  -0.1315192133188,  -0.1162669062614,  -0.1022835746408,   0.0739468038082,  -0.0311928726733,  -0.0707921683788,   0.0747863799334,   0.0708523690701,  -0.2411468625069,  -0.0027853646316,  -0.2390458285809,   0.1112136542797,  -0.0792317986488,   0.1943376064301,   0.1971689760685,  -0.1847728192806,  -0.2180986404419,   0.1867386251688,  -0.1393572539091,   0.0856559425592,  -0.1200792267919,  -0.1143596842885,   0.0312793329358,   0.0345962308347,  -0.0036192934494},
   {   0.2246262431145,  -0.0567318201065,  -0.0070193614811,  -0.1104751750827,  -0.0540955401957,   0.1717922091484,  -0.1319570392370,  -0.0404473952949,   0.0259524788707,   0.0497814007103,  -0.1550481468439,  -0.2123255878687,  -0.2093068361282,   0.1854026168585,   0.0680970251560,  -0.2039290070534,  -0.2088308632374,   0.1897241920233,   0.2293571233749,   0.1941772252321,  -0.1609346419573,   0.1160441488028,   0.1537183076143,  -0.1897075325251,   0.1303597092628,   0.1012428402901,   0.2373272329569,   0.0303593464196,  -0.1726788878441,   0.0591335296631,  -0.2014695703983,   0.0013048159890,   0.1567931324244,  -0.2416597008705,  -0.0183765310794,   0.1826627105474,   0.2118087708950,   0.0193849112839,  -0.0904703214765,   0.0036796862260,   0.1265332698822,   0.2168741971254,   0.2060892134905,  -0.1039934232831,  -0.1978550553322,  -0.2531462907791,  -0.0056307646446,   0.0854105055332,   0.0158017054200,  -0.1816325932741},
   {  -0.1377209573984,  -0.1479556411505,   0.2293634116650,  -0.1631725132465,  -0.0782585293055,  -0.2652056813240,   0.0680780112743,   0.1261200606823,  -0.1755399852991,  -0.1371229439974,  -0.0868128761649,  -0.1875876188278,   0.2276719361544,   0.0200960375369,   0.2155275642872,  -0.0686280280352,   0.0065245553851,   0.2358405441046,  -0.0420260801911,   0.0222570654005,  -0.2009732127190,   0.0330388359725,   0.1655485630035,  -0.1657287478447,  -0.1589907556772,  -0.2018639147282,  -0.0712009221315,   0.0834900885820,  -0.1358702778816,   0.0436158925295,  -0.0085432017222,  -0.1257742047310,  -0.2008138298988,  -0.0541574992239,  -0.0065632625483,  -0.0355068854988,   0.1943397819996,   0.2201399356127,  -0.0637263581157,  -0.1032149344683,   0.1207799240947,   0.1871821582317,   0.1080226004124,  -0.1536804437637,   0.0350454263389,  -0.1402918249369,  -0.1474060714245,  -0.1575426012278,   0.1083705574274,   0.0509170405567},
   {   0.0842747539282,   0.2013230025768,  -0.0431845784187,   0.1524820625782,   0.0008079317049,   0.0234807915986,  -0.2055496126413,   0.1294309645891,  -0.2432560026646,  -0.0923942625523,   0.1979226768017,   0.0639808177948,  -0.1585323959589,  -0.0039683021605,   0.1108166277409,  -0.1705434620380,  -0.0526477433741,   0.1223700419068,   0.2201062589884,  -0.0611076839268,   0.0307476036251,  -0.1092634201050,   0.0612349584699,  -0.0696797519922,   0.1204507499933,   0.1639233082533,   0.0054477145895,  -0.0986063182354,  -0.1123643592000,   0.2589448988438,  -0.2215488255024,  -0.0643174946308,   0.1730543822050,  -0.1160667687654,   0.0895441845059,   0.0964469686151,  -0.0880013778806,  -0.1559107452631,  -0.0585499592125,   0.2332010716200,   0.0100966030732,  -0.1207355186343,   0.0442040078342,   0.1237310543656,   0.1849533319473,  -0.1232413798571,   0.0926282852888,  -0.1666615158319,   0.1496955752373,  -0.0895511731505},
   {   0.0032349249814,  -0.1863214075565,  -0.0475022420287,   0.1810769587755,   0.0296380929649,  -0.0893480107188,  -0.1706362217665,  -0.2242448180914,  -0.0431991256773,  -0.2181672006845,  -0.0443640984595,   0.1886884123087,  -0.2187706232071,   0.0654523447156,   0.1640083491802,  -0.0543651990592,   0.2241566032171,   0.0421222969890,   0.0677245110273,  -0.2086474299431,   0.1196516901255,   0.1777673810720,  -0.1261094957590,   0.1186432912946,   0.0400980673730,   0.1010125428438,   0.2586764097214,  -0.2042813003063,   0.1996821016073,  -0.1331875920296,   0.0142781333998,  -0.0709039643407,   0.0348887965083,  -0.0309998318553,   0.0430280677974,   0.0755106136203,   0.2443309426308,  -0.0971905738115,  -0.2300783693790,   0.1863333880901,   0.0460747331381,  -0.1541849821806,   0.0538473613560,  -0.0400104932487,   0.0339089706540,   0.1700610518456,  -0.1582010239363,  -0.1360531449318,  -0.1906496733427,  -0.0752871334553},
   {  -0.1103147566319,  -0.1932651698589,   0.2306574732065,   0.2165007740259,   0.0418202169240,  -0.0590003728867,  -0.1013707518578,   0.1189608350396,  -0.0663824751973,  -0.0994299501181,   0.1118521764874,   0.0412811227143,   0.1194278299809,  -0.0476819984615,  -0.1096375361085,  -0.0336789451540,  -0.2040213495493,  -0.0136828068644,   0.2062662988901,  -0.1687885075808,  -0.1398031115532,   0.1584080010653,  -0.0366791822016,   0.0274201184511,  -0.1175542622805,   0.1154767125845,  -0.2351123094559,   0.1628495305777,   0.1323244124651,   0.0658381208777,  -0.2156360149384,  -0.1004288345575,   0.0467418842018,  -0.1372870951891,   0.0818329453468,   0.1864875555038,  -0.1158576533198,   0.0639993473887,   0.1859983205795,  -0.1531563401222,  -0.1768184453249,   0.1578364074230,  -0.2280189096928,   0.1179499104619,  -0.0621336884797,  -0.2665348947048,  -0.2252374589443,   0.2291291356087,   0.0985772535205,   0.2321495115757},
   {   0.0742274820805,  -0.0748999491334,   0.1459887474775,   0.1801453679800,  -0.0968405678868,  -0.1471052914858,   0.1199724003673,   0.2366206496954,   0.2473443895578,   0.1038550511003,   0.2606330215931,  -0.2023498415947,   0.0647908970714,   0.2608782947063,  -0.1750769764185,   0.0168930590153,  -0.0083530787379,  -0.0566987842321,  -0.0828649997711,  -0.1099869608879,  -0.0715418830514,   0.2378116250038,  -0.1980715692043,   0.0990558937192,  -0.0841158926487,  -0.0995981022716,   0.0567777864635,  -0.0259191896766,  -0.1140490397811,   0.1056454181671,   0.2266692519188,  -0.0041071036831,   0.1017428562045,  -0.2597007453442,  -0.0814796909690,   0.0948439016938,   0.2501526474953,  -0.0762330219150,   0.0639521405101,  -0.1158652231097,  -0.1994824111462,   0.1091534569860,  -0.2192632853985,  -0.0459131821990,  -0.0351381935179,  -0.0714947879314,   0.1155631393194,   0.1714110672474,  -0.1634577363729,   0.2014079838991},
   {   0.1470233500004,   0.1288225352764,  -0.2068320810795,  -0.1454682648182,  -0.0009928566869,   0.1874041557312,  -0.1146134585142,   0.2057771682739,  -0.1101710647345,   0.1967862099409,  -0.1646600216627,  -0.2711029946804,   0.1443749070168,  -0.1381907314062,   0.0973819568753,   0.0561094619334,  -0.2169601023197,   0.2186241745949,  -0.1271811723709,  -0.1256705671549,  -0.1610412150621,  -0.2197399735451,   0.1281870156527,  -0.0667856037617,  -0.1818561255932,  -0.1881324648857,  -0.0448589362204,   0.0789365619421,   0.1280673295259,  -0.0514814220369,  -0.0798615440726,   0.1638822853565,   0.0346121340990,  -0.2410003244877,  -0.1708730161190,  -0.0909186974168,   0.0039678574540,   0.2502368986607,   0.0980311110616,   0.0467074587941,   0.2050738483667,   0.2297657579184,   0.1887310743332,   0.0946985185146,  -0.0725618824363,  -0.0342851020396,  -0.1889254897833,   0.1194932535291,   0.0115933828056,   0.0387330241501},
   {   0.0879871174693,  -0.1191477775574,   0.2089935094118,  -0.1788507997990,  -0.0078808460385,  -0.2555912733078,  -0.0631900429726,   0.0906327590346,  -0.2391647696495,   0.0607364252210,  -0.1222008988261,   0.2021610140800,   0.2496343255043,  -0.2283167839050,  -0.0710358768702,   0.1735512465239,  -0.0030849757604,   0.0607430748641,   0.1188632100821,   0.0114873172715,   0.1645062267780,  -0.1201419532299,  -0.0815816819668,   0.0204439684749,   0.0097982091829,   0.2262269705534,   0.0595888048410,   0.1961837112904,  -0.1077839359641,  -0.0763036757708,   0.2142699062824,  -0.1573164314032,  -0.0795017331839,   0.2191013395786,  -0.1530250757933,   0.1418029367924,  -0.1989680826664,   0.0085493484512,  -0.0085910847411,   0.1680794209242,  -0.1246618703008,   0.0391299352050,   0.0839625447989,  -0.0042912531644,  -0.0086676906794,   0.0437481626868,  -0.1904918551445,  -0.0633861422539,  -0.0854261219501,   0.1814114302397},
   {   0.0376602299511,  -0.2153738439083,  -0.0074078231119,  -0.0407329350710,  -0.0456433631480,  -0.1934567242861,  -0.0682968869805,  -0.1122985258698,  -0.0624228715897,  -0.0986691638827,   0.0676404386759,   0.0292850732803,   0.1722135394812,   0.1216789782047,   0.0712783709168,   0.0265008602291,   0.0614970624447,  -0.0808084607124,   0.1822486370802,  -0.1332158744335,  -0.0205802638084,  -0.0486325733364,  -0.2168995738029,  -0.1765174567699,  -0.2272154390812,   0.1003077849746,   0.2150872200727,   0.1136209294200,   0.2322498559952,   0.0852303653955,   0.2111717909575,  -0.0464224852622,   0.2190182209015,  -0.0763985738158,   0.1319114118814,  -0.2090521901846,   0.1445628106594,  -0.1856677830219,  -0.0267545133829,   0.1965778172016,  -0.0941355898976,  -0.1528349369764,   0.2335725724697,   0.0975623652339,   0.1372703760862,   0.0599210895598,  -0.0835749730468,  -0.0847242623568,  -0.1920321583748,   0.0736184939742},
   {  -0.1300627589226,  -0.1071812212467,  -0.1894580274820,   0.0093585280702,   0.1070599332452,  -0.2041057199240,   0.1608307808638,   0.1809202432632,   0.0664712935686,   0.1354417204857,  -0.0093268770725,   0.2554740607738,   0.1278437674046,   0.0045729414560,   0.0305842030793,   0.0751739367843,  -0.0479625575244,   0.1907530725002,  -0.0111717442051,  -0.0988739505410,   0.0455893538892,   0.1762278974056,  -0.0842457860708,  -0.0810724571347,   0.1871745586395,   0.0188845954835,  -0.0723710507154,   0.0910295695066,  -0.1548826992512,  -0.0713214799762,  -0.1786917746067,   0.1281591206789,   0.1678548306227,   0.0572960264981,  -0.1134607568383,  -0.0359502471983,  -0.1396304666996,  -0.1638012528419,  -0.0290321558714,  -0.1217258274555,  -0.1983395516872,   0.1560547947884,   0.1322475373745,  -0.1871387362480,  -0.1029274761677,  -0.0995091944933,  -0.1925992518663,   0.1936353296041,  -0.0848759487271,   0.0978944972157},
   {  -0.2135405689478,  -0.2086309194565,  -0.1602010875940,   0.0151404431090,  -0.0122089460492,   0.1652186363935,  -0.1709738522768,  -0.1872235983610,   0.0719227194786,   0.0253418833017,   0.0080027310178,   0.2205793261528,  -0.0108752129599,   0.1998675912619,  -0.0874480903149,   0.0026845757384,   0.0115652149543,  -0.1450932621956,  -0.0405740067363,   0.0286158248782,   0.2215954512358,   0.2299792915583,   0.2341609895229,  -0.0105817951262,  -0.1130328178406,   0.0191252194345,  -0.2495221048594,   0.0185674093664,  -0.1408017128706,  -0.0936635285616,  -0.0374475158751,  -0.0114086885005,  -0.0618166252971,   0.0563266947865,  -0.1165842562914,  -0.0180448535830,   0.1482077836990,  -0.1857305765152,  -0.0178809501231,   0.1190763860941,   0.2220969498158,   0.1254622042179,   0.1790094673634,  -0.1235523074865,  -0.0147173721343,   0.1423289328814,   0.1674910038710,  -0.1557197570801,  -0.2442180216312,  -0.2300735414028},
   {   0.2357159256935,  -0.1641156226397,  -0.1381937712431,   0.1540112197399,  -0.2106503099203,  -0.0827094614506,   0.1060621142387,   0.0677121877670,   0.0001961902744,  -0.0620767734945,   0.2078767716885,  -0.2148357629776,  -0.0647911801934,   0.2077226340771,  -0.0714038833976,  -0.2352912276983,  -0.0985189005733,   0.1002971604466,  -0.0342699959874,  -0.0510053969920,  -0.1721758097410,  -0.1192997992039,   0.0487292073667,  -0.1618764102459,   0.2529525160789,  -0.0871679782867,   0.0907888412476,  -0.1330879032612,  -0.1906273066998,  -0.2374556511641,   0.0673113688827,   0.1128440350294,   0.1439617574215,   0.2642333507538,  -0.0515644401312,  -0.1233004927635,  -0.2050410211086,   0.0286123137921,  -0.2608422636986,  -0.0292383525521,  -0.0011412304593,  -0.2220841199160,   0.2112503796816,  -0.1796815842390,   0.0111691812053,  -0.0103231770918,  -0.1609560400248,  -0.1626047343016,   0.2322018444538,   0.1280935704708},
   {   0.1620071381330,  -0.2272432148457,  -0.2163265198469,  -0.1575277745724,   0.1820403486490,  -0.0715831220150,   0.2026800364256,  -0.1257242113352,   0.2280157208443,  -0.0588340163231,   0.0304221548140,   0.2013410776854,  -0.1708292663097,   0.2563950121403,  -0.1259798705578,   0.2262342721224,  -0.0014249853557,   0.0807729437947,   0.1679510027170,  -0.0498743467033,  -0.1020974963903,   0.1275496184826,   0.1405312865973,  -0.1079350411892,   0.1132573038340,  -0.1694222688675,  -0.1802428215742,  -0.0273358710110,  -0.1286943852901,  -0.1053194552660,  -0.0400113426149,   0.2100619077682,  -0.0738995596766,   0.2179074585438,  -0.1790711283684,  -0.2189184278250,   0.1025905311108,   0.0606470517814,  -0.1839464008808,   0.2383903115988,  -0.1612669080496,   0.2486655563116,  -0.0167848113924,  -0.0261215474457,  -0.2177540808916,  -0.0916063338518,   0.0500879995525,   0.1322448551655,  -0.0717912018299,   0.2220090180635},
   {  -0.0081054391339,  -0.1012893468142,   0.0878678411245,   0.0349513180554,   0.0941130220890,  -0.2356913089752,  -0.0340749360621,  -0.2182230651379,  -0.0971873551607,  -0.0905116125941,   0.1891537606716,  -0.1767382323742,   0.0143180135638,   0.0191987492144,   0.2293937504292,   0.1187450364232,   0.1131871789694,   0.0970274507999,  -0.0025076656602,   0.1393206864595,   0.1892981231213,   0.0820509046316,   0.1353824585676,  -0.0102419378236,  -0.1635685265064,  -0.0790138915181,   0.1765422523022,   0.0257915724069,  -0.1791105717421,  -0.1227692812681,  -0.0249105673283,  -0.0346245020628,  -0.2191117703915,   0.0712947547436,   0.0678567737341,   0.0058377548121,  -0.0329748503864,   0.1596645116806,   0.1041778028011,   0.2407520413399,  -0.0945509448647,   0.0738516449928,  -0.1016962081194,   0.0666660815477,  -0.0899844840169,   0.1674688607454,   0.1398745924234,   0.0260528977960,   0.0717325285077,  -0.1356871575117},
   {  -0.1203741133213,   0.2620894014835,  -0.1649317443371,  -0.1846089065075,  -0.0118701383471,   0.1359965652227,  -0.1113739535213,   0.0425091534853,   0.1126440390944,   0.0525106042624,   0.1128725185990,  -0.1485220044851,  -0.0343003273010,  -0.0663682669401,   0.1617610305548,  -0.1324940472841,  -0.1286616325378,   0.0510592795908,   0.2300183922052,  -0.0720207318664,   0.1899393796921,  -0.1311992108822,   0.1653800457716,  -0.0760597735643,   0.0374947935343,  -0.0865830108523,   0.1369622796774,   0.1327829211950,   0.1581037342548,  -0.1292746961117,   0.1203881353140,  -0.0577278397977,   0.2000578194857,  -0.0828567668796,   0.0264179464430,   0.0474820733070,  -0.1542868614197,  -0.2104240208864,  -0.0030845978763,   0.0785745456815,  -0.0538215674460,   0.1587030440569,   0.1529227048159,   0.1747408509254,   0.0986001715064,   0.0535455569625,   0.2150471806526,  -0.0571995675564,   0.1711410880089,   0.0928453579545},
   {   0.0451462045312,   0.0619840249419,   0.1055982038379,  -0.0781779289246,   0.0083856144920,  -0.0507807321846,  -0.1986411064863,  -0.1048777773976,   0.2213860899210,   0.0684336572886,   0.1881482452154,  -0.0581297315657,  -0.2043323218822,  -0.0309407003224,  -0.1130855455995,  -0.0661317482591,  -0.1568355113268,  -0.2169723510742,  -0.1460760235786,   0.2269663661718,   0.0824001953006,   0.2016871571541,   0.1807605177164,   0.2228401154280,   0.1633139103651,  -0.0122108664364,   0.2120528221130,   0.0750660002232,  -0.1606352478266,  -0.2555448114872,  -0.0485912039876,   0.1904184818268,   0.0062384768389,  -0.1343566626310,  -0.1875746250153,   0.1865987479687,   0.1950769424438,  -0.1917037516832,  -0.0491354875267,  -0.1033686921000,  -0.1446645408869,  -0.0071027008817,   0.0559969991446,  -0.0836679264903,   0.0154434842989,  -0.0857151448727,  -0.2062649726868,   0.0418664738536,  -0.1200953647494,   0.0351901799440},
   {   0.0027982876636,  -0.1670782417059,  -0.1263497918844,  -0.0683582723141,   0.1680763810873,   0.0550584048033,  -0.2398783266544,   0.0703475251794,  -0.1362488865852,   0.0925266891718,   0.1739251762629,  -0.0230361316353,   0.1294045597315,  -0.1365271657705,  -0.1870330423117,  -0.2444412112236,   0.0407808534801,   0.2046637833118,   0.1547359526157,  -0.0124434586614,   0.0331321358681,  -0.1611169427633,  -0.1005912646651,  -0.0432785116136,   0.2008765786886,  -0.2193168103695,  -0.2053750753403,  -0.0809084698558,   0.2155729234219,   0.0171548891813,   0.1350487172604,  -0.0951060503721,   0.0609374418855,  -0.1405390650034,   0.1328201144934,   0.0701798051596,   0.1309146136045,   0.0880824849010,  -0.0762659460306,  -0.1459291279316,   0.2385204732418,   0.2379459738731,   0.1710024625063,  -0.0491853021085,   0.0226770918816,   0.0142246372998,  -0.0779450386763,  -0.1321717649698,   0.1625257730484,   0.1628804206848},
   {  -0.0275498293340,   0.0377515032887,   0.0441307052970,   0.0498661808670,   0.2365995794535,  -0.1452424228191,   0.1845355480909,   0.0255382731557,  -0.0626897141337,  -0.0337467752397,  -0.0486568436027,  -0.0099193397909,  -0.1286857575178,   0.1148460283875,  -0.1071750596166,  -0.1777556836605,   0.0148573359475,  -0.1435042321682,   0.0810535177588,   0.0240418240428,  -0.1706390678883,  -0.1816215962172,  -0.1199255436659,   0.0558181479573,  -0.0442539453506,  -0.0729556307197,  -0.1420291066170,  -0.0095475427806,   0.1077784299850,  -0.1527558714151,   0.1902778297663,  -0.0862788036466,   0.1844668239355,  -0.1842170655727,   0.0517422631383,  -0.0268888361752,  -0.1868928074837,   0.0624472573400,   0.0347180031240,   0.1029437333345,  -0.1382096558809,  -0.1236786469817,  -0.1460149288177,  -0.1193633452058,  -0.2127612084150,  -0.0651857331395,   0.2053167968988,  -0.0941156148911,  -0.1819174289703,   0.1620436906815},
   {  -0.2073406428099,   0.0552562102675,   0.0761590078473,  -0.2070858776569,  -0.1493264287710,   0.1366809010506,  -0.0578689090908,  -0.1149095818400,  -0.2276241183281,   0.0026314116549,  -0.1150221973658,   0.1780202835798,   0.0609350167215,   0.1107521131635,  -0.1844414770603,   0.0577771589160,  -0.2289439737797,   0.1725440621376,  -0.0162127278745,  -0.1876984536648,   0.2525560557842,  -0.0876998528838,   0.0469478070736,   0.0474081151187,   0.0676948800683,   0.2211583256721,  -0.2102822512388,   0.1480820775032,   0.1205421462655,   0.1127186045051,  -0.1344845294952,   0.0997346490622,   0.0515124872327,   0.0276143793017,   0.0297684539109,   0.0679270774126,   0.1873453259468,   0.0313293486834,  -0.0348142161965,  -0.1452425420284,  -0.1172026991844,   0.1902317404747,  -0.0679406449199,  -0.0575609691441,   0.0562059842050,  -0.1552806794643,   0.2401568442583,   0.1540849208832,   0.0745537355542,  -0.1823100149632},
   {   0.1668674498796,  -0.0472318828106,  -0.2332441806793,  -0.0965476036072,  -0.0893575251102,   0.0873285531998,  -0.0609555505216,   0.2226167917252,   0.2301726490259,  -0.1463365703821,  -0.2240843623877,  -0.2451987266541,  -0.1573821455240,   0.0823006331921,   0.0192015022039,  -0.0235226321965,  -0.2094412595034,  -0.0023230614606,  -0.1353444606066,  -0.1512086540461,   0.1014338284731,   0.1161874979734,   0.0161364506930,   0.1990507841110,  -0.0570143796504,   0.1564277410507,  -0.0991471931338,   0.0568275935948,   0.1775889992714,  -0.1922367066145,   0.0785972103477,   0.0260785575956,  -0.0664390400052,   0.0801546126604,  -0.1535787880421,   0.1896627843380,  -0.0893229320645,   0.1341929435730,  -0.1140786185861,   0.0292523466051,  -0.0950131565332,  -0.0355730094016,   0.1374889463186,  -0.2485919892788,  -0.2104537636042,   0.2153401225805,   0.0317514427006,  -0.2172733843327,   0.1145939230919,   0.2011467218399},
   {   0.1709405481815,   0.0628459006548,   0.1348017454147,  -0.2119690626860,  -0.0145241208375,  -0.1395976841450,   0.0753860697150,  -0.0817027390003,  -0.1416151970625,  -0.0369066148996,  -0.1852463036776,   0.1671919077635,   0.1652273237705,   0.0491109862924,  -0.1251924335957,  -0.2069014310837,   0.0964383259416,  -0.1146606653929,   0.0410168543458,  -0.1493703126907,   0.2211141586304,  -0.0550474338233,   0.0657686516643,   0.0541197024286,  -0.1250402629375,   0.0104582970962,   0.0140239316970,  -0.1689674556255,   0.0642259046435,   0.0311637800187,  -0.1866828501225,   0.1927206069231,  -0.0955458730459,  -0.0000432945817,  -0.2110130935907,   0.1228651478887,   0.1011713966727,   0.1761082112789,  -0.2089041769505,   0.0644640102983,   0.0070619443431,  -0.1801357269287,  -0.1815618127584,   0.1682045012712,   0.2365209758282,  -0.1172952502966,  -0.1642259359360,   0.2222168743610,  -0.0395572632551,   0.0205806251615},
   {  -0.1888207197189,   0.1031927242875,   0.2285055965185,   0.0787897631526,  -0.0869576036930,  -0.2173399925232,   0.1449197083712,  -0.1280391663313,   0.0940327718854,  -0.2035344839096,  -0.0849983319640,  -0.1809145957232,   0.0642644912004,  -0.0631408095360,   0.1157390177250,   0.0856340900064,   0.1766196489334,   0.2165580689907,  -0.1129689812660,   0.2633186876774,   0.1008561253548,  -0.0311099085957,  -0.1569460183382,   0.1379640996456,   0.1328544616699,  -0.1373002827168,  -0.2591472864151,  -0.0806782543659,  -0.0587023571134,   0.1594897061586,  -0.1158459633589,  -0.1945442110300,   0.0267593469471,   0.1411985307932,  -0.1685128808022,  -0.0145263830200,   0.2602968811989,  -0.0413858480752,   0.1803393661976,   0.1786457896233,  -0.1997785568237,  -0.0396991819143,   0.1873037070036,  -0.2101148515940,  -0.2404897511005,  -0.1289246231318,  -0.1059868037701,   0.0113725448027,   0.1239373385906,   0.0725527703762},
   {   0.0150073068216,  -0.0963170975447,   0.0083931498230,   0.0116881458089,  -0.1545014679432,   0.0407171472907,  -0.1976622939110,  -0.2339300811291,  -0.1093309074640,  -0.0420251004398,   0.0639661327004,  -0.0037879343145,  -0.0461788438261,  -0.0333693139255,  -0.0874769240618,  -0.1684570461512,   0.2401794493198,  -0.0867216587067,   0.0461245290935,   0.1591749340296,   0.0455217696726,   0.0531828291714,  -0.0448302105069,  -0.0269633159041,  -0.0504361689091,   0.2123446911573,   0.2001250535250,  -0.1009090319276,  -0.2177925258875,   0.0106928581372,  -0.2557177841663,   0.1240774244070,  -0.1310415267944,  -0.0686526969075,  -0.0062682372518,   0.0969987511635,  -0.1420404911041,   0.0317220278084,  -0.1340846717358,  -0.1576071381569,  -0.0518631003797,  -0.1298006325960,  -0.1100698858500,   0.0778524279594,  -0.1915891766548,  -0.0775282904506,  -0.2025517523289,  -0.1508607119322,  -0.0172855686396,  -0.0326191671193},
   {   0.1525943130255,  -0.1967350393534,   0.0383058488369,  -0.0198999755085,  -0.1622052788734,  -0.0976420044899,  -0.0277302134782,   0.1642579436302,   0.0755696147680,   0.1396140158176,   0.0221977401525,  -0.1488719731569,   0.0920937731862,  -0.0852947309613,  -0.0848893597722,   0.0593766942620,   0.0127563625574,   0.2053989320993,  -0.1848700046539,   0.2118194550276,   0.2339439988136,   0.2530574500561,   0.1967967748642,  -0.1240819990635,  -0.2010159790516,   0.2407146841288,  -0.1349520087242,  -0.1249220073223,  -0.0309206005186,   0.2038059681654,  -0.1069298014045,   0.0876495614648,  -0.0018684767419,  -0.0401786603034,   0.0613682568073,  -0.0376658439636,  -0.0975645035505,   0.1749798208475,   0.0467987656593,  -0.0223004948348,   0.1881461739540,   0.1051772683859,  -0.2288799732924,  -0.1686562895775,   0.0131635488942,   0.1853554546833,   0.1829739362001,   0.0306998081505,   0.1559982001781,   0.0928957536817},
   {  -0.1233764365315,   0.1234120875597,   0.1699754446745,   0.0870235115290,  -0.1917043328285,   0.0755355209112,  -0.2281830906868,   0.2205947935581,   0.0335341989994,   0.0397563539445,   0.1789065003395,  -0.0640035346150,   0.2185836583376,  -0.1771373897791,  -0.1185976266861,   0.1818170696497,  -0.2230181843042,   0.2177302688360,  -0.1450705677271,   0.1629451960325,  -0.1441883593798,  -0.0061868694611,   0.2147837281227,   0.1303345412016,  -0.1530880928040,   0.1651956140995,   0.0697626695037,  -0.0200849156827,  -0.2373730838299,  -0.0777243226767,   0.0594441741705,  -0.0002667708904,   0.2329303920269,  -0.1401575058699,  -0.1752728223801,   0.0160794369876,  -0.0918885245919,   0.0064453692175,   0.2099740654230,  -0.1790559142828,   0.2303920388222,   0.1956536620855,  -0.1935067325830,  -0.1197393983603,   0.0448533445597,   0.0782734230161,   0.2288283556700,   0.1812177151442,  -0.1692201644182,   0.1497269570827},
   {  -0.1856196373701,   0.0867383107543,  -0.1218760162592,  -0.2421645522118,  -0.0652448609471,  -0.2207180708647,   0.2084935158491,  -0.1941383332014,   0.2031654268503,  -0.2013000100851,  -0.0033350971062,   0.2059231996536,  -0.1193357110023,   0.2066560983658,   0.1741364002228,  -0.1731709539890,   0.0727819129825,  -0.0746878832579,  -0.1025220900774,   0.2468088269234,  -0.1287858784199,  -0.0961076319218,   0.1490257829428,  -0.2154239565134,   0.1203341335058,   0.1813375204802,  -0.2131287604570,  -0.0637827292085,   0.0542773120105,  -0.1147022396326,  -0.1580306440592,  -0.1925666332245,   0.0422264821827,  -0.1508704721928,  -0.1858194023371,  -0.2095802128315,   0.0533474199474,  -0.1175428032875,  -0.0561991371214,  -0.1134246885777,   0.2109197825193,  -0.1037200391293,  -0.2105709761381,  -0.0239613875747,  -0.0242888201028,   0.2567960619926,   0.0049489405937,   0.1750521510839,  -0.0694378167391,   0.1646200269461},
   {   0.0914360731840,  -0.0248344093561,  -0.1390386968851,  -0.0929424315691,   0.1152034625411,   0.2275672852993,  -0.2006485760212,   0.2223574221134,   0.0624787285924,   0.0674286782742,   0.0429268926382,   0.1451730132103,   0.1251505166292,  -0.1265328973532,   0.0380937308073,   0.1415566354990,  -0.0086384741589,   0.1265743821859,  -0.2131930440664,   0.2634597718716,   0.1411720216274,  -0.0704317688942,  -0.0500406995416,  -0.0681993290782,  -0.0169189199805,   0.0012452737428,   0.1277941465378,  -0.1132915690541,   0.1633774936199,  -0.1590849310160,  -0.2390836924314,  -0.1085381284356,   0.2035453021526,   0.1384798735380,   0.0450989827514,   0.2172559201717,   0.0614537410438,   0.2430469989777,  -0.1360656172037,  -0.0832478776574,   0.2039320766926,  -0.1437383294106,  -0.1109068766236,  -0.0304255764931,   0.2502401471138,  -0.0219068247825,   0.0078753493726,   0.0664240941405,   0.2144640833139,  -0.1906910091639},
   {   0.1783589571714,  -0.0198928080499,  -0.1931653916836,   0.2113784104586,  -0.2133904844522,  -0.0751023143530,   0.1240188479424,   0.1933213919401,  -0.1458155214787,   0.2418977469206,   0.2172783017159,  -0.0989217013121,  -0.1230237409472,   0.0266619343311,   0.1449710428715,   0.2164932936430,  -0.0395549423993,  -0.1928281486034,  -0.1990800052881,   0.0199608653784,  -0.0490352287889,  -0.2037556022406,  -0.0319465547800,   0.0048481915146,  -0.0038764392957,  -0.0094585139304,  -0.0573164448142,   0.0665297955275,  -0.2095953524113,   0.0579993911088,   0.0246115773916,  -0.1449799090624,  -0.2182541191578,  -0.1198972612619,   0.0871642976999,  -0.0849570184946,   0.0777669698000,   0.0264765471220,   0.0704286396503,  -0.1275216341019,   0.0036562804598,  -0.0150288315490,   0.1425350457430,   0.1443675011396,  -0.0071867043152,  -0.0228443890810,  -0.1938000619411,  -0.1798248440027,  -0.1853458732367,   0.1832786500454},
