
    // Select all (Ctrl+A), Copy (Ctrl+C), paste to an empty text file (Ctrl+V) and save that file as 'generated_code.h'
    // 
    // Auto-generated header file. Assumes img to be a floating point array
    // of 64 elements (corresponding to an 8x8 b&w image)

    #include <math.h>

    float norma_VBS;
    
inline float activation_VBS_0 (float x, float n) 
{ return x > 0 ? x : 0;}
inline float activation_VBS_1 (float x, float n) 
{ return x > 0 ? x : 0;}
inline float activation_VBS_2 (float x, float n) 
{ return x > 0 ? x : 0;}
inline float activation_VBS_3 (float x, float n) 
{ return x > 0 ? x : 0;}
inline float activation_VBS_4 (float x, float n) 
{ return x > 0 ? x : 0;}
inline float activation_VBS_5 (float x, float n) 
{ return x > 0 ? x : 0;}
inline float activation_VBS_6 (float x, float n) 
{ return x > 0 ? x : 0;}
inline float activation_VBS_7 (float x, float n) 
{ return x > 0 ? x : 0;}
inline float activation_VBS_8 (float x, float n) 
{ return x > 0 ? x : 0;}
inline float activation_VBS_9 (float x, float n) 
{ return exp(x)/n;  }

    float guess_VBS (const float *img, int flag)
    {
    
  // Declare the arrays in the stack
  const float kernel_0[57][50] = 
  {{  -0.1007013544440,  -0.0813497528434,   0.1886105239391,  -0.1802499741316,  -0.1449524611235,   0.2128925919533,  -0.0036711953580,  -0.1750373393297,  -0.2017062604427,  -0.1539116352797,  -0.2175835669041,   0.1983530819416,  -0.0328993126750,  -0.0103832753375,   0.1977369040251,   0.1563653498888,   0.1148789077997,   0.2032458037138,  -0.0850123241544,  -0.1721636354923,   0.1044682934880,  -0.0326264351606,   0.2759880721569,   0.2371090352535,   0.0013989922591,   0.0776130035520,   0.2611781358719,  -0.0251378044486,   0.1034234389663,  -0.0229142531753,   0.0388883501291,   0.0125587144867,   0.1608343124390,  -0.0997949093580,   0.1084782406688,   0.0118132457137,  -0.0473969727755,   0.0595524087548,   0.1505794525146,   0.2708088457584,   0.1412596404552,  -0.2247448861599,   0.0974026694894,  -0.1790645718575,   0.0915649607778,   0.1573743671179,  -0.1110862642527,   0.1056064367294,  -0.1280889809132,   0.0511779338121},
   {   0.1617312729359,   0.0792510509491,  -0.1846457868814,  -0.0227705091238,   0.2308817207813,   0.0691251903772,  -0.0618789158762,   0.1275324821472,   0.0089994501323,  -0.0581118427217,  -0.0461100488901,   0.1269870549440,   0.2304751873016,   0.1589953750372,   0.0580111965537,  -0.1329413354397,   0.0842694118619,  -0.1699344515800,   0.0998993664980,  -0.1783919483423,  -0.1954167336226,  -0.1072110831738,  -0.0494787581265,   0.0333781018853,  -0.1544299274683,  -0.1095646917820,  -0.1117280945182,   0.0776015296578,  -0.2320126593113,   0.0112603027374,  -0.1723893284798,   0.2344116270542,  -0.0828105360270,   0.2081015557051,  -0.1584035158157,   0.2191985100508,   0.0254322811961,   0.0207828097045,   0.1190095990896,  -0.1631307005882,   0.0255118701607,   0.1353375464678,  -0.1545585542917,   0.1930947005749,  -0.1990979015827,  -0.2299746572971,  -0.0422768369317,  -0.0862571075559,  -0.1432748436928,   0.1801017820835},
   {   0.0454086326063,  -0.0263295117766,   0.2816092669964,  -0.0814422070980,   0.1538030952215,   0.0122023569420,  -0.2248785048723,   0.1269256770611,   0.1685415357351,  -0.1203619092703,  -0.0405910760164,   0.1800392717123,  -0.0828803107142,  -0.0400587990880,   0.0083369929343,  -0.2174467444420,   0.0503113232553,   0.1110731735826,   0.0318353176117,  -0.2571097612381,   0.1174153909087,  -0.0338577404618,  -0.0331725552678,   0.1255224794149,   0.1486205756664,  -0.1443757116795,  -0.0387382395566,  -0.1876107156277,  -0.0073550655507,  -0.1699828207493,  -0.1012100800872,   0.1148224398494,   0.0512854419649,  -0.1752705574036,  -0.0285463090986,   0.0551644079387,   0.1369110345840,  -0.2239450812340,   0.1774394810200,  -0.0141876703128,  -0.2095263600349,   0.0079001113772,  -0.0286575052887,  -0.1939233988523,  -0.1185238212347,   0.0222708061337,   0.1785734444857,   0.0864432752132,   0.0828342437744,  -0.0777860954404},
   {   0.1633127927780,   0.1701146364212,   0.0615096464753,  -0.2019950300455,   0.1542009115219,   0.0672649070621,   0.1596016585827,   0.0910275429487,  -0.1087421923876,   0.1123859435320,   0.1682553440332,   0.0515508875251,  -0.1724656820297,   0.0448132120073,  -0.1197635158896,  -0.2387549132109,  -0.0635226666927,   0.0886917933822,   0.0661592483521,  -0.0458237789571,  -0.2555373609066,   0.0837930440903,   0.2389909029007,  -0.2558158636093,  -0.0919029936194,   0.0573269538581,  -0.2099128812551,  -0.0272355712950,  -0.1859642416239,  -0.0897335186601,  -0.2203921675682,  -0.1757151633501,  -0.0134044885635,  -0.2513393163681,   0.1622450798750,  -0.1041804850101,  -0.1355606317520,   0.1705263406038,   0.0795522779226,  -0.0497767329216,  -0.1715741008520,  -0.2192013859749,   0.0875698775053,  -0.1193978786469,  -0.0921003744006,  -0.1365506947041,   0.1263199448586,  -0.0165834967047,   0.1765019744635,  -0.0870457515121},
   {  -0.0726015195251,   0.2324810773134,  -0.1608309745789,  -0.2320750951767,   0.0322318635881,  -0.1898469179869,  -0.0201499462128,   0.0317067094147,  -0.1282929778099,  -0.1409540027380,   0.0102040665224,  -0.1697980910540,   0.0065997233614,   0.1291571557522,  -0.0111230080947,   0.1384829133749,   0.0471914410591,  -0.1143307983875,  -0.2231860756874,   0.1616633981466,   0.1084468737245,  -0.2307847738266,  -0.2133372575045,  -0.1578325927258,  -0.2010600715876,   0.0467691086233,   0.1273880451918,  -0.0641659423709,  -0.1866741031408,   0.1247786656022,  -0.2288002818823,   0.2442295551300,  -0.1552465856075,  -0.2103748023510,  -0.2572236359119,  -0.2854147553444,   0.1670954972506,  -0.0274902358651,  -0.0706618800759,   0.1273901164532,  -0.1204488277435,   0.0845520198345,  -0.0105186142027,  -0.1902806758881,  -0.1908291876316,  -0.1507998853922,  -0.0107458541170,  -0.0752345174551,   0.0664380490780,  -0.1260616928339},
   {   0.2473321408033,   0.1365756988525,   0.2079373151064,  -0.2199665158987,   0.0972519889474,   0.0721129029989,  -0.0438815169036,  -0.0110959718004,   0.0391877926886,   0.2090734392405,   0.2277103215456,   0.1425541490316,   0.0716904699802,   0.2195663899183,   0.0478900447488,  -0.0685355067253,  -0.1520553976297,   0.2487996816635,  -0.0940410271287,  -0.0469806939363,   0.1758402138948,   0.0952443331480,   0.1552106589079,  -0.0011879868107,   0.1139096990228,  -0.0662898942828,   0.1885076463223,   0.1542482674122,   0.1990522444248,  -0.1621796190739,   0.1492844521999,  -0.0906768217683,  -0.0649289116263,  -0.1189647242427,   0.0305686797947,  -0.0593633353710,   0.1458882838488,  -0.1158771365881,  -0.2392231822014,   0.1779904216528,  -0.1220668852329,  -0.1105666533113,  -0.1761929988861,   0.0064936196432,  -0.2628130316734,   0.0249415170401,   0.1234016120434,  -0.0184624399990,   0.0494006313384,  -0.1494021266699},
   {  -0.2346917092800,  -0.0768365859985,  -0.0004317679559,   0.0138956476003,  -0.1587071716785,   0.2083985209465,  -0.1213512346148,  -0.0144626023248,   0.0541178509593,   0.1465078890324,   0.1703171879053,  -0.1498860418797,  -0.2056966871023,   0.0123244673014,  -0.1195702552795,   0.1518068164587,  -0.1236735731363,  -0.0001985317504,   0.0771367996931,   0.0277596432716,   0.0005135067622,  -0.1533368676901,  -0.1541414856911,  -0.0401221998036,   0.0010181086836,   0.0555302798748,   0.1316583752632,   0.0338482968509,  -0.2314722537994,  -0.1641830354929,  -0.1488694995642,   0.1044187769294,  -0.1332191973925,  -0.1912023574114,  -0.1818665713072,   0.2567086815834,   0.0862881615758,   0.2145422399044,  -0.1339309811592,   0.2285332232714,  -0.0054701860063,   0.1102580353618,   0.0313193537295,   0.1028099283576,  -0.0948338434100,   0.1308794766665,   0.0867488384247,   0.2533768117428,  -0.0987631827593,   0.0488862395287},
   {   0.0410588532686,   0.0768935680389,   0.1359643936157,   0.0509826131165,  -0.0756477415562,   0.0535819083452,  -0.1638403087854,   0.1209163293242,   0.0862350538373,  -0.1904956698418,   0.0792363286018,  -0.1055226549506,  -0.0199795775115,  -0.1672925204039,  -0.0066965809092,  -0.0380434133112,   0.2039154618979,  -0.1930717527866,  -0.0228390619159,  -0.2195957452059,   0.1077053919435,  -0.0491027571261,  -0.1789827644825,  -0.2025201022625,  -0.1206894665956,  -0.2001532018185,  -0.0819380283356,   0.0716114714742,   0.1833238005638,   0.1641837209463,  -0.1024751141667,   0.0813810676336,  -0.0202828999609,  -0.2359465211630,  -0.0046551856212,  -0.2483998984098,  -0.0460212714970,  -0.0267274379730,   0.1637740731239,  -0.1058899164200,  -0.2054202407598,  -0.1261199712753,   0.1837711334229,  -0.0502033382654,  -0.1465786546469,  -0.0720406919718,   0.2280127853155,   0.0312259458005,   0.0634412840009,   0.0730489492416},
   {   0.0479102209210,  -0.0925724953413,   0.1884329468012,   0.1144809648395,   0.0990877151489,  -0.0916557833552,  -0.1788997203112,   0.1105821803212,  -0.2072640061378,  -0.1953869163990,  -0.0370241254568,   0.0873474106193,  -0.1599721610546,   0.0394822359085,   0.1462721377611,  -0.1552958488464,   0.1824019998312,   0.1316091716290,   0.0656045600772,  -0.1610028743744,   0.1417736113071,  -0.0462047122419,  -0.1573002189398,   0.1931657642126,   0.2385524660349,  -0.0872325748205,  -0.1256683021784,   0.1760049015284,   0.1778455078602,   0.1812972426414,  -0.1184049770236,  -0.0511444024742,   0.0599470101297,   0.0546676926315,   0.0868089646101,  -0.0599637962878,  -0.1434914320707,  -0.2386594563723,   0.1750164180994,   0.2414213567972,  -0.1099618375301,   0.2287598699331,  -0.2276086956263,   0.1500287652016,   0.1540421396494,  -0.1124668270350,  -0.1704071462154,  -0.1455261856318,   0.0218663793057,   0.1875440627337},
   {   0.1256695836782,  -0.1883779466152,   0.0168451834470,  -0.1063440591097,   0.0205619148910,   0.0326530635357,   0.0019176156493,  -0.1243676617742,   0.0052411882207,  -0.0681599974632,  -0.1390386819839,  -0.1722088307142,  -0.2015403062105,   0.0034069425892,   0.1313380002975,  -0.0312086846679,  -0.0840949863195,  -0.1753664463758,  -0.1652360707521,  -0.2014086246490,  -0.1712408959866,   0.1871803402901,   0.0662161111832,   0.1732959449291,  -0.1708825230598,   0.1627415120602,  -0.1979050934315,  -0.0178958810866,   0.1018465012312,   0.2382912188768,  -0.1719394028187,   0.1042660251260,  -0.1522276252508,   0.0729139298201,   0.2442758381367,   0.0622867047787,   0.1809104979038,  -0.1453934758902,   0.0538200847805,   0.1012043878436,  -0.0614824891090,  -0.0170578733087,  -0.1015272065997,  -0.1376093924046,  -0.0460344068706,  -0.1358559280634,  -0.2148846983910,   0.1391609162092,   0.0394342988729,   0.1518022716045},
   {   0.0032833022997,   0.2291915714741,  -0.2397612482309,   0.0467454269528,  -0.2072688788176,   0.1484380811453,  -0.2091536968946,  -0.1002306938171,  -0.0389401875436,   0.0498708859086,  -0.0565007366240,  -0.0568056143820,  -0.2354734688997,  -0.0364714264870,   0.0996607095003,  -0.0230997949839,   0.0063920589164,   0.0489097014070,  -0.0644693523645,  -0.1944273561239,  -0.0592499226332,  -0.0583162568510,   0.1021143794060,  -0.0077921291813,  -0.1289760768414,   0.1877587735653,  -0.1813921034336,   0.0890587046742,  -0.2072070091963,  -0.2072239071131,   0.0246132761240,  -0.1981791257858,  -0.1769314259291,   0.2039283961058,   0.1524846255779,  -0.0384503379464,   0.2112963199615,   0.2395328134298,  -0.1533848047256,   0.0438604541123,   0.0513060763478,  -0.1413841396570,   0.2067327052355,   0.0580981858075,  -0.0007646085578,  -0.1799894124269,  -0.1106065437198,   0.1547604054213,   0.1184196993709,   0.1238067373633},
   {  -0.1368112117052,  -0.1273598521948,  -0.2510929703712,  -0.0977271869779,  -0.1146668568254,  -0.1467448174953,  -0.1825731247663,   0.0848169699311,   0.0624987669289,  -0.1958593577147,  -0.0426299907267,  -0.0517755262554,   0.0786508470774,   0.0950519815087,  -0.1998414546251,  -0.0064780064858,   0.1168077290058,  -0.1130960285664,   0.0840750038624,  -0.1095478013158,  -0.1138554811478,   0.0960319414735,  -0.0112152863294,   0.0062605473213,  -0.1839129030704,   0.1628165245056,  -0.1244142428041,  -0.0631362646818,   0.1551682800055,  -0.0599838048220,  -0.2225762307644,   0.0850693956017,  -0.1903528571129,  -0.1314946711063,  -0.1169757544994,  -0.0905039906502,  -0.0952463746071,   0.0903066918254,  -0.1324408054352,   0.0647546947002,  -0.0858521983027,   0.1922132074833,  -0.1164974868298,   0.0301418304443,   0.1103945598006,  -0.0719225406647,   0.2088416069746,   0.0241991505027,   0.1587253510952,  -0.0589064396918},
   {  -0.1190224364400,   0.0982668697834,   0.1341348290443,   0.1284296810627,   0.1580020636320,  -0.1269354969263,  -0.1852419227362,   0.0525407828391,  -0.0772294700146,   0.2183081358671,   0.0149555569515,  -0.1102134138346,  -0.2344355136156,   0.0895133614540,  -0.0114649413154,  -0.0761877223849,   0.1418611854315,  -0.1596464365721,   0.0218991115689,  -0.0449481531978,  -0.2619875967503,   0.2361221909523,   0.0651702880859,   0.1920167654753,   0.1012461632490,  -0.0849336311221,  -0.0778474062681,  -0.0939867198467,   0.1139283254743,   0.0812245085835,  -0.0036089362111,  -0.1457646340132,   0.2500125169754,   0.2018107324839,   0.0508972033858,   0.1241284459829,   0.0943080857396,  -0.1323862373829,  -0.1812168061733,  -0.1592645645142,  -0.1562758535147,   0.0423252731562,  -0.1356071978807,   0.1401259601116,   0.2382806390524,   0.0856924429536,  -0.1989369839430,   0.1879846602678,  -0.1697941273451,  -0.2221650332212},
   {   0.0024909377098,   0.0495422631502,  -0.0324684716761,  -0.1238066479564,   0.1003817170858,   0.1422166377306,   0.1187580376863,   0.1730116009712,  -0.1119907423854,   0.1448245495558,  -0.0421119928360,   0.1637010127306,  -0.0921177864075,  -0.0416695438325,   0.2008588910103,  -0.1154411286116,   0.1555476486683,  -0.0087613957003,  -0.2400585114956,  -0.0267360471189,   0.2041074186563,  -0.1207221895456,   0.1657312512398,   0.1277066618204,   0.2430827915668,  -0.0479070730507,  -0.1481154263020,   0.2116280496120,   0.1339235603809,  -0.1365741640329,   0.1377650946379,   0.1235188767314,  -0.1639745086432,  -0.2108002007008,   0.2013463973999,   0.1660332381725,   0.0656113550067,   0.2422210574150,  -0.0515393167734,  -0.0497066266835,   0.1416431814432,   0.2196693420410,  -0.0389195978642,  -0.0035725859925,  -0.0926116332412,   0.0066082938574,  -0.2012039273977,   0.1890953332186,   0.1244495362043,   0.0197222735733},
   {  -0.0854009091854,   0.0723987147212,   0.1218080520630,   0.2002738714218,   0.0004010655393,   0.0309229753911,  -0.1064981818199,   0.1550588011742,  -0.2032213807106,   0.1539757400751,   0.1874700784683,   0.0770376995206,   0.1985443532467,  -0.0398809202015,   0.0551173761487,  -0.0530327297747,   0.0122812120244,  -0.0251447781920,   0.1515610963106,  -0.1483836919069,  -0.1623795032501,   0.1823524236679,   0.0496997870505,   0.0929182246327,   0.0517988838255,   0.1955249458551,  -0.1278164386749,   0.1417762488127,   0.2019725441933,   0.1201570332050,  -0.1170087456703,  -0.1237051635981,  -0.1842500567436,   0.0602137185633,  -0.1834048330784,   0.1158861815929,   0.1478079259396,   0.1566616594791,   0.2076892256737,  -0.0228229220957,   0.2070494443178,  -0.1057205870748,   0.2159273475409,   0.0251544993371,   0.0751602128148,   0.0332621335983,   0.1189335361123,   0.0654235407710,  -0.0611821077764,   0.0810196921229},
   {   0.0800194889307,  -0.2440477907658,   0.0030939236749,   0.1634515225887,  -0.1772594153881,  -0.0172476507723,  -0.2162367552519,  -0.1234852075577,   0.2213744372129,  -0.0094820205122,   0.0475342236459,  -0.1918933987617,  -0.0274520665407,  -0.1411905884743,  -0.2050521075726,  -0.1750519275665,   0.1384200006723,  -0.1599309742451,   0.0935069173574,  -0.1156009584665,  -0.2577058970928,  -0.1728893071413,  -0.1834651380777,   0.0105784563348,   0.1965613216162,   0.0579507574439,  -0.0820190608501,  -0.0880583524704,  -0.2656212747097,  -0.1460714042187,   0.0712456107140,   0.1950869113207,   0.2581942081451,  -0.0955313965678,  -0.1860783398151,   0.0301970839500,  -0.2572270631790,   0.0816315338016,   0.1747220158577,   0.1174932196736,   0.2488820254803,  -0.1287946403027,  -0.0551273152232,   0.0538900271058,   0.1954138576984,  -0.0577574148774,  -0.1174349635839,   0.1456378400326,   0.0117063438520,   0.1096876561642},
   {   0.1724953353405,  -0.0141530977562,   0.1086636707187,   0.1587138772011,   0.0349232554436,  -0.1841056793928,   0.1396609991789,  -0.1646581590176,  -0.0133523531258,  -0.0735151693225,   0.1360427290201,  -0.1142210289836,  -0.0837671682239,  -0.2110786885023,   0.2089188396931,  -0.0327561497688,  -0.2246017307043,  -0.0305229965597,   0.0254898332059,  -0.1308361440897,   0.0809586048126,  -0.1988013684750,  -0.1975682377815,   0.0429636500776,  -0.0655988976359,  -0.2605440616608,   0.1174051463604,   0.0282167792320,  -0.0384090431035,  -0.1549308598042,   0.1367901414633,   0.1981763541698,   0.0401490740478,  -0.0766977593303,   0.1203911080956,  -0.0082784285769,  -0.0096899261698,   0.0861851200461,  -0.0245548747480,  -0.1285476386547,  -0.1185675859451,   0.1233636885881,  -0.0096129197627,  -0.1824851930141,   0.0960312783718,   0.0289241001010,  -0.1359182596207,  -0.2014766782522,   0.0551276244223,  -0.0825779736042},
   {   0.2061895281076,   0.0540088713169,  -0.0350181534886,  -0.1943555325270,   0.1572161167860,   0.0981598347425,  -0.0163471978158,  -0.0086336191744,  -0.2198622971773,   0.0014035210479,  -0.1900437176228,  -0.1412173658609,   0.0984657481313,  -0.0848006978631,   0.0584605820477,   0.1455637514591,   0.1734433919191,   0.0236787516624,  -0.2335190325975,  -0.2451396137476,  -0.2469567507505,   0.0010438276222,   0.1935349702835,   0.0765060856938,   0.0767591670156,  -0.2198158055544,  -0.0125361559913,  -0.0299683585763,  -0.1223786845803,   0.0133128380403,  -0.2492705434561,   0.0530414320529,  -0.0823768749833,   0.0192626789212,  -0.1302651464939,   0.1285459250212,   0.1417323648930,   0.1127840951085,  -0.1902222037315,  -0.1067719385028,   0.0969460606575,  -0.1490546762943,  -0.1044812947512,   0.1175879612565,  -0.0647652000189,  -0.0697695091367,  -0.1682109981775,  -0.1960145831108,  -0.1738606840372,  -0.1599345654249},
   {   0.0533195473254,  -0.1300315409899,   0.0946048274636,  -0.2403353899717,   0.2237112224102,  -0.1683926731348,   0.0093082617968,  -0.1857125014067,  -0.1258249878883,  -0.1215488240123,   0.1736432909966,  -0.0745256096125,  -0.0902902558446,  -0.0548959597945,  -0.0762387067080,  -0.0703946575522,   0.1944351643324,   0.0225527454168,  -0.0693501904607,   0.0807104483247,   0.2528766989708,   0.1153737008572,   0.1630491465330,   0.1784988343716,  -0.0551684722304,   0.1574454903603,   0.1161324605346,   0.2151204198599,   0.2561780512333,  -0.0903843939304,   0.1179164126515,   0.1776433438063,   0.1807503253222,   0.1159207373857,   0.0155293019488,  -0.2581997215748,  -0.0591380037367,   0.0982668101788,  -0.1804677098989,   0.2360163033009,  -0.1187203526497,  -0.1086489707232,   0.0406062342227,   0.1980846375227,  -0.0707390308380,  -0.1482139527798,  -0.2081043571234,  -0.1077246442437,   0.2223144173622,  -0.0882764458656},
   {   0.0706333518028,   0.0397290475667,   0.0993417501450,   0.0937550067902,  -0.0624996013939,  -0.0105708772317,  -0.1375006884336,  -0.0311557389796,  -0.2044035941362,  -0.0371366180480,   0.0709970071912,   0.0556100085378,  -0.2234169840813,  -0.1180447638035,   0.1591457724571,   0.0520448796451,   0.1936426311731,   0.1184329614043,   0.2150956094265,  -0.0259590577334,   0.0842894390225,  -0.2308726906776,  -0.0541099607944,   0.1725903302431,  -0.0712440460920,  -0.2115341871977,   0.1057948693633,   0.1404080837965,  -0.1227868571877,   0.0848200321198,   0.1041205525398,  -0.2178249359131,  -0.0650308132172,   0.2233456671238,   0.2549690604210,  -0.0396554395556,  -0.1839558333158,   0.0404834486544,   0.0143481614068,   0.1753744482994,   0.1197445839643,  -0.2142370343208,  -0.1945624947548,   0.1462300866842,   0.1513233184814,  -0.1757231205702,   0.1134042888880,  -0.0139311365783,   0.1672451794147,  -0.2026169896126},
   {   0.0457212328911,  -0.0208874847740,  -0.1670955419540,  -0.0801010057330,   0.0918094888330,   0.0563291199505,   0.1707608997822,   0.1027089506388,   0.0379951298237,  -0.1142293214798,  -0.0482934974134,  -0.0958299711347,  -0.0464144460857,   0.1462159901857,  -0.0545272678137,  -0.0133536942303,   0.0684705078602,  -0.0810307562351,  -0.1597141623497,   0.2481369376183,   0.0924890711904,   0.1844652742147,   0.0363850109279,  -0.0621562860906,  -0.2246256172657,   0.1392101943493,  -0.0534974373877,   0.1092191413045,   0.1621082872152,  -0.0919301211834,   0.0018561027246,  -0.1983824670315,  -0.0717737004161,  -0.1492729038000,   0.0422332920134,   0.0744451880455,   0.0710424482822,  -0.1289445608854,   0.0939873605967,   0.1772342920303,   0.1307224780321,  -0.2464496791363,   0.0243957638741,  -0.0781746730208,   0.0937572866678,  -0.1338553577662,   0.0759723633528,  -0.0157236326486,   0.1467434167862,   0.0634819790721},
   {   0.1262284368277,   0.0249075181782,  -0.1820674091578,  -0.1052417755127,   0.1472875326872,   0.1856404989958,   0.0746073424816,   0.2050380557775,  -0.0721395090222,   0.1124516427517,  -0.2496172636747,   0.1985978335142,   0.0960905328393,   0.1626480519772,   0.2318654358387,   0.2236101031303,   0.0562279075384,  -0.1151495799422,   0.1876502484083,   0.1433250308037,   0.0310279931873,  -0.0439242459834,   0.0607005283237,  -0.1088889539242,  -0.1168165132403,   0.1205490902066,  -0.0592279843986,   0.1288888603449,  -0.1165259554982,  -0.1672992855310,  -0.0514904707670,   0.0251095145941,  -0.0754945203662,  -0.1408872157335,  -0.1103392913938,  -0.1959844231606,   0.1357258409262,  -0.1153056100011,   0.1041456535459,  -0.2247529476881,   0.1637526154518,  -0.2617413103580,   0.2223429977894,   0.0803935080767,  -0.1078144684434,  -0.0403492599726,  -0.1625132560730,   0.0424588993192,   0.1170014962554,   0.0846298933029},
   {  -0.2050006389618,   0.0388652160764,   0.1593027114868,   0.1936718374491,   0.0358392931521,   0.0234582629055,   0.1093830764294,  -0.0112053155899,  -0.0257433205843,   0.1900416910648,  -0.2308921664953,   0.0986290872097,  -0.1944446712732,  -0.1540047377348,  -0.0877821668983,  -0.0973261669278,   0.1433784514666,  -0.1534767299891,   0.1941232085228,  -0.0920622423291,  -0.0572584532201,  -0.1718752384186,  -0.0671207457781,  -0.1345197409391,  -0.1544095128775,  -0.0589204244316,   0.1518082767725,  -0.0710815936327,   0.0631409883499,  -0.2037280946970,   0.0830730050802,   0.2242745012045,   0.0924210622907,  -0.1181943491101,  -0.0445424057543,  -0.1824485063553,   0.1509087979794,   0.1432245373726,   0.0368934795260,   0.1957911550999,   0.1307913810015,  -0.2278032004833,   0.1114658117294,  -0.0011188613717,  -0.1933570802212,  -0.1394734084606,  -0.1330606341362,  -0.1820813417435,  -0.2092068940401,  -0.0299268309027},
   {  -0.0082928743213,  -0.0252638328820,  -0.0155792748556,  -0.1262943297625,  -0.0498853661120,  -0.2117761671543,  -0.0934158265591,   0.0667832940817,   0.1364430636168,  -0.1586052328348,   0.1955945044756,  -0.0704432055354,  -0.1463145464659,   0.1515080779791,   0.2059428095818,   0.0121212517843,   0.2012289762497,  -0.0609969459474,   0.1209250465035,  -0.0485962890089,  -0.1132407933474,  -0.0226117428392,   0.0321256704628,  -0.1233575269580,  -0.2201673388481,   0.0249222554266,  -0.0546747408807,  -0.1529176682234,  -0.1126636117697,  -0.1862678229809,   0.1529585868120,   0.1011790856719,   0.1336599141359,  -0.2028812021017,   0.0083482945338,  -0.1601923853159,  -0.2082254141569,  -0.0809513777494,   0.1829843223095,   0.1007373258471,  -0.1869375854731,   0.1707752346992,  -0.0765802413225,   0.1050371676683,  -0.1629079878330,  -0.0836741849780,   0.1368576735258,  -0.0854373797774,  -0.1169107109308,   0.1721230745316},
   {   0.1365986913443,   0.0410506688058,   0.0879494026303,   0.1021038964391,  -0.1350815743208,   0.1306463778019,   0.2375679314137,  -0.1684621423483,  -0.2533033192158,  -0.2094791829586,   0.1939668804407,  -0.0788398757577,  -0.1927271336317,  -0.1166694760323,   0.1012389436364,   0.1157594174147,  -0.0539808459580,   0.1665597409010,   0.0329615697265,   0.0378724820912,  -0.1334196776152,   0.0299154818058,  -0.1052506640553,   0.2318916171789,   0.1811968386173,  -0.0852154493332,  -0.0094781629741,   0.1507583707571,   0.1469741761684,  -0.2456638813019,  -0.2377595454454,  -0.2024058103561,   0.1777837276459,  -0.0387611314654,   0.0313263833523,   0.2307377010584,   0.0170811768621,  -0.0481989458203,  -0.2452211678028,   0.0161316674203,   0.2055776566267,  -0.1102085337043,  -0.1618076413870,   0.0226141102612,   0.0892976820469,   0.1421694755554,  -0.1043814346194,  -0.0819508060813,  -0.0356994271278,   0.1308388262987},
   {  -0.0573745407164,   0.2111507505178,  -0.0273040048778,  -0.0745048522949,  -0.0775019302964,  -0.1010776162148,  -0.0013198162196,   0.1954495459795,   0.0574294105172,  -0.1210148707032,  -0.0717692375183,  -0.1232812255621,   0.1071580052376,  -0.1612116396427,   0.2138193994761,  -0.0857080444694,   0.0363901481032,  -0.1731924563646,  -0.1239154115319,  -0.1072309017181,   0.0568979457021,   0.0697674527764,   0.0485623441637,   0.0970778316259,  -0.0329560972750,  -0.0727238133550,  -0.0499459132552,   0.0351987518370,   0.1015784963965,  -0.1388897150755,  -0.2277679592371,   0.0771668255329,  -0.0949569642544,  -0.1454392373562,   0.0451747700572,   0.2021603286266,   0.0965653434396,  -0.1195478141308,  -0.1672891527414,   0.1335135698318,  -0.0458840429783,  -0.0370308384299,   0.1828395277262,   0.0148889115080,   0.2062963247299,  -0.1721359938383,  -0.2114823460579,  -0.1656025499105,   0.0475843176246,  -0.1096129864454},
   {  -0.0000154953123,   0.0926999375224,   0.0737806633115,  -0.0834250748158,   0.1564243435860,   0.0274875033647,  -0.0097742844373,  -0.1867902874947,   0.0850461646914,   0.1465524137020,  -0.2134149968624,   0.0135383252054,   0.0432470962405,   0.0946653857827,   0.0160720255226,  -0.2007564753294,  -0.1983882337809,   0.0112927639857,   0.0580050237477,   0.0807270929217,  -0.1929150670767,  -0.1231097728014,  -0.0084975920618,   0.1222662851214,   0.0297192651778,  -0.0163048058748,   0.1680978238583,   0.1280404627323,  -0.1470655351877,  -0.1154406219721,  -0.0572316609323,  -0.0612329617143,   0.0066440440714,   0.0770136043429,   0.0066403746605,  -0.0833488479257,  -0.1218083053827,   0.1130802854896,  -0.0738159120083,   0.1546184569597,   0.1474533826113,  -0.1912772506475,  -0.1425678431988,   0.2207719534636,  -0.0913937389851,   0.1359141469002,   0.2860625088215,   0.2113126814365,  -0.1174181848764,   0.0981336161494},
   {  -0.0684916079044,   0.2378076463938,   0.1203292161226,  -0.0747059509158,   0.0915831252933,  -0.2163337320089,   0.0524863116443,   0.0663979947567,   0.0939769074321,   0.1102956682444,   0.0308047495782,   0.0617793463171,  -0.1036549508572,   0.1485072374344,  -0.0755053833127,   0.1580778062344,   0.1402195543051,   0.1797354668379,   0.0517882704735,   0.1744785606861,   0.0465011186898,  -0.1534977257252,  -0.1737207025290,   0.1234628856182,  -0.0079652676359,   0.0407036729157,  -0.0415247529745,   0.0310803912580,  -0.1166760921478,   0.1797088384628,   0.1293521225452,  -0.1559653729200,  -0.1305868476629,   0.2475321590900,  -0.0318965502083,  -0.2056849598885,  -0.1517129838467,   0.1644096672535,  -0.1464007347822,   0.0428358912468,  -0.0896767899394,  -0.2165147215128,   0.1247889921069,   0.1873808503151,   0.1572932004929,  -0.2042082548141,  -0.0094269365072,   0.0972493439913,   0.0623607076705,   0.0585784129798},
   {  -0.1087359040976,  -0.1621412187815,  -0.1369196325541,   0.1939547210932,   0.1969863623381,  -0.0847235843539,  -0.0292359869927,  -0.1406962275505,   0.1959355175495,   0.1092009022832,   0.1912905722857,   0.0632469803095,   0.0870591029525,   0.0183176118881,   0.0018683598610,   0.2285303473473,   0.0069374535233,  -0.2418395131826,   0.0979981422424,  -0.1023337319493,   0.2076406925917,  -0.2482015490532,  -0.1668512374163,   0.2416070699692,  -0.1386054456234,  -0.0255459807813,  -0.0665769577026,   0.0198258906603,  -0.0456060543656,   0.0367112383246,   0.0001635741064,   0.2049631923437,   0.1420659124851,  -0.1370999068022,   0.2092885971069,   0.1928050518036,  -0.1403095871210,   0.0310226995498,  -0.2730192542076,  -0.1499101668596,   0.1921598464251,  -0.2501054406166,  -0.1184560731053,   0.0178820826113,   0.1219365373254,   0.0797894224524,   0.0781241729856,  -0.1214233934879,  -0.1110441759229,  -0.0093713384122},
   {  -0.1949965506792,  -0.1009881272912,   0.0523639172316,  -0.1821933239698,   0.1272525638342,   0.1739072352648,  -0.0440128780901,   0.0885757282376,  -0.1998281627893,  -0.2054504752159,  -0.0654060244560,  -0.1885209381580,   0.1008653417230,   0.1334849894047,   0.2005839049816,  -0.0304890070111,   0.0899534896016,   0.0142176896334,   0.0037007338833,  -0.1427527964115,   0.0821267813444,   0.0992218330503,   0.1424701809883,  -0.1831706911325,  -0.0652017891407,  -0.0556732416153,   0.1874129623175,  -0.1696641594172,  -0.0583961084485,  -0.1509439498186,   0.0562706328928,  -0.0875375643373,   0.0111333196983,   0.1126571074128,  -0.2142878323793,   0.0171781610698,   0.1717043071985,   0.0996660590172,   0.0321549735963,   0.0290155857801,   0.0108895581216,  -0.1984957903624,   0.1017950773239,  -0.0314839631319,   0.0526842661202,  -0.1022496297956,  -0.0488115102053,   0.1543122231960,   0.0037215752527,  -0.1388495564461},
   {   0.1444606930017,  -0.0197382383049,   0.1086738407612,   0.2547977566719,  -0.0369573011994,  -0.0478249192238,  -0.1768576800823,  -0.0051808319986,  -0.1826415807009,  -0.0558864213526,   0.1738860309124,   0.0008834694745,   0.1213945448399,   0.0551498383284,  -0.1005406901240,   0.0625321194530,   0.1731895506382,   0.0731625407934,   0.2284127473831,   0.1015063226223,   0.1569468528032,   0.1150273233652,   0.1715297251940,  -0.1640005111694,  -0.1599482148886,  -0.0683363005519,   0.1399250477552,  -0.0114583112299,  -0.2002704888582,  -0.1644200235605,  -0.1452264785767,   0.0051932586357,   0.1217109411955,   0.1046115979552,  -0.1795318871737,   0.1105800047517,   0.0859811678529,   0.0843050256371,  -0.0598950944841,   0.1553316116333,  -0.1412672698498,  -0.0923558026552,  -0.0513851158321,  -0.0210352931172,   0.0345659740269,  -0.1096852347255,   0.0436688736081,   0.0907547995448,   0.1916256844997,   0.1402641087770},
   {  -0.0905777290463,   0.1535941064358,   0.1289785802364,  -0.0974712148309,  -0.0472128912807,  -0.1862875223160,  -0.0997315719724,  -0.0299978889525,  -0.1589986234903,   0.1138205230236,   0.0768416225910,   0.2199296653271,  -0.1192588061094,  -0.0658145323396,   0.1546118408442,   0.0602097138762,   0.1237741783261,   0.0860649123788,  -0.1768856197596,   0.0321320071816,  -0.2356341630220,  -0.1262086778879,  -0.0113910371438,   0.1863834708929,  -0.1475352197886,  -0.1242026463151,  -0.0220586303622,  -0.1758769303560,  -0.1044049561024,   0.2513149380684,   0.0536191985011,  -0.0915620177984,   0.0181717015803,   0.1148530542850,   0.2227659523487,   0.1324817389250,   0.0109246736392,  -0.1267092674971,   0.0946508720517,   0.0469583868980,   0.1515370011330,   0.0888153091073,  -0.2206149995327,  -0.0355182662606,   0.0586422905326,  -0.1671161949635,  -0.2008009999990,  -0.2086272388697,  -0.1139154657722,  -0.1850767731667},
   {   0.1926513761282,  -0.1053069606423,  -0.0264887176454,  -0.0157726947218,  -0.0247217193246,  -0.0328317172825,   0.1193927302957,  -0.0837608575821,   0.1427974551916,   0.1884707659483,  -0.0747063010931,   0.1578527688980,   0.0853650644422,   0.0263419281691,  -0.0074679758400,  -0.1609827131033,  -0.0287821814418,   0.0322611778975,   0.1334279328585,  -0.1682685613632,   0.2205345481634,  -0.0053724930622,  -0.2131294161081,  -0.1306176632643,  -0.1920013874769,  -0.2120796889067,   0.1936723440886,  -0.0957872048020,  -0.0542929768562,  -0.2613163888454,   0.1591280400753,   0.2093590945005,   0.0362486429513,   0.0846624150872,   0.0439488701522,  -0.2133280336857,   0.1428720355034,  -0.2124826908112,   0.0767592340708,  -0.2353450655937,  -0.0605310425162,   0.0946791917086,   0.1868471950293,   0.1551790237427,   0.0448223948479,  -0.0076078372076,   0.0760792642832,   0.1920491456985,  -0.1759019345045,  -0.0581573434174},
   {  -0.1636441946030,  -0.0801021605730,   0.0464826636016,  -0.0673156306148,  -0.1447024643421,  -0.1431321948767,  -0.0957551524043,  -0.0716868340969,  -0.1839880645275,  -0.0778013765812,  -0.0776161700487,  -0.1328721791506,  -0.1230381056666,  -0.1345753520727,  -0.0443162135780,   0.1997872442007,  -0.0721239522099,  -0.1650391966105,  -0.1319812983274,   0.2195372879505,  -0.1246225535870,  -0.2124920189381,  -0.1397600173950,   0.0571894161403,  -0.1216944232583,  -0.1138291805983,   0.1430695056915,   0.1154566183686,  -0.2074280679226,   0.1680018305779,  -0.1490213721991,  -0.0471075996757,  -0.0030132988468,   0.1489102244377,  -0.0046521653421,   0.0597854778171,   0.2685769200325,  -0.0508215576410,   0.2136563956738,   0.1974860429764,  -0.0933599323034,  -0.1106138229370,  -0.1280674338341,   0.1475735008717,  -0.2512660026550,  -0.1185098439455,  -0.2086990326643,   0.1378294676542,  -0.0872105956078,  -0.2176784127951},
   {  -0.2235132604837,   0.0538432858884,   0.0157572776079,   0.2197621613741,   0.0740911439061,  -0.0109997661784,   0.1706712841988,  -0.1431038230658,   0.1465155631304,   0.0869475901127,   0.1528219133615,   0.2319457381964,   0.0034374461975,  -0.1581207066774,  -0.0888749435544,  -0.1636754274368,   0.1610934883356,   0.1176691353321,  -0.1570140123367,   0.1544659435749,   0.0533254146576,  -0.0174952764064,  -0.1455161124468,   0.2458786368370,  -0.1590275466442,   0.0931285768747,   0.1131339818239,  -0.1339738816023,  -0.1693761497736,   0.0508398376405,   0.0914806276560,   0.0014575634850,   0.1915339678526,  -0.2185263484716,   0.2012314349413,  -0.0608442164958,  -0.2519540488720,  -0.1197168529034,  -0.1829797774553,   0.0574011355639,  -0.1406121551991,   0.0268921088427,  -0.0931463837624,   0.1491383612156,  -0.0803260356188,   0.0567157343030,  -0.1588947921991,  -0.0112370718271,   0.0765444934368,   0.2315933257341},
   {   0.0405825525522,  -0.1324245184660,  -0.1486181020737,  -0.2445810139179,  -0.0462145395577,  -0.2383733689785,   0.0318104289472,  -0.0333724655211,  -0.0935556218028,  -0.0689799636602,  -0.0879528596997,  -0.1959828436375,   0.0664549991488,   0.1127671450377,  -0.0576667524874,   0.1741399616003,  -0.1766418069601,   0.1445605456829,   0.0232152584940,   0.1886761337519,  -0.0445313490927,   0.0937165766954,   0.0847135484219,   0.1585406810045,   0.0217830836773,  -0.0596265494823,   0.0727608203888,   0.2002186030149,  -0.0792591050267,   0.1463969647884,   0.0951000526547,   0.0544599182904,   0.1443904042244,  -0.1524815410376,  -0.1939939707518,  -0.0356284193695,  -0.0466804616153,   0.0743798688054,   0.1088415309787,   0.0491960160434,   0.0216625872999,  -0.1673236191273,  -0.1919332891703,  -0.2065161913633,   0.2547603845596,   0.1539036929607,   0.1047411262989,  -0.1819796562195,   0.1023217737675,  -0.0363335013390},
   {  -0.0735103264451,  -0.0947273448110,   0.1497257947922,   0.2537862062454,   0.1553502976894,  -0.0402939133346,  -0.2096729576588,   0.1150441095233,   0.2236906886101,   0.2427059412003,   0.0921732559800,  -0.1899170279503,  -0.0679229944944,  -0.1325549036264,  -0.2254892140627,   0.1638291776180,  -0.2184782475233,  -0.1036512404680,   0.1052545532584,   0.1186503320932,   0.0737355947495,   0.0931322053075,  -0.0922313332558,  -0.1106600165367,   0.0826636999846,   0.0063622244634,   0.1028532907367,  -0.1049152985215,   0.1450686454773,   0.1625915169716,  -0.2343363612890,   0.0870570316911,   0.2856859564781,   0.0905227065086,  -0.1920616924763,  -0.1145367994905,   0.0959072932601,   0.0216254722327,  -0.0313182733953,   0.1161778047681,  -0.1516961306334,   0.0041675553657,  -0.1101074144244,   0.1514473110437,  -0.2212637811899,   0.1448279917240,  -0.0599391646683,  -0.1316840499640,   0.1429797858000,   0.0891826450825},
   {   0.0851779654622,   0.0019221119583,   0.2648201584816,   0.1671941727400,   0.2117625027895,  -0.0172182694077,  -0.1939660161734,   0.0803024843335,   0.0314022377133,  -0.0708475634456,  -0.0983086377382,  -0.0098558086902,   0.0828530117869,  -0.1971708089113,   0.2004600167274,   0.1605043113232,   0.0322023853660,  -0.1383792608976,   0.0512059628963,  -0.2413649260998,  -0.0386278852820,  -0.2899421453476,   0.2414475679398,  -0.0699837282300,   0.1715735346079,  -0.0460884980857,   0.0371522642672,  -0.0243342258036,  -0.0677808299661,  -0.0036524564493,   0.0675704404712,   0.1711686849594,  -0.1505212932825,   0.0223946925253,   0.0370312146842,  -0.0311805382371,   0.0513974688947,   0.1169780418277,  -0.2602952718735,   0.0091643007472,   0.0347742177546,  -0.0434986837208,   0.0225456580520,  -0.2021839767694,   0.1334340423346,   0.0957953184843,  -0.0050972606987,  -0.2135970294476,   0.1204717978835,   0.1947938948870},
   {  -0.1379245519638,   0.1790209859610,  -0.2343624979258,   0.1256608963013,   0.1637594848871,  -0.1359338462353,   0.0711212232709,   0.0381680652499,  -0.1006052419543,  -0.0666036978364,   0.0705879777670,   0.1001979485154,   0.0785081684589,  -0.1722879111767,   0.2111614793539,  -0.1466052532196,   0.0952241867781,   0.0350167304277,  -0.1460559219122,   0.1522718518972,   0.1891570538282,   0.2396091967821,  -0.0252660941333,  -0.1889775693417,  -0.2091692239046,   0.1592798978090,   0.0575959905982,  -0.0240155179054,   0.0283923204988,  -0.0926239416003,   0.1852244436741,   0.0612896606326,  -0.0711786597967,   0.0576213002205,  -0.1486423313618,   0.1798026412725,   0.1641720980406,   0.0942233800888,   0.0263083260506,   0.2349003851414,  -0.0044524478726,   0.0142974723130,   0.0873090401292,  -0.0810884162784,  -0.0802771300077,  -0.1855665147305,   0.0673490017653,  -0.1821838766336,  -0.0527750439942,   0.0241750571877},
   {  -0.1769926548004,   0.2056026607752,  -0.0213413555175,   0.0863839909434,  -0.1891304850578,  -0.2448936700821,  -0.2124672681093,  -0.2302673906088,  -0.2082816064358,   0.1149528548121,  -0.2074663043022,  -0.1546436101198,   0.0602770484984,   0.2243055105209,  -0.1508169174194,   0.2003012001514,  -0.0739037543535,  -0.2441966980696,  -0.1057449132204,  -0.1357186287642,  -0.2228371053934,   0.0561260133982,   0.2168277055025,   0.0931906029582,   0.1916544139385,  -0.0705024823546,   0.1936938017607,  -0.0754600986838,   0.0545766279101,   0.0416663102806,  -0.2308296412230,   0.1322184652090,  -0.1540681272745,   0.1850811839104,  -0.0409247912467,  -0.1429986357689,   0.1439422667027,  -0.1093058139086,   0.1167541518807,   0.2093084156513,  -0.0203374773264,  -0.2106854915619,  -0.1415286213160,  -0.0670924335718,   0.1393407136202,   0.1892740130424,   0.1687457263470,   0.2536233663559,   0.1626997292042,  -0.1387976557016},
   {  -0.1332815438509,   0.0203973334283,  -0.2341861873865,   0.0934303849936,  -0.1385732740164,  -0.1464741826057,   0.1490761935711,  -0.2610668838024,  -0.0888729095459,  -0.0647371932864,   0.1252034455538,   0.1131132915616,   0.2189476191998,  -0.1711285114288,  -0.1686267554760,   0.1669015884399,   0.1717106699944,   0.0243230946362,  -0.0406006239355,   0.1792818158865,   0.0538203902543,  -0.2216670960188,  -0.0028739501722,   0.0891933664680,  -0.1278865486383,   0.1010662317276,  -0.2072889953852,  -0.1341813355684,  -0.1287744194269,   0.0699584111571,  -0.2052087634802,   0.1779293417931,  -0.1400288343430,   0.0305585619062,   0.1157859861851,  -0.2432936131954,  -0.2336636334658,  -0.0114475144073,   0.0832577869296,   0.2104238122702,   0.1258975714445,   0.2411231398582,   0.0824285745621,  -0.1166440173984,  -0.0068102832884,  -0.1561509817839,  -0.2303971648216,  -0.1324500143528,  -0.0046189934947,   0.1558582633734},
   {   0.0888359174132,   0.1635050624609,   0.1545270532370,  -0.1595143675804,   0.1884821504354,  -0.0433264337480,   0.0662628635764,   0.0133779980242,   0.1435417830944,  -0.0473260879517,  -0.2019849866629,   0.0656363070011,   0.0127584142610,  -0.1848924905062,   0.0748427435756,   0.2218810319901,   0.0979090407491,  -0.2135104984045,  -0.1540790051222,  -0.1448093503714,   0.2423231154680,  -0.1210575699806,   0.1466544419527,   0.2032810896635,   0.1526002436876,   0.1661110520363,  -0.0255602616817,   0.0402660854161,  -0.0780035257339,   0.0556643195450,  -0.1539587974548,  -0.0568471848965,   0.1813471317291,  -0.0312321484089,  -0.2249145656824,  -0.2357228845358,   0.1376069933176,  -0.0000976808878,   0.0507703088224,  -0.2147360146046,   0.1360455453396,   0.1222650110722,  -0.0412741787732,   0.0967543348670,  -0.1349503695965,  -0.0180759094656,   0.1010448187590,   0.0034271373879,   0.1239520236850,  -0.2353384643793},
   {   0.0215705875307,   0.1426505446434,   0.0858872756362,   0.1696425974369,   0.2171434164047,   0.1011013761163,  -0.1309022307396,   0.0653816312551,   0.0125207277015,   0.1949937343597,  -0.1348157972097,   0.2090557068586,   0.0616711750627,   0.1274518668652,  -0.2369958460331,  -0.2114646583796,  -0.1951691359282,   0.2273241877556,  -0.2526961863041,   0.1869422644377,  -0.0548557452857,   0.0932719856501,   0.1543653011322,  -0.1591839790344,  -0.2378101050854,   0.1364418715239,   0.0978106781840,   0.0186876673251,   0.0778346061707,   0.1479480415583,   0.1984841227531,   0.1890181303024,   0.0516413748264,   0.0957124307752,   0.1692062914371,   0.1749430149794,   0.1280542612076,   0.1562840789557,   0.1081695109606,   0.2405018061399,   0.0868038982153,   0.0552047081292,  -0.0022794485558,  -0.2174786329269,  -0.2139312773943,   0.0624944753945,  -0.0650159344077,  -0.1514561325312,  -0.0217051394284,  -0.1936852633953},
   {  -0.0194970015436,  -0.0971963703632,  -0.0573760047555,  -0.2505453228951,  -0.1605506092310,   0.0342761427164,  -0.0642535164952,  -0.2411608546972,  -0.2006593048573,  -0.1201031655073,  -0.1297596842051,  -0.1067374572158,   0.2149052917957,  -0.1388934850693,  -0.2378280609846,  -0.0813821554184,  -0.1908336132765,   0.1646908968687,  -0.1073259711266,  -0.1763286441565,  -0.1334788054228,   0.0852818042040,   0.0816248208284,  -0.1230702176690,  -0.0324683412910,   0.0842391923070,   0.2140724062920,   0.0838594287634,   0.2116477489471,   0.1175172105432,   0.0539527125657,   0.1856888979673,   0.0285040028393,   0.2009956985712,   0.0580875054002,  -0.2237978279591,   0.1724756509066,   0.1786473989487,   0.0253214072436,  -0.1546944081783,   0.0546659566462,  -0.1234179288149,   0.2430766820908,  -0.0370486639440,  -0.0615110956132,  -0.0540879108012,   0.0455247014761,   0.0118880709633,   0.1069983169436,   0.1859998255968},
   {   0.1317660361528,   0.2423962056637,  -0.0526360608637,  -0.2536380290985,   0.0501627251506,  -0.2439435422421,  -0.0178736504167,   0.1121227890253,  -0.2210538983345,  -0.2053495198488,  -0.1317202150822,  -0.2255460619926,   0.1670869737864,   0.2187292426825,   0.1285745203495,  -0.0956009253860,  -0.0822973549366,  -0.1661337912083,   0.1788279712200,   0.1067742630839,  -0.0337013453245,   0.0042426977307,  -0.0334094464779,   0.1900571435690,  -0.1902153939009,  -0.0985269546509,  -0.1079642772675,   0.0870890021324,   0.1190258786082,   0.0293550509959,  -0.1762974262238,   0.0818515121937,  -0.2056065797806,   0.2137512713671,   0.1639967560768,  -0.0727071613073,   0.1268602311611,   0.1798843443394,   0.0396840795875,   0.0335298776627,  -0.2178457230330,  -0.1104220002890,   0.1691779494286,  -0.0290688667446,   0.1401499360800,   0.0753890946507,   0.0418060682714,  -0.0617522411048,  -0.0941869542003,  -0.0864566117525},
   {  -0.1625048369169,   0.1907459348440,  -0.0029312765691,  -0.0903800651431,  -0.1878600716591,   0.1361141800880,   0.1632315963507,  -0.2100098878145,   0.0374938063323,  -0.1423919051886,  -0.0806961655617,   0.0551116019487,   0.0058257426135,   0.2185251265764,  -0.1799419224262,  -0.1672193408012,   0.2372665256262,   0.1296104788780,  -0.0055090975948,  -0.1224244162440,  -0.0360057614744,   0.2174708247185,   0.1960719525814,  -0.2432723492384,   0.1644804924726,  -0.0640295818448,  -0.0868624374270,  -0.0217487458140,   0.2027775645256,   0.0329978726804,  -0.2371479570866,   0.1750081330538,  -0.1623381078243,  -0.1161226555705,  -0.2392984181643,  -0.1236976459622,  -0.1733155995607,   0.1567261368036,  -0.1117488294840,   0.1893727779388,  -0.1007382273674,   0.0690774470568,   0.1593529880047,  -0.2297057658434,   0.1765742748976,   0.1762777268887,  -0.0631285980344,   0.2383715361357,  -0.1547239124775,  -0.0609342418611},
   {  -0.0905267223716,   0.2363520115614,   0.0931705757976,   0.1295176446438,   0.1930864453316,  -0.2082335054874,   0.0667462274432,  -0.2129781693220,   0.2348789870739,   0.2366795837879,   0.1714878231287,  -0.1177725344896,  -0.1493511945009,  -0.2398557513952,   0.0194166470319,   0.0796445757151,   0.0475633479655,  -0.1055789887905,  -0.0667863935232,   0.0597025454044,  -0.0969611182809,  -0.0714484304190,   0.1261361688375,   0.2257935702801,   0.2214792817831,   0.1923443675041,   0.0783292576671,   0.2144374996424,   0.2403910160065,  -0.0428146198392,  -0.0796078592539,   0.2054573893547,  -0.2691211104393,  -0.0317022688687,   0.1777894347906,   0.1337340027094,   0.2130338251591,   0.0364353135228,   0.0553584061563,  -0.2311723232269,   0.1284070014954,   0.1153761073947,  -0.1939598768950,  -0.0995487198234,  -0.1280007213354,   0.0588935241103,   0.0682144090533,  -0.2017212510109,  -0.1262514889240,  -0.1720630377531},
   {  -0.1157728508115,   0.2343280911446,  -0.2627647221088,   0.1386535167694,   0.0130856502801,  -0.2160548567772,  -0.0548392906785,  -0.0871517881751,  -0.2687004804611,   0.1288423240185,   0.1358394026756,   0.0061695021577,   0.0129789877683,  -0.1226940527558,  -0.1556308865547,  -0.2054619491100,   0.0666642412543,  -0.2036473155022,   0.1007168516517,  -0.1940693259239,   0.1487092226744,  -0.0061893789098,   0.0626369640231,   0.0054587661289,   0.0273027457297,   0.1546770185232,  -0.1819355934858,   0.0849673077464,   0.1871597468853,   0.0786347612739,   0.0891394391656,   0.0375489331782,  -0.1685409247875,   0.0233454555273,  -0.2400242239237,   0.0165158826858,  -0.0889654532075,   0.1313679665327,   0.1225670427084,   0.1041752770543,  -0.1814179569483,  -0.0768983587623,   0.1085393428802,  -0.1452125161886,   0.1837725490332,   0.1183268725872,   0.2347782850266,   0.0466624200344,  -0.1852902770042,  -0.1475173681974},
   {  -0.1241027861834,   0.1904207319021,   0.1255834400654,   0.1116194054484,   0.0847205147147,  -0.2601804435253,   0.1802649945021,  -0.1927072703838,  -0.1223236843944,  -0.0720441862941,   0.2756862640381,   0.0920849815011,   0.1554442942142,   0.1814596951008,  -0.0740577653050,   0.0732387974858,  -0.0920615717769,  -0.1500990688801,  -0.1134757027030,   0.0613786242902,   0.1513567566872,  -0.1718882024288,  -0.0456302575767,   0.0271697472781,   0.0566042475402,  -0.1549963355064,   0.1027889698744,   0.0449243336916,   0.0428847037256,   0.0619204975665,  -0.0074414797127,   0.1262329220772,  -0.0426359176636,   0.0292045883834,  -0.0748271197081,   0.1159085556865,  -0.0524664521217,   0.0997998639941,   0.1260715126991,  -0.1727103292942,   0.2169578224421,   0.0767224058509,   0.2436291575432,   0.0084892641753,  -0.0813709348440,   0.2289961874485,   0.2212726622820,  -0.0203334037215,   0.1343605816364,   0.1273717433214},
   {   0.1564506292343,  -0.0435856170952,  -0.2164961397648,  -0.2493690699339,   0.1520653069019,  -0.0474835187197,  -0.0474005639553,  -0.1738877743483,   0.0364781804383,  -0.1395302265882,   0.0263449493796,  -0.1170811131597,  -0.0874482169747,  -0.1452480703592,   0.0810995325446,   0.2491471171379,   0.1489302217960,   0.2413731664419,  -0.1862378269434,  -0.2320376336575,   0.0742524117231,   0.1517617404461,   0.0938627794385,  -0.1283422112465,  -0.2051021903753,   0.0002561701695,   0.1151047572494,  -0.0754904150963,  -0.0143954567611,  -0.1500309854746,  -0.2022414356470,  -0.1172179058194,   0.1639602631330,   0.2040939331055,  -0.0507362447679,   0.1687796264887,   0.1181856617332,  -0.0242530703545,  -0.2626987397671,   0.1535563170910,   0.1214497089386,   0.2459600269794,   0.2094936519861,   0.0600316226482,  -0.1112871542573,   0.2184565067291,  -0.1580157876015,  -0.1675182878971,  -0.0172241684049,   0.1202508956194},
   {  -0.0406451970339,   0.2007682770491,  -0.1421412378550,   0.1713388562202,  -0.0750529542565,   0.1708212643862,   0.0159863159060,  -0.1615684330463,   0.1129831969738,  -0.0409454740584,   0.1790486127138,   0.0007110503502,  -0.0035553222988,   0.1584573388100,   0.2200735211372,   0.0244035553187,   0.1231997385621,  -0.1645697057247,  -0.1915494948626,   0.0596698150039,  -0.0587940551341,   0.1276938021183,  -0.1634625196457,   0.2145759016275,  -0.1772245764732,  -0.0533912442625,  -0.1521742641926,   0.0553984381258,  -0.1989833563566,  -0.1012905612588,   0.0972295850515,  -0.1936851441860,   0.0650343820453,  -0.0035118027590,   0.1733773201704,  -0.0664350688457,   0.1861512213945,  -0.1211142763495,   0.0274223368615,   0.1488107442856,   0.0186677761376,   0.0313309282064,  -0.0151504362002,   0.0353433229029,  -0.0432316176593,   0.0930192694068,  -0.1624735593796,  -0.1322991102934,  -0.0599418319762,   0.1613834500313},
   {  -0.1882979124784,   0.0303854271770,   0.0460620597005,  -0.0989405065775,   0.1387984901667,  -0.0606686808169,  -0.1016164869070,  -0.0220136772841,   0.0393668934703,   0.1786515712738,   0.0261361151934,  -0.0340301096439,  -0.1305928826332,   0.1900947540998,   0.0173044912517,   0.0894980952144,   0.0869342014194,  -0.1989389359951,   0.0058432770893,   0.0465360917151,   0.0701598376036,   0.0575999654830,  -0.0130287827924,  -0.1414534449577,   0.0669071897864,  -0.1666884124279,   0.1173214614391,  -0.1772849559784,  -0.1877532750368,  -0.0749426856637,   0.1524377167225,  -0.0259804427624,  -0.0000213691528,  -0.0429757684469,  -0.2050330191851,   0.1537831574678,   0.1159945428371,  -0.1706771850586,  -0.1420768052340,   0.0012594419532,   0.2393769323826,   0.0619281046093,   0.0050922580995,  -0.0367154702544,  -0.1922404170036,  -0.2051793187857,  -0.0918177291751,  -0.0478569455445,   0.1172676309943,  -0.0189129970968},
   {   0.0339099839330,   0.1560024619102,   0.1178613379598,  -0.0383564047515,  -0.1125181168318,  -0.1507066488266,   0.0323113165796,   0.1056032553315,  -0.0693304017186,   0.2194851636887,   0.1981952339411,   0.0089548686519,   0.1049782037735,   0.1761758774519,  -0.1865398734808,  -0.1195228695869,  -0.1623800843954,  -0.1015113443136,   0.1213815808296,  -0.1691304147243,  -0.0015883382875,   0.2254461497068,   0.1703454554081,   0.0927747935057,  -0.2233553230762,   0.1968549787998,  -0.2419391274452,  -0.0187754090875,   0.1256399750710,   0.1094647571445,   0.2057868540287,   0.1454146355391,  -0.0246837250888,   0.0931799560785,   0.0587354302406,  -0.1439701765776,   0.1027140840888,  -0.0013461192138,  -0.1580480486155,  -0.2404925078154,   0.1978707164526,  -0.2295737862587,  -0.0786328390241,   0.2387968599796,   0.0334433987737,  -0.2134821861982,  -0.0549902319908,   0.2399520725012,  -0.1516669243574,  -0.0577325187624},
   {  -0.0631678700447,  -0.0395643040538,  -0.1408557146788,  -0.0496166981757,   0.1342972368002,   0.1235643625259,   0.1874220818281,  -0.0886624976993,   0.1592873632908,   0.1266530603170,   0.0699366107583,   0.0220235753804,  -0.1679135710001,  -0.0120354779065,   0.2328374385834,   0.1713629961014,  -0.1772167980671,  -0.1028478816152,   0.2046185731888,  -0.0710063427687,   0.0661089643836,   0.0746522843838,  -0.0431198365986,  -0.1368932276964,   0.0267355460674,  -0.1057903841138,   0.1953494846821,  -0.0166648589075,   0.0614354386926,  -0.0328696221113,  -0.1564596891403,  -0.1063071638346,  -0.0556301586330,  -0.2407395094633,  -0.1151979416609,   0.0787283256650,  -0.0144941322505,  -0.1638260781765,  -0.0773455798626,   0.0571692138910,  -0.1858592927456,  -0.0279869697988,   0.1697094142437,  -0.1601787507534,  -0.1116359382868,   0.1009911671281,   0.1535785794258,   0.1856797039509,   0.1053271815181,   0.2053938955069},
   {   0.1120163649321,  -0.1242248713970,  -0.2684508264065,  -0.2265139520168,   0.2027253210545,  -0.0553757622838,   0.1033450141549,  -0.0067016808316,  -0.1666173636913,  -0.0892364829779,  -0.1046007573605,  -0.2202131748199,   0.1905377507210,  -0.1159815937281,   0.0427123196423,  -0.1682680547237,  -0.1637177765369,   0.1804994046688,  -0.0025423120242,  -0.1508147716522,   0.0757645666599,   0.0451005771756,   0.1476227194071,   0.0205228384584,   0.0867628455162,   0.0559523999691,  -0.0250343289226,  -0.1834471225739,   0.1598708331585,  -0.0363822169602,  -0.1671600043774,  -0.0362867228687,   0.1358479261398,  -0.1071627959609,   0.1509229689837,  -0.2502071559429,  -0.1984403282404,  -0.1537722051144,  -0.1940332651138,  -0.1873305588961,   0.0353519544005,   0.1509109884501,  -0.1206009611487,   0.2475955188274,  -0.2312705367804,   0.0223107989877,   0.1433231234550,   0.2277479767799,  -0.1121943667531,  -0.1470842808485},
   {  -0.1908227801323,  -0.1765976548195,  -0.1402153074741,   0.0630741417408,  -0.0513176023960,  -0.1718377619982,  -0.0643696710467,  -0.1297175139189,  -0.0337225608528,   0.0298398546875,   0.1458460241556,   0.1845919936895,  -0.0152359716594,   0.0483528487384,  -0.0092566097155,   0.1720514297485,  -0.0007354995469,   0.0248873233795,  -0.0745942220092,   0.1348787397146,   0.1926894336939,   0.1362248957157,  -0.0023775226437,  -0.0555924400687,  -0.2040891647339,   0.1972986906767,   0.0858741104603,  -0.0771087333560,   0.1230289041996,   0.1965844482183,  -0.0449224114418,   0.1405902802944,  -0.0295620653778,  -0.2372247725725,  -0.2127164006233,  -0.0888269916177,  -0.2389948368073,  -0.1544373333454,  -0.0975419506431,   0.0258665811270,   0.2121991217136,   0.1665790677071,  -0.1335710138083,   0.0076064509340,  -0.0339612402022,   0.0227936934680,   0.0424171015620,  -0.2116354405880,  -0.0319812335074,  -0.1132472753525},
   {   0.0115183191374,   0.0235847551376,  -0.1850478202105,  -0.1114424765110,  -0.1167699545622,   0.0523525215685,  -0.2169544100761,  -0.1350567638874,   0.0300105195493,  -0.0085208471864,  -0.1426536142826,   0.0474294349551,   0.1134324818850,  -0.0822022259235,   0.2063409984112,   0.1625056415796,   0.2614377140999,  -0.2232111990452,  -0.0832703411579,   0.1365772783756,   0.1006058603525,  -0.0806016698480,  -0.1410779058933,  -0.1517373919487,  -0.0823548287153,   0.0673744380474,  -0.0864476561546,  -0.1456098109484,   0.1420557647943,   0.0463092178106,  -0.1222862154245,   0.0010124810506,  -0.1981152147055,   0.2348858565092,  -0.1231122389436,  -0.0552595444024,  -0.1381332725286,   0.0096101881936,   0.2394692301750,   0.0659531652927,   0.1202987879515,   0.1992429047823,   0.0212397221476,  -0.1999145448208,  -0.0281211547554,   0.0794261246920,   0.1150682568550,  -0.1473680287600,   0.0709483250976,  -0.1424529701471}};
  const float bias_0[50] = {   0.0209436398000,   0.0269825328141,   0.0155601501465,  -0.0037675062194,   0.0353801101446,   0.0046833632514,   0.0243288390338,   0.0263730399311,   0.0232230629772,  -0.0024890326895,   0.0298699643463,   0.0147452047095,   0.0278965588659,  -0.0089729251340,  -0.0248121079057,   0.0257878657430,  -0.0205154679716,   0.0495084486902,   0.0028970029671,  -0.0257589630783,   0.0409000888467,   0.0458143018186,   0.0283361617476,   0.0291179697961,  -0.0142434565350,   0.0087136821821,   0.0322339273989,   0.0386589951813,   0.0195079799742,   0.0211464148015,   0.0137516539544,   0.0242810808122,  -0.0066051757894,   0.0332108996809,  -0.0025900739711,   0.0168434809893,   0.0285973250866,  -0.0014469875023,   0.0079005397856,   0.0350294485688,   0.0102200442925,   0.0445465631783,   0.0120276268572,  -0.0054993764497,   0.0265468209982,  -0.0023720541503,   0.0508633293211,   0.0303219631314,   0.0157886147499,   0.0289664641023};
  // Declare the arrays in the stack
  const float kernel_1[50][50] = 
  {{  -0.1931499689817,   0.1806740462780,  -0.1073937788606,  -0.0766343548894,  -0.1950996667147,   0.1035397499800,   0.1748902946711,   0.0864393264055,   0.2307223230600,   0.2445486187935,   0.0011399351060,  -0.2317998558283,  -0.0166845582426,  -0.2045721262693,  -0.1613458395004,  -0.2000044286251,   0.1884092688560,   0.0289200395346,   0.0985403805971,   0.0848473235965,   0.1319869160652,   0.1968773007393,  -0.0385316386819,  -0.0915550589561,   0.1328790634871,   0.1981755048037,   0.0169471930712,  -0.0619514919817,  -0.0116231739521,  -0.0886295661330,   0.2016012817621,  -0.1691452115774,   0.0617105402052,   0.1687967479229,   0.1935602873564,   0.2468331605196,   0.0055733220652,   0.1743534505367,   0.1493384689093,   0.1359241157770,   0.2108072042465,   0.2080215215683,   0.1189209297299,  -0.0954737439752,  -0.1743581295013,  -0.0055325883441,  -0.0271928999573,  -0.0491304919124,   0.1841690689325,   0.0277191139758},
   {  -0.2179729938507,  -0.2141463160515,  -0.0043726339936,  -0.1099176555872,   0.0801147744060,  -0.0152128813788,  -0.0664944127202,   0.2038579732180,  -0.0014961902052,  -0.0506808646023,   0.2415461093187,  -0.1201423704624,  -0.1939892619848,  -0.0313766002655,   0.0852691456676,   0.0593719817698,  -0.1945339888334,  -0.0303401704878,   0.2256389856339,  -0.1442001610994,  -0.1185313835740,   0.0066603040323,   0.0437836758792,  -0.1805314868689,  -0.2087266445160,  -0.0212300084531,   0.2182111740112,   0.0144722452387,   0.0291589498520,   0.0945117697120,   0.0077119967900,  -0.2215142101049,  -0.1416661292315,   0.1178173050284,   0.1681225597858,   0.0933267697692,   0.2677003145218,   0.0757928043604,   0.0989553481340,   0.0024184810463,   0.1078810095787,   0.2307987511158,   0.1138284131885,  -0.2110946327448,  -0.1687929183245,   0.2347184270620,  -0.0392653979361,  -0.1277355849743,   0.2205914407969,  -0.0831337273121},
   {  -0.0568766966462,  -0.1165626645088,  -0.0467061772943,  -0.1289887577295,   0.1594040095806,   0.1318225562572,   0.2160892188549,  -0.0233121961355,  -0.0566782131791,   0.2059070467949,   0.1471996158361,  -0.1363585293293,  -0.0373497046530,  -0.2037695199251,   0.2100715190172,   0.2183320969343,   0.0686966702342,  -0.0576184242964,   0.0484641566873,  -0.1135166808963,  -0.1984192579985,  -0.0622920691967,  -0.2371063381433,   0.1050243899226,  -0.2112891376019,   0.0533413700759,   0.0935344099998,   0.1443843841553,   0.0046308212914,   0.2468869984150,   0.0603568740189,  -0.1048910394311,  -0.0095186727121,   0.1842417269945,   0.1082128733397,  -0.1394721269608,  -0.1507010459900,   0.2063671052456,  -0.1109116375446,  -0.0396764390171,   0.0370559468865,  -0.0288614705205,   0.1229119226336,   0.2193627506495,  -0.0519173741341,  -0.1959820836782,  -0.1198082119226,  -0.0819294601679,   0.2565199732780,  -0.0377827286720},
   {  -0.0880365073681,  -0.1581833362579,   0.1015644446015,  -0.1141619011760,   0.1139600872993,   0.1442716866732,  -0.0887164101005,   0.0860086679459,  -0.2030149102211,  -0.2255127280951,   0.0381049141288,  -0.0708613544703,  -0.1047073304653,   0.0664661601186,  -0.0716745480895,   0.2524159848690,   0.0679800510406,   0.2305113971233,  -0.1882870197296,  -0.1889585107565,  -0.0572222881019,   0.1758025735617,   0.1046604141593,   0.0173095129430,  -0.1586584448814,  -0.0879117622972,   0.0359521433711,   0.1433715522289,   0.0599699579179,   0.0767468810081,   0.1768089234829,   0.2365149706602,  -0.2192650735378,   0.0299650840461,  -0.1130693629384,   0.1208641007543,   0.0185354519635,   0.1387748867273,   0.0182419270277,  -0.2247989326715,  -0.0433147549629,   0.0040809172206,   0.2434493452311,   0.1159546524286,  -0.0433878153563,  -0.2513800561428,  -0.1687549054623,  -0.1955968886614,  -0.1695026606321,   0.0468810461462},
   {   0.2203333526850,   0.0630149021745,   0.1738883852959,  -0.1514202207327,   0.0082682827488,  -0.0483573302627,   0.1230740100145,   0.1913834363222,   0.2002314478159,   0.0253840610385,   0.2618543505669,   0.0464910566807,  -0.0891634598374,   0.1007759943604,   0.0937368944287,  -0.2352531254292,   0.0005112722865,  -0.1889596134424,   0.0525831058621,  -0.1658288687468,  -0.1954629421234,  -0.2084417194128,  -0.1563342660666,   0.0512062907219,  -0.0934665054083,  -0.1677765846252,  -0.1868758797646,   0.1627831906080,  -0.1817710250616,  -0.1527185440063,   0.0689936056733,  -0.1880452334881,  -0.1393816322088,   0.2075158357620,  -0.1413612365723,  -0.0453121960163,   0.1208432689309,   0.1736576557159,  -0.1343904882669,  -0.1725129783154,   0.0023412862793,   0.0895496308804,   0.0387599617243,   0.1300604194403,  -0.1930334419012,  -0.0818037614226,   0.0823098793626,  -0.0854130685329,   0.0644644796848,  -0.0973430797458},
   {   0.0716930702329,   0.2174446433783,   0.2273668795824,  -0.0148001015186,  -0.0710652917624,  -0.1758327633142,   0.2133763879538,  -0.1233353093266,   0.1215171217918,  -0.2190170437098,   0.2003782242537,   0.0211836732924,  -0.0766852423549,   0.1900064200163,  -0.2379058897495,  -0.0014535881346,  -0.0887076482177,   0.2183170765638,   0.0321770496666,  -0.0882423967123,  -0.1106275171041,  -0.1287757009268,  -0.1947787255049,   0.2188749313354,   0.2306335270405,  -0.1066231951118,  -0.2133299857378,   0.0516803599894,  -0.1507579237223,   0.1992300897837,  -0.1954654157162,   0.2376113831997,   0.1668870300055,  -0.2031656354666,   0.0509739965200,   0.2037125676870,   0.2240207791328,   0.1580223143101,  -0.0002423529222,   0.0871715396643,   0.1675809025764,   0.1373821794987,  -0.1501282751560,  -0.1503907144070,  -0.0404678620398,   0.0844856649637,   0.1255140751600,  -0.0748364254832,   0.1072123497725,  -0.1507839858532},
   {   0.0409854985774,  -0.0317870639265,   0.0056794253178,  -0.0296115782112,   0.0661584809422,  -0.0974872335792,   0.1357798278332,   0.0767290592194,   0.1059367358685,   0.0937345325947,   0.1980655640364,  -0.0345034822822,  -0.0630904063582,   0.0385485589504,   0.0284493323416,   0.0592105537653,   0.1716385930777,   0.1441203057766,  -0.2088132500648,   0.0453338921070,  -0.0239965692163,   0.1817094832659,   0.1627877205610,  -0.1856212913990,   0.2530615925789,   0.1999605298042,   0.0076631684788,  -0.0802362263203,   0.1108238324523,  -0.1494320929050,  -0.0437971204519,   0.1495665609837,  -0.0349731631577,   0.0456377305090,   0.2506279647350,   0.1222434863448,  -0.1188635677099,   0.1224516481161,  -0.1486754119396,   0.0863693729043,  -0.0368255451322,   0.0422178246081,  -0.1501526683569,  -0.0973436459899,   0.0487687177956,  -0.1730405539274,   0.0055113458075,   0.2064681202173,   0.1984508335590,  -0.1598075628281},
   {  -0.2007268071175,  -0.1064385548234,  -0.0773259028792,   0.0324983187020,  -0.0546424761415,   0.1659076660872,   0.0173888765275,  -0.0301570519805,   0.0523701086640,   0.0828855708241,  -0.1290597319603,  -0.1221669465303,   0.1296101212502,   0.1770129948854,  -0.0291687063873,  -0.1024420112371,  -0.1438416391611,   0.1761379539967,   0.1024202406406,   0.1831561028957,  -0.0888922810555,  -0.0846648141742,   0.0987052246928,   0.0935445800424,   0.2158697694540,   0.1586248427629,   0.0404273793101,  -0.1509939134121,  -0.0948242843151,  -0.0628785789013,  -0.0366124734282,   0.0748642235994,   0.2310916185379,  -0.1311815083027,   0.0734988823533,   0.1674350798130,  -0.0915675610304,   0.0090600159019,   0.2149319499731,  -0.0189934838563,  -0.0553968511522,  -0.0696035027504,  -0.1117697060108,  -0.0272181183100,   0.0643176659942,   0.2719457447529,  -0.0744004771113,  -0.1879086345434,   0.2232994437218,   0.0007743119495},
   {  -0.0442305430770,   0.1690465062857,   0.0605673938990,  -0.0280183069408,   0.1247475892305,   0.0554112829268,   0.2047569155693,   0.1261064410210,   0.2098700702190,   0.1306028217077,   0.0451364479959,   0.2546668648720,  -0.0664701014757,  -0.1712251156569,  -0.1173530369997,   0.0877631828189,   0.1919624507427,   0.1315387338400,   0.2304086983204,   0.1554563492537,  -0.0148817226291,  -0.1754043400288,  -0.0173494182527,  -0.0655497610569,  -0.1517747491598,   0.1999441236258,  -0.2384319603443,   0.2051021009684,   0.0670238435268,   0.1094463244081,  -0.0120883276686,   0.1285244971514,   0.0045095426030,  -0.0510809831321,  -0.1774047613144,  -0.1750231981277,   0.1387902647257,  -0.0029835565947,   0.0499173030257,   0.0999319851398,  -0.2286424040794,  -0.0308948103338,  -0.1865600496531,   0.1442270129919,  -0.1707289665937,   0.1720869392157,  -0.2168994247913,  -0.1944130361080,  -0.1921307146549,   0.0461746267974},
   {  -0.2190118134022,  -0.1873817890882,  -0.0133040882647,  -0.0147831263021,   0.1889396756887,   0.1341559737921,   0.1771498322487,  -0.0815211459994,  -0.1215422153473,   0.1545118391514,  -0.2225515544415,   0.0534195415676,   0.0460820905864,   0.0818466693163,   0.0496827848256,  -0.1641122698784,  -0.1269934177399,  -0.1157717630267,   0.0729416608810,  -0.0040975259617,   0.1702179461718,  -0.1461415737867,   0.2202274948359,   0.0166295804083,  -0.1290774494410,   0.0666197240353,  -0.1736649572849,  -0.0029824606609,  -0.2551018595695,   0.0548508130014,   0.0018849514890,   0.1801183372736,   0.1047389134765,  -0.1288822591305,   0.2127802670002,  -0.1260994225740,   0.0741325244308,  -0.1859667003155,   0.0918237417936,  -0.1270984411240,   0.1704905331135,  -0.0558156184852,   0.1405259370804,   0.0272864829749,   0.0998592600226,   0.2313555926085,  -0.0465766973794,  -0.0731430500746,  -0.0235164146870,  -0.1241918727756},
   {  -0.1911118626595,   0.1791565418243,   0.1991602331400,   0.1720474064350,  -0.1644469052553,   0.1372903436422,   0.1658240407705,  -0.0178967360407,  -0.0835136473179,   0.1219399571419,   0.0877625495195,  -0.1306143999100,  -0.2767465114594,   0.2161362171173,   0.0284483470023,   0.1357505172491,   0.0058700684458,   0.0639245361090,  -0.2522207498550,   0.1103671640158,   0.0742835775018,   0.1092976853251,  -0.1132372170687,   0.1965933591127,  -0.0745263621211,   0.2039960324764,   0.1710663288832,  -0.1156235635281,  -0.0082178460434,  -0.1423600912094,   0.1870589852333,  -0.1891572773457,  -0.0362145230174,   0.2449591457844,   0.1286390572786,  -0.2348985970020,   0.2421913743019,  -0.2129173725843,   0.0537481755018,  -0.2161933183670,  -0.1850610077381,   0.0145226642489,   0.0766026899219,  -0.0662331357598,  -0.0949489623308,  -0.2513515353203,   0.2056140601635,   0.0743233934045,  -0.1721881181002,  -0.1942362338305},
   {  -0.2092151939869,  -0.0976068004966,   0.1417581886053,  -0.1653530746698,   0.1756117492914,   0.2620305418968,  -0.0516865737736,   0.0909659117460,  -0.2095709890127,   0.1693076640368,   0.0668883621693,   0.1017326861620,   0.1335765570402,  -0.1714847385883,  -0.0539551414549,   0.2303623706102,   0.2423407733440,  -0.2134978026152,   0.1339472681284,  -0.2224723249674,  -0.2067785412073,   0.2120313942432,  -0.0767232403159,   0.2575586438179,   0.0347345024347,  -0.1093429252505,   0.1371067017317,   0.0281981844455,   0.1683247536421,   0.0800260230899,  -0.0137305427343,  -0.0368736162782,   0.0990448594093,   0.0827580988407,   0.2534368932247,   0.0868215784431,   0.2191477864981,  -0.1225152760744,   0.0487223006785,   0.2232604920864,  -0.0395815558732,   0.1333998292685,   0.2036862522364,   0.0648375228047,  -0.0889169126749,  -0.1833961755037,  -0.1104176715016,   0.1673389077187,  -0.0516275800765,   0.2810383141041},
   {   0.0838860943913,  -0.0520553365350,  -0.0824578478932,   0.2529189884663,  -0.1459945738316,  -0.1605926156044,   0.1538302302361,  -0.1263289600611,  -0.1558502018452,  -0.1075357645750,   0.2343611717224,  -0.0628021806479,  -0.2013070136309,   0.1290718913078,  -0.1197959408164,  -0.2279334217310,  -0.2373039126396,  -0.1789427250624,   0.1082893908024,  -0.1010789722204,   0.0605363361537,   0.0872277840972,  -0.2114292979240,  -0.0119076604024,   0.1900351196527,   0.1699609011412,   0.1873427033424,   0.0658721029758,   0.1557133495808,   0.0018826767337,  -0.1303197443485,   0.1405390799046,   0.1759418845177,  -0.1769736260176,  -0.0809255987406,  -0.1198137626052,  -0.0336233861744,  -0.1473927348852,  -0.1804589331150,   0.2097292393446,  -0.0735992416739,  -0.2286978065968,  -0.2396689951420,  -0.0284502431750,  -0.1062267646194,  -0.1772879213095,  -0.1870434135199,   0.1466566175222,   0.0206706989557,  -0.2097506672144},
   {  -0.2599673867226,   0.1687597334385,   0.1763941943645,  -0.0127646038309,  -0.1291098147631,  -0.0614653080702,  -0.1697235554457,  -0.0949913412333,  -0.2000550925732,   0.1139924898744,   0.0908723846078,   0.1665598601103,  -0.1991342604160,   0.2282916456461,  -0.1581005752087,   0.1189663261175,  -0.0044839493930,   0.1629918664694,   0.1233602240682,  -0.1228950545192,  -0.0839292556047,   0.1440555602312,  -0.2664922475815,  -0.1850526630878,  -0.2169848531485,  -0.2089665979147,  -0.1168305724859,   0.0919462144375,   0.2078757882118,  -0.0831566900015,   0.1999048143625,  -0.0005366175319,  -0.2291939705610,   0.1580400317907,  -0.1545066833496,   0.0417785309255,   0.1756494194269,   0.2149496525526,   0.2302421778440,  -0.0152080282569,  -0.1648124158382,  -0.0229895282537,   0.0455082282424,   0.1725486963987,   0.1859399527311,  -0.1754683107138,  -0.1310710608959,  -0.0474389232695,   0.0213222522289,  -0.2228396534920},
   {   0.1589777320623,   0.1740886121988,   0.0612171106040,  -0.2123986333609,   0.0506299436092,  -0.1837488859892,   0.0472864136100,  -0.0088449269533,   0.2357590794563,   0.2039394974709,   0.1507755517960,  -0.1471136361361,  -0.1581954509020,  -0.1097098588943,   0.1728831827641,   0.0399800390005,   0.2248002141714,   0.1812003999949,   0.0034329716582,   0.1619211882353,  -0.2253596335649,   0.0493037141860,  -0.0865990221500,  -0.2035505622625,  -0.2010798454285,  -0.0194251425564,   0.1050912737846,   0.1335950940847,  -0.0899891406298,  -0.1404981762171,  -0.2023062258959,  -0.0726270750165,   0.1037019789219,  -0.1123495250940,  -0.2110788822174,   0.2306177914143,  -0.1325421929359,  -0.0577612407506,   0.1072774380445,  -0.1931617408991,   0.1793622225523,  -0.0939172133803,  -0.1750476062298,   0.0106571856886,  -0.0741687417030,  -0.0438478551805,   0.0086672445759,  -0.0087200663984,  -0.0189419537783,   0.0647949725389},
   {   0.1948586553335,  -0.0578299164772,   0.1192573159933,  -0.1759387701750,  -0.0112306643277,  -0.1316143870354,  -0.0847986713052,   0.1950758248568,  -0.0213647950441,   0.2530587911606,   0.0149165727198,  -0.1686027199030,   0.1131174936891,  -0.2438604533672,  -0.0208874102682,  -0.0331462658942,  -0.2145643383265,  -0.1632580161095,   0.1674298793077,   0.0544453859329,  -0.1843934804201,   0.1738357245922,   0.2342847436666,   0.0501288361847,   0.0876042470336,   0.1492293626070,   0.0533498749137,   0.2105650752783,   0.2117317318916,   0.2103146612644,   0.2579237520695,   0.1281007975340,   0.1713355183601,   0.1882462203503,  -0.0123639022931,   0.2458454966545,   0.1849091351032,  -0.0263817850500,  -0.0372838787735,  -0.1529573649168,  -0.2076854407787,   0.2122651785612,  -0.0649729445577,  -0.0014078156091,   0.1616759002209,   0.0785981938243,  -0.1598925143480,   0.1454413682222,   0.1067283600569,   0.1275364160538},
   {   0.1631350964308,   0.1168454736471,  -0.2225173115730,  -0.0601161532104,  -0.2014023959637,   0.0315406210721,  -0.2189812511206,  -0.1852214336395,   0.0970353707671,   0.1490522772074,   0.0232162959874,   0.0243979468942,  -0.1099497005343,   0.0706362202764,  -0.0991282314062,  -0.0110996151343,  -0.2334719449282,  -0.1071291416883,  -0.1544841974974,   0.1180307939649,   0.0087653482333,   0.1505948007107,  -0.2041743844748,   0.2230252027512,  -0.0864256024361,  -0.1218557059765,  -0.1543015688658,  -0.0328318588436,   0.2023643404245,   0.2249857783318,  -0.2146815806627,   0.0388528071344,   0.0852670669556,  -0.1844350099564,   0.0905424058437,  -0.1393695175648,   0.0032871684525,  -0.0721793845296,  -0.0040606828406,  -0.0979555770755,  -0.2190833538771,   0.0310477912426,  -0.1978066563606,  -0.1875357776880,  -0.1451260149479,   0.1353176683187,   0.0455824956298,   0.0583585575223,   0.0454965457320,  -0.2367253005505},
   {   0.0021202939097,   0.2342935800552,  -0.2066331654787,   0.0331002846360,  -0.0423896200955,  -0.1441154330969,  -0.0618054158986,   0.0690719783306,  -0.1473681330681,  -0.2040966749191,  -0.0158708840609,  -0.1939500570297,   0.2462148070335,  -0.2364895641804,   0.1057775169611,   0.0849662125111,   0.0609605126083,  -0.0844084173441,  -0.2273658365011,  -0.2182054668665,  -0.0445921644568,   0.1014347299933,   0.1480989009142,  -0.0241346266121,   0.2243674993515,   0.0830228403211,   0.1737848818302,  -0.2090125977993,   0.2513604164124,   0.2103195488453,   0.0609946995974,  -0.1476470828056,  -0.0567381717265,  -0.0975458696485,  -0.1997140645981,   0.1509440690279,   0.2299451380968,   0.1432630568743,   0.1910370886326,   0.1227339431643,  -0.0630351677537,   0.2235202789307,   0.1117648109794,  -0.0190071593970,  -0.0884568989277,  -0.0206095371395,  -0.1335658431053,  -0.1464170515537,   0.2302357256413,  -0.2162006646395},
   {   0.1148363277316,   0.1456862241030,  -0.1008283644915,  -0.0372464098036,  -0.2088863700628,   0.1638444811106,   0.0785146877170,   0.1724939942360,   0.0111751724035,   0.0081765064970,   0.2243083268404,  -0.1515740305185,  -0.0295525938272,   0.0726241692901,   0.2164183706045,   0.0419213175774,   0.1580004841089,   0.0894583836198,   0.1466288417578,  -0.1414501816034,  -0.1446336060762,   0.0139117920771,  -0.2194382548332,   0.0284269191325,   0.1988911479712,   0.0228725522757,   0.1249270737171,  -0.0380078218877,  -0.1730861663818,   0.1992978155613,   0.0956215187907,   0.1934642493725,  -0.0546625033021,  -0.0373161546886,   0.1420686542988,   0.2035930007696,  -0.0123207904398,  -0.2538765966892,   0.1563246399164,   0.0722657665610,  -0.0438953191042,  -0.0352200753987,   0.1068590730429,   0.1030355542898,  -0.0109629826620,  -0.1423779278994,  -0.1435222178698,  -0.1638708412647,   0.0685815662146,   0.0193386785686},
   {  -0.1155642792583,  -0.0670549571514,   0.2282961606979,   0.1575641185045,  -0.0948057845235,   0.2481905966997,  -0.0547931641340,  -0.1363423168659,  -0.1169778108597,  -0.0286398902535,  -0.1723483204842,   0.1084261834621,  -0.0574005767703,  -0.0141680631787,  -0.1901979297400,   0.2080790847540,   0.0395232588053,   0.0086065493524,   0.1891670823097,  -0.0225386358798,  -0.1346005201340,  -0.0816105008125,  -0.1707410216331,  -0.0230050496757,  -0.0509612485766,  -0.0607281103730,  -0.0487625561655,  -0.0314857028425,  -0.0440039224923,  -0.0048883920535,   0.2043436467648,   0.1587702035904,  -0.0332651101053,  -0.0127008426934,  -0.2058665007353,  -0.1583389192820,   0.0477426834404,   0.1145548298955,   0.1964589506388,  -0.0071264216676,  -0.1913867443800,  -0.1486196368933,   0.0352700687945,  -0.1710713654757,  -0.1092187315226,  -0.0646788254380,  -0.1386153697968,  -0.1379984915257,   0.1921758055687,  -0.2784060835838},
   {   0.0522960536182,   0.0223217401654,   0.1166766583920,   0.1510453075171,   0.1872315257788,   0.0958775803447,  -0.1067210659385,   0.0391974784434,  -0.0423826426268,  -0.2054753154516,  -0.2258643507957,  -0.0584770590067,   0.0215834248811,   0.1423608809710,  -0.1525523662567,   0.0383676327765,  -0.1175710037351,   0.0106207216159,   0.2088228017092,   0.2252569049597,  -0.0378102883697,   0.0821329504251,  -0.1883251816034,   0.1960407048464,  -0.2173356860876,   0.2471300214529,  -0.0811500251293,   0.1126545295119,  -0.2149940729141,   0.0264093466103,  -0.0187236573547,  -0.0734528899193,  -0.1044320166111,   0.2316382974386,  -0.0104672722518,  -0.2163879424334,  -0.2513904273510,  -0.1910972744226,   0.1984011381865,   0.1522103548050,   0.0743872001767,   0.0776364207268,   0.2832141220570,   0.0961200296879,   0.1001843288541,  -0.2266534268856,  -0.0944703519344,   0.0054384586401,   0.1075674369931,   0.1919876486063},
   {   0.0462947338820,  -0.1177584826946,  -0.1959117352962,   0.1943005025387,  -0.1388464719057,   0.1289689689875,   0.0174779910594,  -0.0170116052032,   0.1093148961663,   0.0940167531371,  -0.2355135977268,  -0.0116400942206,   0.2547181546688,   0.0749779045582,  -0.0868161171675,   0.1270880699158,  -0.0966214239597,  -0.2125736922026,  -0.0899315997958,  -0.0274343285710,   0.2003432214260,  -0.0842789858580,  -0.2097752839327,  -0.0553492270410,  -0.0116846943274,  -0.1011172682047,  -0.0340207181871,  -0.1174664571881,   0.0969273671508,  -0.1778701394796,  -0.1092441305518,   0.0532975383103,  -0.1273133158684,   0.0142364567146,   0.0755221545696,   0.1198989078403,  -0.2445239871740,  -0.2060196101665,   0.0372994914651,  -0.1519705057144,  -0.0143785206601,  -0.0998169258237,  -0.0766366198659,   0.0051639932208,   0.2495653182268,  -0.2037850916386,  -0.0707518309355,  -0.0058726198040,   0.1134952306747,  -0.0751550048590},
   {  -0.2363154441118,  -0.1702175140381,   0.0516365617514,   0.1867188215256,  -0.1521103382111,  -0.1255669444799,   0.0053451471031,  -0.2236728817225,  -0.1530029773712,  -0.0211127754301,   0.2272064834833,   0.2534471154213,   0.2843771576881,  -0.1183361411095,  -0.1376992166042,  -0.1649534553289,  -0.2107054144144,   0.0268471427262,  -0.1570687144995,  -0.1857997328043,  -0.1350229382515,   0.2236337065697,  -0.0312501452863,  -0.0664630681276,   0.0559202954173,   0.0921424478292,  -0.2221109569073,  -0.1044783964753,  -0.2645709514618,   0.1282712817192,  -0.1403657495975,   0.1383638978004,  -0.0343209020793,   0.1959236860275,  -0.0890032872558,  -0.0862053856254,   0.1144307181239,   0.2139275968075,   0.0623956583440,   0.2314095646143,   0.0161276701838,  -0.0727772489190,   0.2231478095055,   0.2068362236023,   0.0980447083712,   0.2018141895533,  -0.1705499589443,   0.2175147384405,   0.2337665110826,  -0.0205211546272},
   {  -0.2423176616430,  -0.0175804942846,  -0.0654779449105,   0.0391633622348,   0.2288729250431,   0.0029309517704,  -0.2491258829832,  -0.2033617496490,   0.1980110704899,  -0.2223445177078,   0.2637611031532,   0.2261196374893,  -0.1116212457418,   0.1510749161243,  -0.1242290511727,  -0.1402553468943,   0.1760028600693,   0.2387222349644,  -0.1205242648721,   0.0731278210878,   0.0147382142022,  -0.0112571110949,   0.2613727748394,  -0.0346731096506,  -0.0838397964835,   0.2076365500689,   0.0741075500846,  -0.2092936038971,   0.2164917141199,  -0.1067145168781,   0.2251801937819,   0.0769224613905,   0.1935876756907,   0.1253149211407,  -0.0279027391225,  -0.0355662070215,   0.2385164797306,  -0.0131783708930,  -0.0965213328600,   0.1676114946604,   0.1046480908990,   0.1768896728754,  -0.2114924192429,  -0.2501674890518,  -0.1762084662914,  -0.0672508403659,   0.0761442780495,   0.0124931447208,   0.1600999683142,   0.0588216930628},
   {   0.0011226707138,  -0.0668216273189,   0.2278186380863,   0.2192865610123,  -0.2299662232399,   0.1909873485565,   0.1794320195913,   0.2039117068052,   0.0368886739016,  -0.0333227962255,  -0.1247084662318,  -0.1455437541008,   0.1420697718859,  -0.1250777840614,   0.2025122642517,   0.0883995369077,   0.0951691046357,   0.1528144180775,  -0.0510967038572,   0.2092737257481,   0.2493105530739,  -0.1650255918503,   0.1176566705108,  -0.0823492258787,  -0.0175062809139,   0.0805765986443,  -0.1550609320402,   0.1886897087097,  -0.0365018658340,  -0.0161878205836,  -0.0636661872268,  -0.0101387370378,  -0.1522591412067,   0.1667419672012,   0.1304851621389,   0.1590224951506,   0.1217030286789,  -0.1787239760160,   0.1946036964655,  -0.2150504589081,  -0.1075726523995,  -0.0643606707454,  -0.2019333392382,   0.1034101545811,   0.0138036357239,  -0.0772113874555,   0.1907345801592,   0.1635128259659,  -0.0662510469556,   0.0437543243170},
   {  -0.0465283319354,   0.0758676603436,   0.1104563474655,   0.1089386120439,   0.2724633216858,   0.2591552138329,  -0.1140821054578,   0.1920668929815,   0.2124666124582,   0.2295969277620,   0.0998430401087,  -0.1523010581732,   0.0149947572500,  -0.1258564144373,  -0.2066836208105,   0.0523676015437,   0.1400301158428,  -0.1214207112789,   0.1982311457396,   0.2237084656954,  -0.1359589546919,   0.1161141097546,   0.2530967593193,  -0.1583360731602,   0.1601395905018,  -0.2029629498720,  -0.0840315520763,  -0.2452726215124,  -0.0724127590656,  -0.0912726521492,  -0.0905139446259,  -0.1552384495735,   0.0676937624812,   0.0324482992291,   0.1648695468903,  -0.0997068211436,  -0.2336431741714,  -0.0990243777633,   0.0118230879307,   0.1022840216756,   0.0786011740565,   0.1538025140762,   0.2305244058371,   0.2556391656399,  -0.0531428977847,  -0.1769908964634,  -0.0221505258232,  -0.1041381359100,  -0.1843046844006,  -0.0056139831431},
   {  -0.0317551903427,  -0.1536499261856,   0.0498883277178,  -0.2093591988087,  -0.0558220855892,   0.0981041938066,   0.1219318062067,  -0.1782827526331,  -0.2351570129395,   0.0553900934756,   0.0269905813038,  -0.0139763886109,   0.0485160797834,   0.1370582878590,   0.1287450492382,  -0.0540654994547,   0.1670916974545,  -0.2232247143984,   0.2440905421972,   0.2031569331884,   0.0776881426573,  -0.1231733560562,   0.0293853115290,  -0.0879884734750,  -0.1038194820285,   0.2369088381529,  -0.1289704442024,  -0.1414449065924,   0.0650326758623,  -0.1529287099838,   0.1669748574495,  -0.1523272991180,   0.1439478546381,  -0.1316446065903,   0.0883392244577,   0.1662053614855,   0.0666729509830,  -0.2312719076872,   0.0361388325691,  -0.0697306692600,   0.1508816480637,   0.0231085978448,   0.1989058107138,  -0.0849773064256,  -0.0041326447390,  -0.1360964775085,  -0.1265212148428,   0.2505159378052,   0.1837821602821,   0.1799327880144},
   {   0.1947517842054,  -0.2584158778191,   0.1805874258280,  -0.1529467999935,   0.1670760214329,   0.1458260715008,  -0.1135517880321,   0.2046376317739,   0.1260321587324,   0.0540446788073,   0.2346923351288,   0.0978647992015,   0.0361992307007,   0.2734777331352,  -0.2087481766939,   0.1000816076994,   0.0089025264606,   0.1945813149214,  -0.0264501869678,  -0.0889316871762,  -0.0187807772309,  -0.2018710523844,   0.0150259882212,  -0.1750389784575,  -0.0204289760441,   0.2594885230064,   0.1148055866361,   0.1905351132154,   0.1510638594627,   0.1436033695936,  -0.2186140865088,  -0.0134450765327,   0.0620226785541,   0.0589024834335,   0.0775604248047,   0.2105593085289,   0.0011085370788,  -0.1501237601042,   0.1301597505808,   0.2103407830000,  -0.0027521119919,   0.0185568854213,  -0.2320932149887,   0.1834588944912,   0.1031927689910,  -0.0879264101386,   0.1396857947111,   0.1618107110262,  -0.0085586532950,  -0.1566721796989},
   {   0.1137594357133,  -0.0210171416402,   0.0452906303108,  -0.2044971585274,  -0.1312553733587,   0.1846777647734,  -0.0271658115089,  -0.0563645660877,   0.0054153171368,   0.2312415540218,  -0.0200433675200,  -0.2109888941050,  -0.1609683185816,  -0.0560927763581,  -0.1476584523916,  -0.2477100044489,   0.0013348083012,   0.0633749812841,  -0.0729089453816,   0.0551640316844,   0.0190657526255,  -0.0447376966476,  -0.0806500390172,  -0.0362773425877,  -0.1556426733732,  -0.1095982566476,  -0.1583647280931,  -0.1207656264305,  -0.1135715022683,  -0.0063490299508,   0.1346195042133,  -0.2018884122372,  -0.1840848922729,  -0.0368190295994,  -0.1026639491320,   0.0020774696022,   0.2035144418478,   0.0041000260971,  -0.1477296948433,  -0.0735718309879,   0.0135388271883,   0.0392183884978,  -0.0780115202069,  -0.2829736471176,  -0.1589170098305,   0.1105712652206,   0.0677673369646,   0.0276344995946,   0.0722561776638,  -0.1023222133517},
   {  -0.1780645996332,  -0.1983823776245,  -0.0488180667162,   0.0531762987375,  -0.1705743670464,  -0.1356173902750,  -0.0382353439927,   0.0666379481554,  -0.0860074311495,   0.0049887611531,   0.1697896867990,  -0.2221480756998,  -0.1135478541255,  -0.2265017479658,  -0.1595474630594,   0.1843245625496,   0.0650287121534,   0.1656012386084,   0.0148226590827,  -0.1644104123116,   0.1470462381840,   0.0681637227535,  -0.0736689865589,  -0.1294812709093,   0.0397926531732,   0.2210154384375,  -0.1638382226229,   0.0620059892535,  -0.2016790807247,  -0.1205957606435,   0.1431411951780,   0.1707077473402,   0.1858911365271,   0.1765544265509,   0.0965275168419,   0.0754354223609,   0.1798410266638,  -0.1335462927818,  -0.0175315029919,  -0.2552382647991,   0.0311157573014,  -0.1539440751076,  -0.0651503801346,  -0.2228872925043,   0.1293944418430,   0.1463741958141,  -0.1304743587971,   0.1163009852171,  -0.1020080447197,   0.1224573701620},
   {  -0.2150943130255,   0.2133519947529,  -0.1642118990421,   0.1305768340826,   0.0895985886455,  -0.0208735838532,  -0.2169690877199,  -0.0861620828509,   0.1276346743107,  -0.1097174584866,   0.1166088059545,   0.0315167084336,  -0.1496644020081,   0.2103835642338,  -0.2450890243053,  -0.0532564856112,   0.1039118319750,  -0.2263565212488,   0.1569152027369,   0.1127015799284,  -0.1185858398676,   0.2545977830887,  -0.0008146334440,   0.0818162187934,  -0.1660659611225,  -0.0851714834571,  -0.1735217422247,   0.0609928891063,   0.0023285623174,  -0.0574809052050,  -0.1591700166464,  -0.2128293216228,   0.2397662848234,   0.1441650688648,   0.1082727983594,   0.1829231232405,  -0.1012223809958,   0.1252720057964,  -0.0890291035175,   0.0208526868373,   0.1106063649058,   0.0780012309551,  -0.0036045508459,   0.0831822082400,   0.1196241974831,   0.0342653468251,  -0.0423864945769,  -0.0196870807558,   0.1764626502991,   0.0312410984188},
   {  -0.1876047998667,  -0.1541434228420,   0.1501300185919,   0.0164860952646,   0.0871096327901,  -0.2266004532576,  -0.0921223759651,  -0.2155885100365,   0.0854293331504,  -0.0999836102128,   0.1199484616518,   0.0009350499022,  -0.1964567154646,  -0.0391179062426,   0.0499086603522,  -0.1180890277028,   0.0828128606081,  -0.2139623761177,   0.2545996606350,   0.1720237433910,   0.1316970288754,   0.1614489704370,  -0.1420463472605,   0.1333308368921,  -0.1833090484142,   0.2511891424656,   0.0617933422327,   0.1885107308626,   0.2316305786371,  -0.1591198742390,   0.0512752011418,   0.1260302066803,  -0.0969215333462,   0.1601585596800,   0.0490344315767,   0.1700249165297,   0.2101147472858,  -0.0755407288671,  -0.1196867898107,  -0.1069721579552,   0.2136574834585,  -0.0742253586650,  -0.2199186980724,  -0.1501086354256,   0.1563889682293,  -0.0245807021856,   0.0228041149676,   0.1407744139433,   0.1451394706964,  -0.0284460708499},
   {  -0.0560781471431,  -0.0586051121354,  -0.1966624259949,   0.0063772452995,   0.2323506921530,  -0.2203036993742,  -0.2250308096409,  -0.1385619044304,   0.0762555450201,  -0.1963913738728,  -0.0493987165391,  -0.2064962834120,   0.1809019446373,   0.1090138405561,   0.1193488538265,   0.1521144807339,   0.1111623048782,   0.0511661209166,  -0.0148671967909,   0.1955894529819,   0.1578167676926,  -0.2033243626356,  -0.0959358140826,   0.1074062064290,   0.0761472433805,  -0.1962850987911,  -0.0861660465598,  -0.1500710844994,   0.0688333287835,   0.1712067574263,  -0.1044022664428,   0.0609319508076,  -0.1053502559662,  -0.0973348468542,  -0.2286632210016,   0.1773183196783,   0.0687342956662,  -0.0270274989307,  -0.1417871415615,  -0.0318578705192,  -0.0600994080305,  -0.1775657087564,  -0.0637619122863,  -0.1653513014317,   0.1783096939325,   0.0861696004868,  -0.1917013078928,   0.1893080770969,  -0.2276689708233,  -0.0990560725331},
   {  -0.0592551380396,   0.2099256515503,  -0.0338683947921,   0.2346269637346,  -0.1453564167023,  -0.1140758842230,  -0.0343767777085,   0.0749232098460,  -0.0509539693594,   0.0704804211855,   0.0031537844334,  -0.0985565334558,   0.2778149545193,  -0.2237478047609,  -0.2032608985901,   0.1049729734659,  -0.0870148018003,   0.2061193436384,  -0.0542237497866,  -0.0813940539956,  -0.1572933495045,  -0.1294054687023,   0.2316797822714,  -0.0353189930320,   0.0888525620103,   0.0291488431394,   0.2728481888771,   0.1027007475495,  -0.1467227190733,  -0.1775989830494,  -0.0215575546026,  -0.0051127909683,   0.2192511856556,   0.2069222331047,   0.1779934018850,  -0.0147467860952,  -0.1030637100339,  -0.0842694267631,   0.1047658622265,  -0.0329991690814,  -0.1275105774403,   0.1528463512659,   0.1562911719084,  -0.2161077857018,  -0.1251275092363,   0.1640430092812,  -0.1989140808582,  -0.2008794695139,  -0.0667255818844,   0.0481498576701},
   {   0.1156209111214,   0.1121748983860,  -0.1136740073562,  -0.0654604509473,  -0.1024888381362,   0.1589904576540,  -0.0672498494387,  -0.0336145535111,  -0.1456695795059,   0.0609793476760,  -0.1650680601597,   0.1594058871269,   0.0914165675640,   0.1697025448084,  -0.0681849345565,  -0.1211876124144,   0.0864953771234,   0.2000960260630,   0.1693282872438,  -0.2330779135227,  -0.1971752345562,   0.1561277061701,   0.1532455980778,   0.0265071969479,   0.0611440613866,  -0.1121548563242,   0.0836269780993,   0.2468885928392,   0.0795296430588,   0.2681760191917,   0.1416428089142,   0.1902472525835,   0.2377873510122,  -0.0094794016331,   0.1326659619808,   0.0120168700814,  -0.0953496024013,  -0.0081320777535,   0.2278763502836,   0.2539623081684,  -0.0270987022668,  -0.1697533577681,   0.1404459923506,   0.2402521222830,  -0.1691936701536,   0.1689063161612,   0.2786356806755,   0.2143536806107,  -0.1989589184523,   0.2094683498144},
   {   0.1496890783310,   0.0490197949111,  -0.1363812386990,  -0.1059834957123,   0.0751802548766,   0.0018290532753,  -0.2038473486900,  -0.0983899608254,   0.0329886637628,   0.0407359898090,  -0.2100457102060,  -0.1899330615997,   0.0027769764420,  -0.2131848484278,   0.0645589604974,  -0.1230120360851,  -0.1532414853573,  -0.1367621719837,   0.1550340354443,   0.1811290979385,  -0.0290023554116,  -0.1425497382879,   0.1618828028440,   0.2458986938000,   0.1475187093019,   0.0421847142279,  -0.0735314041376,   0.0855359360576,   0.0074886730872,   0.0420463494956,   0.2310061156750,   0.2126100212336,  -0.1198128312826,  -0.1351537406445,  -0.0849719420075,   0.1121256425977,   0.2210025191307,  -0.1166429370642,   0.0693983957171,  -0.2003046572208,   0.0758779868484,  -0.1089145839214,   0.0718458592892,  -0.0233183633536,   0.1041209772229,  -0.1841007024050,  -0.1206895783544,  -0.0749639123678,   0.1505433917046,  -0.1672926992178},
   {  -0.0414855703712,   0.2139799445868,  -0.0083313034847,   0.0483405850828,  -0.0916038453579,  -0.0329309403896,  -0.1283423900604,   0.0679307952523,   0.0707404315472,   0.1416756212711,  -0.0538197271526,   0.0683039352298,  -0.0678676515818,  -0.0416604131460,   0.0414444692433,  -0.0098545448855,   0.0031747808680,   0.1465443968773,  -0.1536148935556,  -0.1942811459303,   0.0005550841452,   0.0966834425926,  -0.0273477733135,   0.0084427511320,  -0.2014359235764,   0.2017832100391,  -0.0323200374842,   0.0022646849975,  -0.1804092228413,  -0.1001589596272,  -0.2180846184492,  -0.1620408445597,  -0.1524957120419,   0.0329618118703,   0.0902887135744,  -0.2584154605865,  -0.1220023855567,  -0.1261084526777,  -0.0185154266655,  -0.2042479962111,  -0.0385046526790,   0.2090905159712,  -0.0643956959248,   0.1505887657404,   0.0576477013528,   0.0094559211284,  -0.1573139727116,   0.0214352179319,  -0.1535727232695,  -0.1477842777967},
   {  -0.1062253415585,   0.0769665986300,   0.1922908127308,   0.1952974200249,  -0.0470795482397,   0.1368654817343,  -0.1920628100634,  -0.0621540620923,   0.1707920283079,  -0.0172938816249,   0.0444880686700,   0.0524814836681,  -0.0288536138833,  -0.1457392871380,   0.1824999004602,  -0.0648012831807,   0.1649653315544,   0.0431852713227,  -0.1890678554773,   0.1483774930239,   0.1345094144344,   0.0796929746866,   0.2213633507490,  -0.1031921729445,   0.0149749740958,  -0.0163863059133,   0.2541097700596,   0.1900577843189,  -0.1339092403650,  -0.0235840138048,   0.0633793324232,  -0.1358527541161,   0.0898573473096,  -0.1661646217108,   0.2348429709673,   0.1075811237097,  -0.0935922935605,  -0.0608287192881,   0.1381321102381,   0.1495614200830,  -0.0295777600259,   0.0163924526423,   0.1833097487688,   0.1671959608793,  -0.0640608817339,   0.1227027028799,  -0.0564313605428,   0.0862242728472,  -0.1988562643528,   0.0686130076647},
   {  -0.2383917570114,  -0.1001940742135,  -0.1701516360044,   0.1851697564125,  -0.2369044125080,  -0.1490932255983,  -0.2423644363880,   0.0661128386855,   0.0766496285796,   0.0032790633850,   0.2196935564280,  -0.1807043254375,  -0.0580038204789,  -0.0111885881051,   0.0323719792068,   0.2299459576607,   0.1712461113930,  -0.0054449280724,  -0.0868381485343,  -0.0340929143131,  -0.0868144333363,  -0.2533103525639,  -0.0938999950886,   0.1730087697506,   0.2057438790798,  -0.2151765823364,   0.1645911186934,   0.0206517130136,  -0.2189495265484,   0.2129167318344,  -0.1739237755537,  -0.0366634987295,   0.0144068561494,   0.1707371026278,  -0.0798056349158,  -0.0492267981172,   0.0430902056396,  -0.0898369401693,  -0.1029500067234,  -0.1747388392687,  -0.1070096045732,  -0.0300818532705,  -0.1579604148865,   0.2290760278702,   0.1255831867456,  -0.2600557208061,  -0.0418217256665,   0.0408832058311,  -0.1404664069414,  -0.1044994294643},
   {   0.0919695645571,   0.1083698347211,  -0.0438455305994,  -0.0109509322792,   0.1271133571863,  -0.1122935563326,   0.0893487930298,  -0.0051369387656,  -0.0484798550606,  -0.1847053617239,  -0.1157803162932,  -0.1751122027636,  -0.0675650313497,  -0.0855467393994,  -0.1196852326393,   0.1765848994255,  -0.1633302867413,   0.0621257275343,  -0.2083014994860,  -0.1028656810522,   0.2600304782391,  -0.0954948663712,   0.0593637414277,   0.0085945930332,   0.1913506239653,   0.1002343147993,   0.1480665355921,   0.1242111101747,  -0.0862203538418,   0.0301094856113,  -0.2197894901037,   0.2430917620659,  -0.1942838430405,   0.1761934310198,  -0.0720068365335,  -0.1406361311674,  -0.2007399499416,  -0.0366423428059,   0.2207749336958,   0.0652605369687,   0.1119158416986,  -0.1452976763248,   0.2193741500378,   0.2063732147217,   0.2519109249115,  -0.1089172288775,   0.1187515482306,   0.0750062465668,   0.1127460449934,   0.0178965479136},
   {   0.0697726979852,   0.2488030493259,   0.0573140718043,   0.0000880478110,   0.2118258923292,   0.0978775992990,  -0.0807234421372,   0.1555636674166,  -0.1825445443392,   0.1516153663397,   0.1669723242521,   0.2000240087509,  -0.0590379014611,   0.1825198084116,   0.2132623940706,   0.0048646791838,  -0.1672658920288,   0.2066514492035,   0.0088021801785,   0.1617539227009,   0.1361255496740,   0.1424551308155,   0.0426664203405,   0.2530598044395,  -0.1001646518707,  -0.1954609751701,  -0.1712065488100,  -0.0426689088345,   0.2176185399294,   0.1203578412533,  -0.0432935580611,  -0.2097353339195,  -0.1749206334352,  -0.2138965427876,  -0.1178985387087,   0.0239137969911,   0.1904457807541,   0.1480081379414,  -0.2046833187342,   0.1875823438168,  -0.0342191010714,  -0.1176778450608,   0.0000538938366,  -0.1660757660866,   0.1620283424854,   0.1773302108049,   0.1892948746681,  -0.0224709473550,   0.0800798907876,   0.0548596978188},
   {   0.1816456317902,  -0.1473614573479,  -0.1090953201056,   0.0148115707561,  -0.0769925266504,   0.0254102032632,   0.0276452805847,   0.1198453605175,   0.2708133459091,  -0.0782300233841,   0.1525938957930,  -0.1423819363117,  -0.2278849780560,   0.0765219405293,  -0.1872986555099,  -0.2189257740974,   0.1189202144742,  -0.1232193261385,  -0.0873784944415,  -0.0111378803849,   0.0798430219293,  -0.1594598740339,  -0.1544166952372,   0.0643888637424,  -0.1792310774326,   0.2332716137171,   0.1058891862631,   0.0696388483047,   0.1672944575548,   0.2388682961464,   0.1255148798227,  -0.0603053495288,   0.0044361217879,   0.1958489418030,   0.1435278207064,   0.0253043789417,  -0.2530053555965,   0.0231557134539,  -0.0913940295577,  -0.1669696122408,   0.2144278585911,   0.0240210276097,   0.0542373917997,   0.1578880995512,  -0.0729676038027,   0.0592520311475,  -0.0667163580656,  -0.2242064625025,   0.0241574458778,  -0.1733733415604},
   {  -0.2378122657537,   0.1469494998455,  -0.1730467528105,  -0.1854696422815,  -0.0797765329480,  -0.2318836003542,  -0.0266704373062,  -0.1248164996505,   0.0487779118121,  -0.1603666245937,   0.1533752679825,   0.2136272490025,  -0.1717249453068,  -0.1903951466084,  -0.2426480799913,   0.2159141153097,  -0.2127722948790,  -0.1092290133238,  -0.0691288635135,   0.0387847386301,   0.1394190937281,   0.2087063342333,   0.1654059737921,   0.0842429250479,   0.0257153939456,  -0.1680134534836,   0.0098661035299,   0.2464496493340,   0.0369556359947,  -0.0964386612177,  -0.0954942107201,  -0.2080594748259,   0.2138110697269,  -0.2269837409258,   0.0788827314973,  -0.0438911877573,   0.1164995655417,  -0.1290220022202,   0.2126550525427,   0.2221347689629,   0.2096165120602,   0.1261217743158,   0.0814877599478,  -0.1452242732048,  -0.2371497899294,  -0.0113332672045,  -0.2038011103868,   0.1427257210016,   0.0106192054227,  -0.1297110915184},
   {  -0.0740770101547,  -0.1132208779454,  -0.0354876667261,  -0.1761531680822,   0.1857634782791,  -0.1597321927547,  -0.1748865693808,   0.2017647027969,  -0.1681836694479,  -0.2163594067097,   0.1920707076788,   0.1471695750952,  -0.1645758301020,  -0.1505355238914,  -0.1345985531807,  -0.2009894102812,   0.1289197355509,   0.1699880212545,  -0.0051451190375,   0.1721423268318,   0.1499210149050,  -0.0778621062636,  -0.1348981559277,   0.1143251135945,   0.1386009454727,   0.1134039983153,   0.0545385628939,   0.0030449691694,  -0.1784875243902,  -0.2183596044779,   0.2023708522320,   0.1535284072161,   0.2365954965353,  -0.1838129311800,  -0.2305102497339,   0.0274327266961,  -0.0106786563993,  -0.0326541364193,  -0.0304705537856,  -0.1084647104144,  -0.0385856665671,  -0.1639283001423,  -0.1894939094782,  -0.2048755437136,  -0.0179021153599,  -0.2713247239590,  -0.0913712605834,   0.0054566962644,   0.0125450063497,  -0.2120222598314},
   {   0.1848421543837,  -0.1622512489557,  -0.0267348047346,   0.1061141416430,   0.1766979396343,   0.1756919026375,  -0.1213849931955,   0.1275486201048,   0.1400978565216,   0.0183931346983,  -0.1551898717880,  -0.0648558288813,   0.2288680076599,  -0.1117674633861,   0.1027235016227,  -0.0728793218732,   0.0874225422740,  -0.0636174753308,   0.2181192934513,   0.1332512646914,  -0.1008144170046,  -0.1404680162668,  -0.1741601377726,   0.2088496536016,  -0.0181712824851,  -0.0338902883232,  -0.0905178859830,  -0.1496176570654,  -0.2070998549461,  -0.1592621803284,  -0.0394453778863,   0.1307139247656,   0.1376411169767,   0.1747184395790,   0.1875138431787,   0.1698415875435,  -0.1775279343128,  -0.1524264216423,  -0.2110825628042,   0.0844041034579,   0.1631377935410,   0.0220028385520,   0.0790425911546,   0.0508457608521,   0.1671420931816,  -0.0607478842139,   0.1600401997566,   0.0014481005492,   0.0272880066186,  -0.0356286726892},
