
    // Select all (Ctrl+A), Copy (Ctrl+C), paste to an empty text file (Ctrl+V) and save that file as 'generated_code.h'
    // 
    // Auto-generated header file. Assumes img to be a floating point array
    // of 64 elements (corresponding to an 8x8 b&w image)

    #include <math.h>

    float norma_VBS;
    
inline float activation_VBS_0 (float x, float n) 
{ return x > 0 ? x : 0;}
inline float activation_VBS_1 (float x, float n) 
{ return x > 0 ? x : 0;}
inline float activation_VBS_2 (float x, float n) 
{ return exp(x)/n;  }

    float guess_VBS (const float *img, int flag)
    {
    
  // Declare the arrays in the stack
  const float kernel_0[9][108] = 
  {{  -0.1477871686220,  -0.1962922215462,  -0.1737034469843,   0.0259755589068,  -0.0989434048533,  -0.0384807847440,   0.0130920521915,  -0.1951810717583,   0.1709070801735,  -0.1115698441863,   0.0727128908038,  -0.0456781089306,  -0.0071421614848,  -0.1025132089853,  -0.3284221291542,   0.1110845133662,  -0.2663394808769,  -0.0202042907476,   0.1260660141706,  -0.2561464011669,   0.1039124727249,  -0.0388508141041,  -0.1042807474732,  -0.1276368945837,   0.0777832493186,   0.2044915854931,  -0.1063676774502,  -0.2236728519201,   0.1431926488876,   0.0161914657801,   0.1495404392481,   0.0642250925303,  -0.0853045061231,  -0.0537811666727,   0.1560000777245,   0.1421681493521,   0.2228032797575,   0.0354700461030,   0.0967512279749,  -0.1860822886229,   0.0163578838110,  -0.1163310930133,   0.0267316419631,  -0.3057362139225,   0.0353250913322,  -0.0248115118593,  -0.2789641320705,   0.1397406011820,  -0.2600316107273,  -0.1669063866138,   0.1361267566681,  -0.3105767667294,   0.0237009450793,  -0.0722559690475,  -0.1316277533770,   0.1722029894590,  -0.1690996140242,   0.1184856146574,   0.0286560561508,  -0.1702134758234,   0.0322108604014,   0.0669931769371,   0.0760515108705,   0.1921128034592,   0.0041223568842,  -0.2820973992348,  -0.2614691555500,   0.0871211141348,  -0.1128898933530,   0.1493958830833,   0.1423352658749,  -0.2378346771002,  -0.0841192156076,  -0.0965892449021,   0.0106822382659,   0.2300355881453,   0.2207227647305,   0.0261402595788,   0.2140095233917,   0.0054666181095,   0.0585546046495,  -0.0045551084913,   0.1450122743845,   0.0251800864935,   0.2196467369795,  -0.2084794044495,   0.2302062362432,   0.1703451424837,   0.1375314444304,   0.1524818986654,   0.0229793954641,   0.2012258768082,  -0.0295800380409,  -0.2354213446379,   0.1596304178238,  -0.1292569041252,  -0.2582066953182,  -0.2560744583607,   0.2234040200710,  -0.0625590756536,   0.0259399190545,  -0.0138314366341,  -0.0585933215916,   0.0001266570907,   0.0519276857376,   0.2042546272278,   0.0681009367108,   0.0855316594243},
   {   0.1610735952854,   0.0165110137314,   0.0200961604714,  -0.0100230695680,   0.0081801936030,   0.0707212164998,   0.1782700866461,  -0.2304899543524,   0.1864614039660,  -0.2129567414522,   0.1810088902712,  -0.1576329618692,   0.1148566529155,   0.1409909129143,  -0.2687033116817,   0.1303107440472,  -0.1569805294275,   0.2057774960995,  -0.0432929582894,   0.0577452853322,  -0.0079155946150,   0.1558808982372,  -0.1407557278872,  -0.1448714435101,   0.1188497990370,   0.1685287952423,   0.1910089552402,  -0.1049999371171,  -0.0940299406648,   0.0632067695260,   0.0987481400371,   0.2125889360905,   0.1200352683663,   0.1036952808499,  -0.0051634768024,  -0.0463227704167,   0.0829176753759,   0.1505040973425,   0.0908958390355,  -0.0641571730375,   0.1759475022554,  -0.0257504619658,  -0.2233440876007,  -0.2825367748737,  -0.0558684617281,   0.1319102793932,  -0.1035342514515,   0.2104820013046,  -0.1868421733379,   0.2046233266592,  -0.3436083495617,  -0.1065693125129,  -0.1786503493786,   0.0105756819248,  -0.1498129516840,  -0.1846949160099,   0.1538257002831,  -0.0243773162365,   0.2299274057150,  -0.0295758750290,   0.0145465778187,   0.0764705613256,  -0.0905431658030,   0.0387857817113,   0.1656585484743,   0.1668096035719,  -0.1129868105054,   0.1624922156334,   0.0785603299737,  -0.1417230516672,  -0.2119728773832,  -0.1600291728973,  -0.1202438473701,   0.0197619702667,   0.3069184124470,  -0.0076886513270,   0.0752029567957,  -0.0574773699045,  -0.0327092073858,  -0.1915570944548,  -0.1740785390139,   0.0492391884327,   0.0445143245161,  -0.0550258308649,   0.2342008352280,  -0.2160907983780,  -0.0555886179209,   0.0942131057382,  -0.1222546175122,  -0.1205704584718,   0.2556634247303,   0.2438203692436,  -0.1561637967825,   0.0408944040537,   0.0078478250653,   0.0505011007190,   0.1356061547995,  -0.1318175494671,   0.0308001041412,  -0.0230484195054,  -0.0104547385126,  -0.2574966549873,  -0.1619181782007,   0.1361154466867,  -0.0897373929620,   0.1027095392346,  -0.0815794542432,  -0.0971515327692},
   {   0.2108932882547,   0.1801570802927,  -0.2728953659534,   0.0044475821778,   0.0053944108076,   0.0488839261234,  -0.1870207041502,  -0.0153982238844,   0.2000660449266,  -0.2180823683739,   0.2236480116844,   0.0466281063855,  -0.0497745089233,  -0.2294625490904,  -0.0977173000574,  -0.2027325332165,   0.1370811164379,   0.1038392782211,   0.0663849338889,   0.0114039750770,   0.0366867557168,  -0.0344771854579,   0.0363010913134,   0.0683318898082,   0.0026099306997,  -0.1555769145489,  -0.0856873914599,   0.2477401942015,   0.0954282134771,   0.0561790540814,   0.0327795371413,   0.1739337891340,  -0.1556303799152,  -0.0689404085279,  -0.0704457685351,   0.0589021109045,  -0.2490181326866,   0.1110073626041,  -0.1049407869577,   0.0233375430107,  -0.0075005600229,  -0.0011671936372,   0.1079312711954,  -0.1227661818266,  -0.1478462070227,  -0.0959975644946,   0.1738851517439,   0.0290648117661,  -0.0970310196280,   0.1465876400471,  -0.0376403108239,  -0.0828220322728,   0.2506112456322,  -0.2013996243477,  -0.0831336304545,  -0.0312795899808,  -0.1584689617157,   0.0821757763624,   0.0021294355392,  -0.1695968955755,   0.1190618723631,   0.0823672339320,  -0.2522503137589,  -0.0316011607647,  -0.0586687363684,  -0.2529787123203,   0.0562941357493,  -0.1641773283482,   0.0220019072294,   0.1553263068199,   0.0641696974635,   0.1036262512207,   0.2006202787161,   0.1284221857786,  -0.0956371873617,  -0.0753548368812,   0.0394413657486,  -0.1666554510593,  -0.0813597589731,  -0.2007333934307,   0.0958011895418,   0.1190352886915,  -0.0835291445255,   0.2282331436872,   0.0825373455882,  -0.1004626527429,   0.1317034810781,   0.2210247814655,  -0.1810461729765,   0.1929147243500,  -0.2594870328903,   0.0882353708148,  -0.1531570404768,  -0.1498334258795,   0.0808744356036,  -0.1224602460861,  -0.0955937877297,  -0.1457260549068,   0.2310516983271,  -0.0452406331897,  -0.1216382309794,   0.0412435010076,  -0.1898803114891,  -0.0398435108364,  -0.0194943770766,  -0.0320095680654,  -0.0476650707424,  -0.0403918363154},
   {   0.1304211467505,  -0.2084724605083,  -0.0705324560404,  -0.1491863727570,   0.1922086179256,  -0.1484289467335,  -0.2601450681686,  -0.1731080263853,   0.1687126755714,  -0.1137977987528,   0.0977395251393,   0.0378607995808,  -0.1658992618322,   0.0304459650069,  -0.1685231328011,  -0.2099471390247,   0.1275952011347,   0.0948555916548,   0.0420333817601,  -0.0568252876401,   0.1220567971468,  -0.1212835311890,   0.0270400084555,   0.2086619138718,   0.1370596438646,  -0.1975198239088,   0.1848945319653,  -0.0491439178586,  -0.1639323681593,   0.0957801416516,   0.0060543352738,   0.0151855330914,  -0.1867412924767,   0.1059334874153,  -0.1958591192961,   0.0019176509231,  -0.2044531106949,   0.0687021613121,   0.0158130712807,   0.0392918586731,   0.0063238716684,   0.0278509370983,  -0.0078228758648,   0.0838686600327,   0.0231551136822,   0.0168598219752,   0.1297147870064,   0.1530688852072,   0.0053331935778,   0.0170090757310,   0.0349216312170,  -0.0709285140038,  -0.1433957964182,  -0.2491243183613,  -0.0144167905673,  -0.1839224100113,   0.0899357274175,   0.0576292425394,  -0.1012201905251,   0.0007620554534,  -0.1918876916170,  -0.0983023867011,   0.1117883473635,  -0.0148055218160,   0.0590829141438,  -0.2466898411512,   0.2236481308937,  -0.1912137866020,  -0.2748790681362,   0.1076753512025,  -0.1045210435987,   0.0163797028363,   0.1820916682482,  -0.0007561097736,   0.0720198825002,   0.0736603960395,   0.1677225381136,  -0.1465496271849,  -0.2363538742065,  -0.1521544903517,  -0.1154100373387,   0.0931027755141,  -0.1464254260063,   0.0344194397330,  -0.0683874040842,  -0.0754296556115,   0.1802169084549,  -0.0944265350699,   0.0550360642374,  -0.0925682485104,  -0.1087144240737,   0.0765564963222,  -0.0489328280091,   0.1518697887659,   0.0577696152031,   0.1339276731014,  -0.3001117408276,   0.0052058082074,  -0.0137142203748,   0.1580752134323,  -0.0555744618177,  -0.2646886706352,  -0.0310333333910,   0.0331407189369,  -0.0191039573401,   0.0619186535478,  -0.2000607252121,  -0.0187199711800},
   {  -0.1560689657927,   0.0551662109792,   0.0794956907630,   0.1053429841995,  -0.1379939466715,   0.0974632874131,   0.1121533885598,   0.1294825822115,   0.1140712946653,   0.1079822704196,  -0.2474967241287,   0.0821569263935,   0.0435446277261,   0.0771690011024,   0.0929692685604,   0.1788727194071,   0.2822688519955,  -0.0528689511120,   0.1619793772697,   0.1944153755903,  -0.0673368200660,  -0.0592584274709,  -0.1221901699901,  -0.0292523112148,  -0.2519739866257,   0.1845750808716,  -0.0864975079894,  -0.1604082584381,   0.0203929543495,  -0.1936522871256,  -0.0237756483257,  -0.1119757220149,   0.0918769314885,   0.0382253117859,   0.0277745351195,   0.1900309175253,   0.0222675092518,   0.2316830605268,  -0.2299015969038,   0.1049673482776,   0.1653979271650,  -0.2140951305628,  -0.1627030670643,  -0.1828509420156,   0.1719248294830,   0.0946866646409,  -0.2053139507771,   0.1213247701526,  -0.1189091503620,  -0.2099593728781,  -0.1554813832045,   0.0968615934253,  -0.1191913783550,   0.1253628432751,  -0.1216623559594,  -0.0815992578864,   0.1762973666191,  -0.2200085073709,  -0.1997526437044,  -0.0995591580868,  -0.0064277914353,  -0.1827760338783,   0.0562020726502,  -0.0156080629677,  -0.3119921386242,   0.1031461134553,   0.0384048521519,   0.0695682764053,  -0.1194579303265,  -0.1829189956188,   0.1640665829182,  -0.3005982935429,   0.1523996889591,  -0.1891133338213,  -0.1536359488964,   0.0688535273075,  -0.1565507352352,   0.0482253655791,  -0.0777431726456,  -0.1861355453730,  -0.1498910635710,  -0.1474658250809,   0.1137006431818,   0.1692833304405,  -0.2217585295439,   0.1586512178183,   0.0380719825625,  -0.2556206583977,  -0.0184057187289,  -0.1718832105398,  -0.0791770666838,   0.2272144407034,  -0.2691899240017,  -0.1326245069504,   0.1475151479244,  -0.1446776390076,   0.0811117365956,   0.1692118346691,   0.2189841270447,   0.1931875050068,   0.0237465780228,  -0.1562038809061,   0.1577158719301,  -0.0196897126734,  -0.1589190810919,   0.1954662650824,   0.0261907931417,   0.0325755588710},
   {  -0.1423820257187,   0.0706590935588,  -0.0381904132664,  -0.0316540636122,   0.1711635440588,  -0.0164638478309,  -0.0061036646366,  -0.0884798541665,   0.0397618301213,  -0.0784402489662,   0.1694664955139,   0.0620675310493,  -0.1693210750818,   0.2048018574715,  -0.1867012679577,  -0.1780468970537,  -0.0467817112803,  -0.1468964666128,   0.1772566437721,   0.0284818522632,   0.0777768790722,  -0.1360450237989,  -0.0349983721972,   0.1895880997181,  -0.1018016263843,   0.1143846437335,   0.0226800758392,  -0.1503380835056,  -0.1976463645697,   0.0085729015991,  -0.1122387796640,   0.0000447350903,  -0.0188489630818,   0.1163104400039,   0.0630677118897,  -0.1656931638718,  -0.0836795121431,   0.1201463714242,   0.0169922616333,  -0.2214955240488,  -0.0545686520636,  -0.1007971391082,  -0.1196245178580,   0.0585685670376,   0.1100388020277,   0.2098793387413,  -0.0325513817370,  -0.1308902800083,  -0.0789557173848,  -0.0903516486287,  -0.0958042070270,   0.0812091082335,   0.1630339920521,   0.1986159235239,  -0.0801910161972,  -0.0077346297912,  -0.0585467778146,   0.0638087466359,  -0.0169017259032,  -0.0285783950239,   0.1926953941584,  -0.0324573963881,   0.1255534142256,   0.0652876794338,  -0.2091588675976,  -0.0957104414701,  -0.1214928478003,   0.2262457907200,  -0.0693396255374,   0.0451346412301,   0.1553435027599,  -0.1875087022781,   0.2012879103422,   0.0623322799802,  -0.0675095245242,  -0.1625294536352,  -0.0900796875358,   0.1110818758607,  -0.2287435829639,   0.1207298710942,   0.1089128106833,  -0.1053373739123,   0.0693613067269,  -0.1463487744331,  -0.0770888701081,   0.0952452868223,  -0.1547298729420,   0.0411335900426,  -0.2315291315317,   0.1057811751962,   0.1839418560266,   0.0894982591271,  -0.2107917368412,   0.1925132274628,   0.0990443900228,  -0.0395136140287,   0.0211098808795,  -0.1891176104546,  -0.0834928750992,   0.1693677753210,   0.1928409039974,  -0.1495433151722,   0.2250787466764,   0.1797832548618,  -0.1612948924303,  -0.1370969563723,  -0.1459493488073,   0.1555050462484},
   {  -0.0050845397636,  -0.0103943515569,   0.2784201204777,   0.0462785996497,   0.0824046432972,  -0.0017668174114,  -0.0612632445991,   0.1966315209866,  -0.1403172165155,   0.0186306629330,  -0.1217710748315,   0.0940456241369,  -0.1581947505474,   0.1263553351164,   0.0003480664745,   0.2270907312632,   0.0040426268242,  -0.0954610481858,   0.0352880246937,  -0.1615016609430,   0.0701204687357,   0.0433593429625,  -0.2420988380909,  -0.0239688456059,   0.1237942427397,  -0.2022426426411,  -0.2279978096485,  -0.2150823026896,  -0.1908023059368,   0.0507184006274,  -0.1933852881193,   0.1406910121441,   0.1455403268337,   0.1974993199110,   0.2890152335167,   0.1059363782406,  -0.0127973854542,   0.1394129246473,  -0.0059130783193,  -0.0999739244580,   0.0062766917981,  -0.0109285600483,  -0.1780755817890,   0.2153071761131,  -0.0292457789183,   0.1729429364204,   0.2846351563931,  -0.1905751079321,  -0.0177521929145,   0.1076403781772,   0.1747954636812,   0.1218095645308,  -0.1265197843313,  -0.1832583099604,  -0.1949450522661,   0.1083293184638,  -0.0976553112268,   0.1597369760275,   0.1697024554014,  -0.0848589837551,  -0.1285345554352,   0.1186563149095,   0.0022448301315,   0.0018392028287,  -0.1308023184538,   0.2020129710436,  -0.0655275508761,  -0.0877080187201,   0.2813980877399,  -0.1640371382236,  -0.0901160091162,   0.1952196806669,  -0.1163116395473,  -0.1506383419037,   0.0948118269444,  -0.0733787789941,  -0.0986300036311,   0.1815311163664,  -0.1923164576292,  -0.1277349889278,  -0.1412811279297,  -0.0893392264843,  -0.1526597589254,  -0.2323289811611,  -0.1621122509241,  -0.2091500610113,  -0.1115953624249,   0.2074733525515,  -0.0575933605433,   0.1116923317313,  -0.1928105056286,   0.1410142183304,  -0.0460574179888,  -0.2366497963667,   0.0030275390018,  -0.1894585788250,   0.1253780126572,  -0.2370691150427,   0.1554478853941,  -0.0545231439173,  -0.1638134121895,  -0.2104793041945,   0.0849114954472,  -0.0166498348117,   0.1635154336691,   0.1586204618216,   0.0060047083534,  -0.0442391522229},
   {  -0.2383866757154,  -0.2220247387886,  -0.1243505179882,   0.0000108274508,   0.1008084490895,   0.1808900237083,  -0.1606257706881,  -0.1303219944239,   0.2171947360039,   0.0012462784071,   0.0137033862993,  -0.1865611076355,  -0.0123690245673,   0.1289241462946,  -0.0731282159686,  -0.1411171853542,   0.2190727591515,   0.1784279346466,   0.0682986527681,  -0.0349896661937,   0.1909215301275,   0.0871184542775,  -0.1604532897472,  -0.0810756087303,  -0.0222235452384,   0.0138165345415,  -0.0183855649084,   0.0500466227531,  -0.0091276178136,  -0.1373715400696,  -0.2199721932411,   0.1578782945871,  -0.1278270930052,   0.2316262573004,   0.1653728634119,  -0.1952552795410,   0.0139046628028,   0.1814307570457,  -0.1801843941212,   0.1164973452687,  -0.2069903314114,   0.1713565140963,  -0.1598227918148,  -0.0137398540974,  -0.1121413782239,  -0.1789548844099,  -0.1176730617881,   0.1171302497387,  -0.1919450908899,  -0.1064438596368,  -0.0788713544607,   0.2172141075134,   0.0162870679051,   0.2195132821798,   0.0028762232978,  -0.0176810957491,  -0.0715943798423,  -0.1452085226774,   0.0141829000786,   0.0267575196922,   0.1044158637524,  -0.0556672550738,  -0.0648232847452,  -0.2450903207064,  -0.0908553749323,  -0.0490017533302,   0.0493586622179,   0.2321318835020,   0.1067832261324,  -0.0606122612953,  -0.0143863782287,   0.1014064177871,   0.0710409358144,   0.0586454756558,  -0.1338794082403,  -0.1502428799868,   0.2734769880772,   0.1324721872807,  -0.0374672450125,   0.0519456230104,  -0.1852614581585,  -0.0144626805559,   0.0202623251826,   0.1073795557022,  -0.1310285776854,  -0.1919837146997,   0.0098130516708,  -0.0655762404203,   0.0986724123359,  -0.1613011211157,  -0.1547946780920,   0.0223549772054,   0.1255517899990,  -0.1636448800564,  -0.0429002493620,   0.0113862492144,  -0.2151181846857,  -0.0771131515503,  -0.0147817889228,  -0.0854599401355,  -0.0720291957259,  -0.0778054893017,   0.2784762382507,  -0.1185345798731,  -0.1027668416500,  -0.0580308176577,   0.1540061384439,  -0.0232803374529},
   {  -0.2277539670467,  -0.1703147590160,  -0.0656813010573,   0.2012746334076,  -0.2271032184362,   0.1172258332372,  -0.1371431052685,  -0.1278909742832,   0.0036460380070,  -0.1497263014317,  -0.1334313005209,   0.1105969622731,  -0.0835552811623,  -0.1042184829712,   0.1275104731321,  -0.2234923988581,  -0.1223348453641,   0.0838426798582,  -0.2259202301502,   0.0030999558512,   0.1690701246262,   0.1712157428265,  -0.0950855091214,   0.0010529540014,   0.2607840001583,   0.1723336279392,  -0.1140616610646,   0.0964515507221,   0.0066303689964,  -0.1277095973492,  -0.0675350576639,   0.0088915778324,  -0.1542541384697,   0.0489108525217,   0.1109803169966,  -0.1697476208210,   0.0989838019013,  -0.1710921674967,   0.1492243856192,  -0.0716235563159,  -0.2044866532087,  -0.0952253341675,  -0.0338368378580,  -0.1663172990084,  -0.0182487238199,  -0.0945437327027,  -0.0729138851166,   0.2325506359339,  -0.1639769822359,  -0.0284691397101,   0.0779467001557,   0.0469400547445,   0.1358668804169,   0.0472574457526,   0.1224763020873,   0.0062959673814,  -0.0670288279653,  -0.1770416945219,   0.0471252724528,  -0.0923676490784,  -0.1742689013481,  -0.0582449994981,   0.1880944073200,  -0.2245641052723,  -0.2385227084160,  -0.1456240713596,   0.1158246770501,   0.1670724898577,   0.1689239442348,   0.0871737450361,  -0.0261594951153,  -0.0431990548968,   0.1452452093363,  -0.1548355221748,   0.0679286941886,  -0.0756616666913,   0.2133442908525,   0.1921024024487,  -0.0291717723012,   0.1818105280399,   0.1323745846748,  -0.0547450929880,  -0.1663551628590,   0.0290808510035,   0.1015454307199,   0.1372766941786,  -0.0491347759962,   0.1435807794333,  -0.1351140141487,  -0.1089788675308,  -0.0994737669826,  -0.0364923886955,  -0.1247873976827,  -0.1361326128244,  -0.1118611916900,   0.1700642853975,  -0.0887664929032,  -0.2174641340971,   0.1266105771065,   0.2517011463642,  -0.2323784679174,   0.0761340707541,  -0.0217673201114,  -0.1484285891056,  -0.1817535609007,   0.2399282455444,  -0.1294153332710,  -0.0837402865291}};
  const float bias_0[108] = {   0.0235874447972,  -0.0369258634746,  -0.0215423647314,  -0.0113780144602,  -0.0216242726892,   0.0033363467082,   0.1393732279539,  -0.0666704326868,   0.0321369618177,  -0.0187970362604,   0.0781993865967,  -0.0236372966319,  -0.0305967796594,   0.0614650957286,  -0.0458243526518,  -0.0400111153722,  -0.0341631732881,   0.0613261647522,   0.0646696165204,  -0.0574322231114,   0.0274723600596,  -0.0339069403708,  -0.0107034100220,  -0.0462153367698,   0.1470297873020,   0.0600914135575,  -0.1375499963760,  -0.1178990080953,  -0.1218583285809,   0.0866499468684,  -0.1869945079088,  -0.0096768196672,  -0.0563304126263,   0.0450167395175,   0.0358955413103,  -0.0235945414752,   0.1222522631288,   0.0653723999858,   0.1173061430454,  -0.0128875132650,  -0.0444843694568,  -0.0574323087931,  -0.0405818633735,   0.0095570487902,  -0.0275005716830,  -0.0290071964264,   0.0096601266414,   0.0607663951814,  -0.0069300383329,   0.0912011861801,  -0.0913587063551,  -0.0732855051756,   0.0264154113829,   0.0780970454216,  -0.0491586104035,  -0.0298757404089,   0.1057221144438,  -0.0190328545868,   0.0855508893728,  -0.0315409637988,   0.0708982944489,  -0.0183347500861,  -0.0096664773300,  -0.0129974046722,   0.0767214894295,  -0.0439048334956,  -0.0555114187300,   0.1292754411697,   0.0160026568919,   0.0041921492666,  -0.0303556546569,  -0.1501735001802,  -0.0924875065684,  -0.0588315837085,  -0.0136704556644,  -0.0242765676230,   0.0785348936915,   0.0497522987425,   0.0226414613426,   0.0074991323054,   0.0501325204968,  -0.0245910026133,   0.0789666846395,   0.0541366152465,   0.0592153891921,  -0.0579099953175,  -0.0681464001536,   0.0514197424054,  -0.0488682389259,  -0.0419201850891,  -0.0059476792812,   0.0439833924174,  -0.0233804769814,   0.0048910058104,   0.0725894346833,   0.0860708355904,  -0.0438090376556,  -0.0296006854624,   0.0886639505625,   0.1266717463732,  -0.0373983755708,  -0.0297756828368,   0.0265527386218,   0.0475611276925,  -0.0294127557427,   0.0928635895252,  -0.1251867115498,  -0.0319855287671};
  // Declare the arrays in the stack
  const float kernel_1[108][60] = 
  {{  -0.1625139564276,   0.0256972592324,   0.0949961990118,   0.1748491525650,  -0.0469122305512,  -0.1519656479359,   0.1264956146479,   0.1722774356604,  -0.0944855287671,  -0.0088680833578,   0.1631572395563,   0.2069278955460,   0.0115105239674,  -0.1071064844728,   0.0346076153219,  -0.1575829386711,  -0.0395104736090,  -0.1991082876921,   0.1625029593706,  -0.1351618915796,  -0.0169997271150,   0.0826890915632,  -0.1208222433925,   0.0121550122276,   0.1346078515053,  -0.3092306852341,  -0.1532150954008,  -0.1512457281351,  -0.1062372326851,  -0.1763267368078,   0.0051592057571,   0.1384588181973,  -0.0971733555198,   0.0432432368398,  -0.1651904135942,   0.1787859946489,  -0.1865325719118,  -0.1531596183777,   0.1364033967257,  -0.1905535608530,   0.2523212730885,   0.2238476425409,   0.1209121495485,  -0.1120193749666,   0.1714165508747,  -0.0693320333958,   0.0604490190744,   0.0678958743811,   0.0077384300530,  -0.0259430930018,  -0.0739295482635,  -0.2338385730982,  -0.1699327975512,  -0.1177066862583,  -0.3717291653156,  -0.1102006733418,  -0.1717640161514,  -0.0342417880893,  -0.1856682747602,  -0.1544368863106},
   {   0.2071916013956,  -0.0744965076447,   0.0769049972296,   0.2230837047100,   0.0857853069901,  -0.0420692674816,   0.1182566434145,  -0.1193587481976,   0.2051042169333,   0.0112740155309,  -0.0919645130634,   0.1030201688409,  -0.0399402268231,  -0.0818305462599,  -0.0837161689997,  -0.0631403476000,  -0.0257183033973,   0.1430040150881,  -0.1236970722675,  -0.1364519745111,  -0.0384391099215,  -0.0960416421294,  -0.0157048348337,   0.0563157051802,   0.0024850321934,  -0.0950361937284,   0.1058790683746,   0.1869790852070,   0.1693100482225,  -0.0835031345487,   0.0007994549233,   0.1207323372364,   0.1466268301010,  -0.1801099777222,   0.0713294297457,   0.0022611925378,  -0.0083766896278,  -0.0942301601171,   0.1002899110317,  -0.1272888332605,  -0.0391471944749,  -0.0762608721852,   0.0916440710425,   0.0416970178485,   0.2143422067165,   0.0289478823543,   0.0907303169370,   0.0296999271959,   0.1229917630553,   0.0066685099155,  -0.1514958292246,   0.0940444245934,  -0.1728084087372,  -0.0158071983606,  -0.2478355765343,   0.0828551948071,  -0.0929073244333,  -0.0307729039341,   0.1964912861586,   0.1168872043490},
   {  -0.0675850734115,  -0.1501110196114,  -0.0179771259427,  -0.1977572441101,   0.0265496596694,   0.1860576272011,  -0.0355237610638,   0.1632226258516,   0.2329110354185,   0.0253138206899,   0.0601649358869,  -0.0890950113535,  -0.0303667765111,   0.1154629960656,  -0.2524773478508,   0.0696708858013,  -0.0973076596856,   0.1165098771453,   0.0712079107761,  -0.0078689623624,  -0.1659883707762,   0.0571749843657,   0.2013561874628,   0.1429146379232,   0.0107541205361,  -0.1665039360523,   0.1114505976439,   0.1308538466692,   0.1252483874559,  -0.0178768541664,  -0.1346777230501,   0.1154568642378,  -0.1034501865506,  -0.0144651951268,  -0.1261288970709,   0.0576751232147,  -0.1695182472467,   0.2328262627125,   0.0266701206565,   0.1079628169537,  -0.0038684306201,   0.1214425414801,   0.0788546577096,   0.0329729765654,   0.1436529457569,  -0.0501458570361,   0.1638565957546,   0.1519644707441,   0.1191711053252,   0.2341137379408,   0.1342320740223,   0.1374343633652,  -0.1357717365026,  -0.1275330036879,  -0.0568718872964,   0.1163570582867,   0.1852673292160,   0.0168239846826,  -0.0740186348557,  -0.0051994766109},
   {  -0.0119947539642,  -0.0899761468172,  -0.0193114243448,   0.1364966779947,   0.1693138629198,   0.1681636422873,  -0.0435319989920,   0.1068945452571,   0.0450468137860,  -0.0980848297477,   0.1145414635539,  -0.0752914994955,   0.0039033279754,   0.0573427863419,  -0.1475848704576,   0.1197693347931,  -0.0236125588417,  -0.2024000883102,   0.0027002168354,  -0.1604204922915,   0.1725526303053,  -0.1322067230940,   0.1323107630014,   0.1967822611332,  -0.1576459556818,   0.2789486944675,  -0.0127889038995,   0.0693412795663,   0.0806943848729,   0.0512130334973,   0.0569553487003,  -0.0024737634230,  -0.0899299606681,   0.0863534063101,   0.1157430484891,   0.0034015811980,  -0.1399506032467,  -0.1048937588930,   0.0590446814895,   0.2287504374981,  -0.0657735019922,  -0.0058442167938,  -0.0239697229117,   0.0784839242697,  -0.0902898237109,   0.0018614421133,  -0.1068637892604,   0.1199493184686,  -0.0106878848746,   0.1077072918415,   0.0812495276332,  -0.0557349324226,  -0.0499285496771,   0.0700219348073,   0.0872031748295,   0.0798898562789,   0.0761968120933,   0.2165940254927,  -0.0953248441219,  -0.0769046917558},
   {  -0.0573341250420,   0.1265743970871,   0.0584924221039,   0.1000182852149,  -0.0358159691095,   0.0074488185346,   0.0463611073792,  -0.2540300488472,  -0.0145498141646,   0.1363267898560,   0.1386179625988,   0.0818754807115,   0.0328585729003,  -0.1225679218769,   0.1270725876093,  -0.1009202823043,  -0.1135685518384,  -0.0135704800487,  -0.1042288616300,  -0.0018123617629,   0.2258705198765,   0.0811476483941,  -0.1729772090912,   0.0639372766018,   0.0619486868382,  -0.0155245009810,   0.2945668101311,  -0.0039474894293,  -0.1447957754135,   0.1855767071247,   0.0582247301936,  -0.0616595223546,   0.1553394049406,  -0.1903964430094,   0.0425694100559,  -0.0370861291885,  -0.1950477510691,  -0.0695075765252,   0.0518151558936,  -0.1398763507605,   0.1629946827888,  -0.0995805934072,   0.1466802060604,   0.0037968135439,  -0.0097691230476,  -0.1622249484062,   0.1022628918290,  -0.1346675753593,  -0.1991704851389,  -0.2008017599583,   0.0718180239201,   0.1633561551571,  -0.0083022275940,  -0.0384102948010,  -0.0436723083258,   0.0692608654499,  -0.0704378858209,  -0.0716256722808,  -0.0568647608161,  -0.0654979571700},
   {  -0.1751430779696,   0.1429638713598,  -0.0094246417284,   0.0901928693056,   0.1765136122704,  -0.0321039706469,   0.1338904947042,  -0.1313147395849,   0.1993004232645,   0.0675679147243,  -0.0412233136594,  -0.2101709395647,   0.0714147090912,   0.0936430320144,  -0.1002319306135,   0.1152883097529,  -0.1184366270900,  -0.1808571368456,  -0.1246552988887,   0.0745512172580,   0.1756097972393,   0.0673872977495,   0.0930854901671,   0.1517060846090,   0.0561246201396,   0.0921010598540,   0.2447279244661,  -0.0186808556318,   0.0525774881244,  -0.1443207412958,   0.1120312660933,  -0.0205848775804,   0.0598513968289,   0.0129857202992,  -0.1170743778348,   0.1283613145351,  -0.1016194671392,  -0.0892762243748,   0.0677859261632,   0.2208202481270,   0.2270142436028,  -0.0520326942205,   0.0206696726382,   0.1988368183374,   0.0148646384478,  -0.0340346433222,   0.0848916172981,   0.1298797726631,   0.1440558433533,   0.1425282806158,   0.0363698229194,  -0.1006841883063,  -0.0909245461226,  -0.0519694089890,   0.1882619410753,  -0.0758241564035,   0.0599550828338,   0.1169073507190,  -0.1152254194021,   0.0284376684576},
   {  -0.0949584543705,  -0.1453407704830,  -0.0829326957464,   0.1633667498827,  -0.0944673493505,   0.2213548719883,   0.0041666720062,  -0.1025652736425,  -0.0840305685997,  -0.0957491919398,  -0.2232541888952,   0.1579095423222,  -0.0399119332433,  -0.0125009492040,   0.1747287809849,  -0.1899134665728,  -0.1044462099671,   0.0719477832317,  -0.0757177099586,   0.0226458366960,  -0.0084789246321,  -0.0689491555095,  -0.0623317807913,   0.1410612016916,  -0.1207633838058,   0.2848803699017,   0.0273945666850,   0.1060481071472,   0.1069703698158,  -0.0368353947997,   0.0520415529609,  -0.0408330820501,   0.0899049565196,  -0.1853270381689,  -0.0302522014827,   0.0487892553210,  -0.1113419979811,   0.1980643272400,   0.0579225569963,  -0.2131255716085,   0.0079321907833,   0.0082235839218,  -0.1603426933289,   0.1699650287628,  -0.1479195803404,   0.0877994671464,   0.1979441791773,  -0.1559103131294,  -0.1681245416403,  -0.1293149292469,   0.0797612220049,  -0.1763300746679,   0.1362762153149,  -0.0671509727836,  -0.0656599104404,   0.0134949078783,   0.1806253194809,   0.2163559347391,  -0.1158213317394,  -0.0657790154219},
   {   0.1784476488829,   0.0374473445117,   0.1413725018501,  -0.2201188057661,   0.0837257504463,   0.1265743672848,   0.0052804606967,  -0.0593189597130,  -0.0440553948283,  -0.1181785687804,   0.1255489438772,   0.1958944201469,  -0.1526473313570,  -0.0038559560198,  -0.1568020880222,   0.2115755081177,   0.1777930557728,  -0.0781681537628,  -0.1081400290132,  -0.0606157444417,   0.1293051391840,  -0.0926384255290,   0.2103817611933,   0.0831627920270,  -0.0151661597192,  -0.2097860276699,  -0.0504530183971,   0.2012045830488,  -0.1849125027657,  -0.1962988078594,   0.1043960601091,  -0.1390534490347,  -0.1586417704821,   0.1583177000284,   0.1338475644588,  -0.1069096252322,  -0.1549031436443,  -0.1032547056675,  -0.1951414197683,  -0.0505995601416,   0.1721103042364,  -0.0856697633862,   0.1807699799538,   0.0438772477210,   0.0948084145784,   0.2042071819305,  -0.0988445356488,   0.0878394171596,   0.0265377182513,  -0.0907255113125,   0.0576704144478,   0.0988127887249,  -0.1225748285651,  -0.0669942051172,  -0.0346995554864,  -0.0462291203439,   0.1458944976330,   0.0713403150439,  -0.0438971854746,  -0.0705192685127},
   {   0.0678820386529,   0.1353125423193,   0.1052481532097,   0.0511164255440,  -0.0137448655441,  -0.0417612940073,   0.1383356302977,  -0.0450574085116,   0.0005762654473,   0.1072482392192,   0.0589215643704,   0.1733560115099,   0.1608750820160,   0.0317454226315,  -0.1007574051619,  -0.0888503417373,   0.1173050999641,   0.1177187711000,  -0.1606239676476,   0.1711811423302,  -0.1642548292875,   0.1392383575439,   0.1191884204745,   0.0373908951879,  -0.1981319189072,   0.1730219721794,  -0.0089607993141,  -0.0507781468332,   0.0326028093696,   0.1368537694216,  -0.0976885929704,   0.1713968962431,  -0.0148672582582,   0.0637391358614,   0.0616119503975,   0.1297513842583,  -0.0564862489700,   0.0861204490066,   0.0480541549623,   0.0801203474402,  -0.0162594616413,   0.0381452739239,   0.0413102358580,  -0.0962538868189,   0.0582797341049,   0.0070549342781,  -0.0327171683311,   0.0587619319558,   0.0429375842214,  -0.0528870262206,  -0.0941492915154,   0.0791096612811,   0.1787552833557,  -0.0720741599798,  -0.0260646492243,  -0.1181691661477,  -0.0617519505322,   0.0760163515806,  -0.1009350195527,   0.0830471068621},
   {  -0.1178275048733,   0.0269625037909,  -0.0244122650474,   0.0262739285827,   0.1836721599102,  -0.0302820522338,   0.1320357471704,   0.0294387098402,   0.0945210829377,  -0.1122637838125,   0.0876968353987,   0.1291521936655,  -0.1162056997418,  -0.1276205629110,   0.0870485752821,  -0.0683520734310,   0.1767786741257,  -0.1172899380326,   0.1116007566452,   0.0908320099115,  -0.1366417109966,  -0.0689760819077,   0.0450626574457,   0.0232038516551,   0.0434205755591,   0.3120577335358,   0.2486906349659,   0.0374783687294,   0.0698824152350,   0.0578281693161,   0.0647102892399,   0.0731850787997,  -0.2019796520472,  -0.0538361370564,  -0.0833466947079,   0.1987872272730,  -0.0103191332892,  -0.0189510323107,   0.0860309004784,  -0.1369227170944,  -0.1566511243582,   0.1611164659262,   0.2064069062471,  -0.1336583197117,   0.1735659241676,   0.1537785083055,   0.1588270813227,  -0.0840739607811,  -0.0645727291703,  -0.1015374660492,   0.0540362522006,   0.1616076827049,   0.0392502509058,  -0.1468633413315,  -0.0984878614545,  -0.0096291936934,   0.2048117816448,  -0.0793685466051,   0.1524399816990,  -0.2079820930958},
   {  -0.0298634096980,  -0.0836209207773,  -0.0094510279596,  -0.1656036078930,  -0.0986302644014,   0.2285801619291,  -0.1258829832077,  -0.1141396984458,  -0.1907498687506,   0.0373106226325,   0.2011985629797,  -0.1280258744955,   0.1748667508364,   0.0610002726316,  -0.0927113890648,   0.1272424906492,   0.0545481741428,  -0.1163801327348,   0.0274698529392,   0.1104019731283,  -0.0056623588316,   0.0529618300498,  -0.1804852038622,   0.0335101224482,   0.0591493025422,   0.1979778259993,   0.1608368903399,  -0.1581453382969,   0.1506662517786,   0.0440596900880,   0.1740906238556,   0.0620005726814,   0.1401091217995,   0.0589622631669,   0.0178331881762,  -0.1403516232967,   0.0508522614837,   0.1082211956382,   0.0502346642315,   0.0898601561785,  -0.0329244621098,  -0.1037416011095,   0.0723579302430,  -0.0405228063464,   0.0407537743449,  -0.2229478210211,  -0.1076662689447,   0.1533901244402,   0.1199277639389,  -0.0766823142767,  -0.0026395081077,   0.1682797223330,  -0.0765858963132,  -0.0033112820238,   0.0120989792049,  -0.2097106128931,  -0.0603622086346,   0.1947335302830,   0.1664310991764,  -0.0060320473276},
   {   0.0673140883446,   0.0035404399969,  -0.0001538436627,  -0.1298409104347,  -0.1962328702211,   0.0665242299438,   0.0241217091680,   0.0431743599474,  -0.0955273360014,  -0.1177971065044,   0.0043889097869,   0.0183742977679,   0.0201384909451,   0.1663960069418,   0.1957347244024,   0.1298644393682,   0.0814110934734,   0.0824455693364,   0.0757590830326,  -0.1441925168037,  -0.0092467395589,   0.1276635229588,  -0.0795728862286,   0.0759664624929,  -0.1472062915564,  -0.0322228856385,   0.0534473471344,   0.0780952572823,   0.1638173758984,  -0.1440746784210,   0.0273586343974,   0.0292802862823,   0.1065739840269,  -0.1345947682858,  -0.1678527146578,   0.0726470425725,   0.0001571553876,  -0.0361233949661,   0.0688151046634,   0.0596331730485,   0.1598416864872,   0.0551555454731,   0.0665380358696,   0.1207093074918,  -0.1347593963146,  -0.0252835638821,  -0.0391739197075,  -0.0990823358297,   0.0308801010251,   0.0747918039560,   0.0655698254704,   0.0491295792162,   0.0051942300051,   0.1371329426765,   0.0493689291179,   0.0346542447805,  -0.0184548888355,  -0.1156039685011,   0.1869266927242,  -0.1288336366415},
   {   0.1778106391430,   0.0158107411116,   0.0435028709471,  -0.1525928527117,   0.1887025088072,  -0.1004708334804,   0.0866556540132,  -0.0159949250519,  -0.1073350608349,   0.0265330001712,  -0.1586798131466,   0.1394079327583,   0.1365592330694,   0.1459384560585,  -0.0252810809761,   0.1059640571475,  -0.0588780380785,  -0.1866638809443,   0.0304349195212,  -0.1154666244984,  -0.0015231912257,  -0.0032578762621,  -0.1074931472540,  -0.1332810968161,   0.0779910162091,  -0.2095830738544,  -0.1778317391872,  -0.1414755582809,  -0.1880928725004,   0.1631313711405,   0.2085390836000,  -0.0904208496213,  -0.1315347254276,   0.1292099654675,   0.1334120482206,   0.1406552344561,  -0.1513696312904,  -0.0598328374326,  -0.0034336964600,   0.0584791079164,  -0.1739154011011,   0.1370602697134,   0.0882476568222,  -0.2030711919069,   0.0594271160662,   0.1813800930977,   0.0201986189932,  -0.1185764744878,  -0.2014653682709,   0.2056240439415,  -0.0989152118564,  -0.0302836894989,  -0.0028327016626,  -0.1102064698935,  -0.0893197059631,   0.1410533487797,   0.1455232948065,  -0.1335102766752,  -0.0372738651931,  -0.0725666433573},
   {   0.0068582850508,   0.0949960425496,  -0.0296442434192,   0.0675242319703,   0.0691791176796,   0.0167410094291,  -0.1405098438263,   0.0239109657705,   0.0988231599331,   0.1664103865623,   0.0838891789317,  -0.1206128969789,   0.1950415372849,  -0.0535994321108,  -0.0654443651438,  -0.1994333267212,  -0.1094231605530,  -0.0123488111421,  -0.0942826867104,   0.0891757607460,   0.0437724404037,  -0.0795005932450,   0.0446232073009,   0.0178519096226,   0.0719802752137,   0.2813596427441,   0.0152421491221,   0.0055774711072,   0.0017581710126,   0.1671994924545,  -0.1110835447907,  -0.0591900534928,  -0.1764467805624,   0.0935840234160,   0.1340529918671,   0.0561365298927,  -0.0737688690424,  -0.1138832345605,  -0.0082960035652,   0.1403702050447,   0.0349276326597,  -0.0074128070846,   0.0804850459099,   0.0080843977630,   0.0494377054274,   0.1136817857623,  -0.1032907590270,   0.0918473154306,  -0.1025046110153,  -0.0238009393215,   0.0052938866429,   0.1663796603680,   0.1679336577654,  -0.1429056972265,  -0.0029434384778,   0.2557371556759,  -0.0215667821467,   0.0515518896282,  -0.0447050929070,   0.0926662608981},
   {   0.0655249431729,   0.0339318215847,  -0.0730694532394,  -0.0793009400368,  -0.0964321792126,   0.1594861745834,   0.0390445664525,  -0.0189855657518,   0.2854208052158,   0.0434907190502,   0.1823734194040,   0.0301600564271,  -0.1310046017170,   0.0713944733143,  -0.0880258828402,   0.1167023628950,   0.0870837867260,  -0.1326836496592,   0.0870221927762,  -0.1058756262064,  -0.2149682492018,   0.1430607140064,   0.2130307555199,  -0.1336814463139,   0.1691445857286,   0.2388052791357,   0.0020543406717,   0.2089842110872,   0.0838192552328,   0.0519173108041,  -0.1508552581072,  -0.0307414792478,  -0.0425836332142,   0.0424778722227,   0.0816449746490,  -0.0750063881278,  -0.1596090942621,  -0.1283943802118,  -0.1359347999096,  -0.1236792653799,  -0.0439917780459,  -0.1720757484436,   0.1207477152348,   0.1197403967381,   0.1706842333078,   0.0306936483830,   0.0572421029210,   0.0398249477148,  -0.0245804004371,   0.0627196952701,   0.0338199622929,   0.0742744058371,   0.2034520357847,   0.0063263261691,   0.1239042431116,   0.2160833328962,   0.1352359652519,   0.0476217046380,   0.0738178193569,  -0.0721989572048},
   {   0.0925277993083,   0.1225464493036,   0.0503042005002,  -0.1443694084883,   0.1801729053259,  -0.0828176364303,   0.0799066275358,   0.1075735613704,  -0.1603539884090,  -0.1189542114735,  -0.0742945298553,  -0.0945760980248,  -0.0632415711880,   0.1734916865826,  -0.2653156220913,  -0.0576014816761,   0.0974702909589,  -0.1070078313351,   0.0781932249665,   0.1393713951111,   0.1168686449528,  -0.0622005090117,   0.0156242279336,  -0.0915704965591,   0.1391452401876,   0.0362035222352,   0.1615857183933,  -0.1440277546644,   0.1417522579432,   0.0699703395367,   0.1883619576693,  -0.0066105793230,  -0.0339104048908,   0.0055665029213,   0.0904953181744,   0.0573458261788,   0.1144137084484,   0.1322406530380,   0.0426429621875,  -0.1104013174772,   0.1444486528635,  -0.0735869556665,   0.0432595908642,  -0.1201045811176,   0.1315711438656,  -0.1411809176207,   0.0494640395045,   0.1257603466511,  -0.0224197804928,   0.0567018985748,  -0.0631036832929,   0.1266864687204,   0.0116981817409,   0.0849280655384,  -0.1515357494354,  -0.0266201142222,   0.1123276129365,  -0.1466931253672,  -0.1225474476814,   0.1752708405256},
   {  -0.0883119925857,  -0.1117811352015,   0.0660570487380,   0.0575283505023,   0.1344221681356,  -0.1308946460485,   0.0752150490880,  -0.1232547089458,   0.0955788046122,   0.0168584417552,   0.0862300544977,   0.0584618784487,  -0.1209854930639,  -0.0500825420022,  -0.1089952737093,  -0.1128632277250,   0.1885955929756,   0.0452331826091,   0.2662450969219,   0.1122861951590,   0.0808698982000,   0.0768829584122,  -0.0195104982704,   0.0839095190167,  -0.0195770841092,  -0.2004604339600,   0.1173441559076,   0.1060409769416,  -0.0536931529641,  -0.0274920519441,   0.1403094828129,   0.1373432427645,  -0.0876562446356,   0.1070744842291,   0.1146980077028,   0.0943249315023,  -0.0588405281305,  -0.0932923704386,  -0.1964919716120,   0.0365447551012,   0.0411196425557,   0.1646307408810,   0.0225108433515,  -0.1618193984032,  -0.0929980129004,   0.2692405879498,  -0.0873990207911,  -0.0948486328125,  -0.1661878824234,   0.1098332181573,   0.2253171652555,   0.0269195754081,  -0.0669780597091,  -0.1988288909197,  -0.0886813625693,   0.2075644731522,   0.0422360375524,  -0.0745492577553,  -0.1833547055721,   0.0749181434512},
   {   0.0763434469700,  -0.0924498736858,  -0.1425198018551,   0.2108332812786,   0.0959003716707,   0.2486243993044,   0.1190451756120,   0.0665295496583,  -0.0757863149047,   0.0361828804016,  -0.0394215136766,  -0.0004724092723,   0.2039100378752,   0.0275133214891,   0.2117801308632,  -0.0127519322559,  -0.0957721844316,   0.0302424561232,   0.0775708034635,   0.0146574797109,   0.1452369093895,  -0.1502516865730,  -0.0275833290070,  -0.0343715474010,  -0.0126461787149,   0.0534446574748,  -0.0558589138091,   0.1126299872994,  -0.1805301010609,  -0.0568773075938,   0.1366645395756,   0.0391610786319,   0.0736902952194,   0.0467138811946,   0.1229545697570,  -0.0163905825466,  -0.1613784581423,  -0.0683507099748,  -0.0832670927048,  -0.1584036946297,  -0.1330879330635,   0.1727200746536,  -0.1558410078287,  -0.0383856296539,   0.0864741429687,  -0.1884182691574,  -0.0257385019213,   0.2066961079836,   0.1636843681335,  -0.1995006799698,  -0.0757606774569,  -0.0743970647454,  -0.0488045662642,   0.0680472627282,   0.0575621537864,  -0.1772936880589,   0.0703498497605,   0.1470452249050,  -0.1086028367281,  -0.0702030509710},
   {  -0.0658335238695,  -0.1449175924063,   0.0111525589600,   0.0723839923739,  -0.1301638036966,   0.0703544467688,  -0.1481337547302,  -0.2682017087936,  -0.1468399465084,  -0.2076149135828,  -0.0263259541243,  -0.2217392176390,  -0.0484546571970,  -0.0553578771651,   0.1207050383091,   0.1203773319721,   0.1436408162117,  -0.1452009677887,  -0.0155093325302,  -0.1185780018568,   0.0900573879480,   0.0628450140357,  -0.0920288637280,   0.0732543542981,  -0.2217306494713,  -0.0772147402167,   0.0986411571503,  -0.0693068802357,  -0.1411279439926,   0.0105028878897,  -0.0802542045712,  -0.0971875861287,  -0.1333548724651,   0.0178189370781,  -0.1934947818518,  -0.1473830938339,   0.0800049155951,   0.0718284696341,   0.0021336013451,   0.1313237994909,   0.1333277523518,   0.0184942316264,   0.1008280217648,  -0.1323751360178,  -0.0323639586568,  -0.0164977163076,   0.0364692434669,  -0.1563162654638,   0.0641171261668,  -0.1296292394400,  -0.1868348270655,  -0.0277810171247,   0.0642928108573,   0.1111609414220,  -0.1912340670824,  -0.2293894886971,  -0.1227106302977,  -0.0858894810081,   0.1693451702595,   0.0612087398767},
   {   0.1495562195778,   0.0002403595281,   0.1856585741043,  -0.1464162021875,  -0.0551953092217,   0.0869497954845,   0.1272516101599,   0.0689088702202,   0.1787918061018,   0.0912871062756,   0.0355718880892,   0.0015956009738,  -0.1246235147119,  -0.2037598490715,   0.0352077186108,   0.0845868065953,  -0.0124003458768,  -0.1927894353867,   0.1913750916719,  -0.0787287950516,  -0.0321671999991,   0.0910319164395,   0.0366811081767,  -0.2070047557354,  -0.0625103339553,  -0.3967720270157,   0.1144828498363,   0.2204042077065,  -0.1094786152244,  -0.0507247149944,  -0.0256316419691,  -0.0668431743979,  -0.1817634999752,   0.0595610626042,  -0.0150817893445,   0.1849492192268,  -0.1556813269854,   0.0988092273474,  -0.2591517865658,   0.2212684601545,  -0.2465862333775,  -0.1376267969608,  -0.0057924785651,   0.0136488331482,   0.0220605544746,  -0.0759769305587,  -0.1460146754980,   0.1589956730604,   0.1641592681408,   0.1960375458002,  -0.0137537084520,  -0.0711571276188,  -0.1811940371990,  -0.1011529117823,   0.1706123948097,   0.1887295097113,   0.0334977135062,   0.0343256555498,  -0.0361445881426,   0.0636875703931},
   {  -0.1075544729829,   0.1652433574200,  -0.0068582706153,   0.0141614880413,  -0.0926850065589,   0.0684903860092,   0.0998067408800,  -0.1422570347786,   0.0932627394795,  -0.0333188362420,  -0.0774768888950,   0.1119242385030,  -0.1268105357885,   0.2035577744246,   0.0478481836617,  -0.1522379964590,  -0.1463397741318,   0.1036285609007,  -0.0590812563896,   0.0460960529745,   0.0630951672792,   0.1824587881565,  -0.1081527471542,   0.1499958187342,   0.0483247376978,  -0.0730536952615,   0.0877522677183,  -0.0319984108210,   0.0350744910538,   0.0231968089938,   0.0150343133137,  -0.1712812036276,   0.0526477023959,  -0.1593377441168,  -0.0901837870479,   0.0695049539208,  -0.0090503776446,  -0.1386583000422,   0.0098165618256,   0.2249861359596,   0.1476587206125,  -0.1054272949696,   0.1518317162991,  -0.0530424714088,   0.1663736402988,  -0.1129194274545,  -0.0761921033263,   0.0901692956686,  -0.1540115177631,   0.0468804389238,  -0.1823977380991,  -0.0982318446040,   0.1366515755653,   0.0662245005369,  -0.1324205696583,  -0.1170759201050,   0.1972728222609,  -0.0452431775630,  -0.1565742045641,  -0.1538611799479},
   {   0.0996408313513,   0.1205237209797,   0.1507255882025,  -0.1219643056393,   0.1138785555959,  -0.0395846143365,   0.0490200147033,   0.0745706483722,  -0.2304687649012,  -0.0256794430315,  -0.1489143967628,   0.0215137824416,   0.1365756690502,  -0.0848033577204,  -0.0385927446187,  -0.0649463236332,  -0.1207798346877,   0.1381636112928,   0.1044502407312,  -0.0407360494137,  -0.1367155760527,  -0.0557268857956,  -0.1538526266813,  -0.0584251917899,   0.0894591808319,   0.2002811878920,   0.0357980243862,   0.0772638991475,  -0.0745784938335,  -0.1134128347039,   0.2057056576014,   0.0249756630510,  -0.1146566271782,   0.0876366719604,   0.0629799440503,  -0.1056958436966,  -0.0821361765265,  -0.1037230044603,  -0.0261485390365,   0.0121542299166,   0.1509663164616,  -0.1490563750267,  -0.0448928549886,  -0.2262515425682,   0.0943321585655,  -0.0831618607044,   0.0935788676143,  -0.1384448558092,   0.0745340362191,   0.0042667659000,  -0.1447260528803,   0.0013070621062,  -0.0561623983085,   0.1583976745605,  -0.2471772283316,   0.0332352966070,  -0.0471902154386,   0.2079808712006,   0.1766037791967,  -0.0312277413905},
   {  -0.1475490033627,   0.1459600478411,  -0.0481763631105,  -0.1451491415501,  -0.1223635971546,  -0.2460601925850,   0.0204776618630,   0.1886370331049,  -0.1070287376642,  -0.0240383353084,   0.0592643320560,   0.0750198513269,   0.1325185447931,   0.1519758850336,   0.0623200573027,   0.0710338205099,  -0.0508557409048,  -0.2017014771700,   0.0863294005394,  -0.1112230941653,  -0.1488509327173,  -0.0414874590933,   0.0087880715728,   0.1620850563049,   0.0648983493447,  -0.1195221841335,  -0.1666054129601,   0.0453664772213,  -0.0468322448432,   0.0273673627526,   0.2545990347862,  -0.0593774616718,  -0.1925244629383,  -0.0785287469625,  -0.0339280478656,  -0.0048084994778,   0.1282728165388,  -0.0672439336777,   0.0829602628946,   0.1265591979027,  -0.0850731357932,  -0.0970392599702,   0.1239396929741,  -0.0204924494028,   0.0712438896298,   0.0436225235462,   0.1177058368921,   0.1540056467056,  -0.0892499685287,   0.1282804608345,  -0.0190948303789,   0.0500585846603,  -0.1118811666965,   0.1800479441881,  -0.2063280791044,   0.2272927016020,   0.1038510501385,  -0.1087479665875,  -0.0679719895124,  -0.2013227492571},
   {  -0.0159670226276,  -0.0611927472055,   0.1186618432403,  -0.0299557745457,  -0.0180363953114,  -0.0766298100352,  -0.1379935294390,   0.1313222646713,   0.0274272318929,  -0.1028721034527,   0.0954884886742,  -0.1843643933535,   0.0935147404671,   0.2018330693245,   0.1519201993942,  -0.0693046748638,  -0.1961190998554,   0.0017160262214,   0.0453333146870,  -0.0953798815608,  -0.0357010960579,  -0.0094529082999,  -0.0871021673083,   0.1594528406858,   0.0244725234807,  -0.4765478074551,   0.2477284669876,  -0.0239388309419,   0.0626274049282,  -0.0876703411341,   0.2083113193512,  -0.1646101027727,   0.0544938854873,  -0.0634235814214,   0.0657597631216,   0.0649942532182,  -0.1889991760254,  -0.0329934209585,   0.1188417226076,   0.0232082698494,   0.1102191060781,   0.1047816947103,   0.0863579735160,   0.0457778684795,  -0.1924627870321,   0.1250674277544,  -0.1761947274208,   0.1632202565670,   0.1624423414469,   0.1347184777260,  -0.1195747926831,   0.0493088737130,  -0.0572190172970,  -0.0679054707289,  -0.0162402465940,  -0.1032229736447,   0.1212022006512,  -0.1870328485966,   0.2098292559385,  -0.1672714799643},
   {  -0.0602208040655,   0.2023133337498,   0.0166997741908,   0.2006217837334,   0.1199492216110,  -0.0293504819274,  -0.0181347690523,  -0.0988477692008,  -0.2089802622795,  -0.0938421115279,  -0.2489558160305,  -0.0670569837093,   0.0497804954648,   0.0467166043818,   0.1278055906296,  -0.0875972658396,  -0.0773014277220,   0.1685893237591,  -0.0866893082857,   0.1326618939638,  -0.1031914502382,   0.0306409336627,  -0.2177426964045,  -0.1522913724184,  -0.0165909659117,   0.3572790622711,   0.0994408726692,   0.0492707230151,  -0.1349477618933,   0.2171932458878,   0.1334619075060,  -0.1830362379551,  -0.1761261373758,  -0.1070833876729,   0.0190004501492,   0.0847275704145,   0.0227047689259,  -0.1247883066535,  -0.1020365878940,  -0.1777367442846,  -0.1260697841644,   0.1875074654818,  -0.1752351820469,  -0.0186063442379,  -0.1939477771521,   0.1332587152719,   0.1150432974100,  -0.0296458229423,   0.0719880387187,   0.0435082018375,  -0.1053140759468,  -0.0980224460363,  -0.0035053263418,  -0.0000597506078,   0.2946233153343,  -0.0216220039874,  -0.2099315226078,  -0.0715422108769,   0.1658002436161,  -0.0854321494699},
   {   0.1292775124311,   0.0101883038878,  -0.0658511221409,   0.0343480333686,  -0.2207307368517,  -0.0790978968143,   0.0032268965151,  -0.1032389923930,   0.0587427169085,  -0.1759625077248,  -0.2222092896700,  -0.0632221251726,  -0.0963528826833,  -0.0497481673956,  -0.1474204510450,   0.0224295966327,  -0.2001865357161,   0.0290906857699,   0.0644280910492,   0.1941823959351,   0.0441884696484,   0.0521086789668,   0.1211066842079,   0.0399672277272,  -0.0908636823297,   0.1621644049883,   0.0155634507537,  -0.1505467891693,  -0.1623918712139,   0.0266514401883,   0.0393737927079,  -0.1089844778180,  -0.2049295306206,  -0.0386304110289,   0.1284868121147,   0.0456393547356,  -0.0723229050636,  -0.1338643282652,  -0.1400768458843,  -0.1247513741255,  -0.1212705224752,  -0.0213880687952,   0.1353654563427,  -0.1100375354290,  -0.1402144283056,  -0.0073720864020,  -0.1196730360389,   0.1443434804678,  -0.1065353155136,   0.1635480523109,   0.0320549830794,   0.1600417494774,   0.1205599233508,   0.1181311756372,   0.2478003054857,   0.0233965143561,   0.0576833263040,   0.0700094997883,   0.1376999765635,  -0.1362554728985},
   {   0.0816352739930,  -0.0795948728919,   0.1427942812443,  -0.1554681062698,  -0.0474612638354,  -0.1223260685802,  -0.1306010037661,  -0.0874944999814,   0.1956589221954,  -0.1169477030635,   0.0636126101017,   0.1303864568472,   0.0949387401342,  -0.0542974062264,  -0.3034285008907,  -0.0228869896382,   0.2041711956263,   0.0064539150335,   0.1314557790756,  -0.1928361356258,  -0.0962651148438,  -0.1776154190302,  -0.0678321197629,   0.1563932299614,  -0.0779541656375,  -0.2936927974224,  -0.0329564400017,   0.2014568746090,  -0.2432597726583,  -0.1060364395380,  -0.0959517657757,   0.0292844884098,  -0.1421209573746,   0.1789652258158,  -0.1346319019794,  -0.0752139613032,   0.1047567650676,   0.2700585722923,   0.0590617284179,  -0.0005143460003,  -0.0074226013385,  -0.1177644059062,   0.0330616347492,  -0.0539077036083,  -0.0695472061634,   0.0219258498400,   0.1397280097008,   0.0967712327838,  -0.1082013696432,   0.1250605434179,   0.1113895326853,  -0.0998904705048,   0.0656958743930,  -0.0419745072722,  -0.3348298966885,  -0.1412786245346,   0.2041970938444,   0.0206140819937,  -0.0903317257762,  -0.0180241558701},
   {   0.0359321460128,  -0.1321401447058,   0.1221847087145,   0.1249686256051,  -0.0583419539034,  -0.0375416353345,   0.0616823099554,  -0.0787029862404,   0.1807097792625,   0.1239047423005,   0.0267690625042,  -0.1436351984739,  -0.2083897888660,   0.0320886261761,   0.1018091514707,   0.1913956403732,   0.1445620059967,  -0.1169164702296,  -0.0217620786279,   0.0611503683031,   0.0009745673160,   0.0057420716621,   0.0403841175139,   0.0040247398429,  -0.0764952525496,  -0.0064309579320,  -0.1469463109970,  -0.1538491398096,  -0.0265616420656,  -0.0218820404261,  -0.1110374927521,  -0.1235817298293,  -0.1375048607588,   0.1394721567631,  -0.0194939486682,   0.0188191924244,  -0.1786224097013,   0.1615326553583,  -0.1382195800543,  -0.0349105708301,  -0.0152500551194,  -0.1900564283133,  -0.1501715332270,  -0.0444338843226,   0.1621425002813,   0.0030743009411,   0.0123051311821,  -0.0636267885566,  -0.1420938968658,   0.1585384160280,  -0.0489520207047,   0.1251213699579,  -0.1732793301344,  -0.0180695373565,   0.0428717546165,  -0.0996842086315,   0.1537150144577,  -0.1118170320988,   0.1399946957827,  -0.0617799200118},
   {   0.0847602486610,  -0.1129076182842,   0.1042305901647,   0.1344374865294,   0.0596561171114,  -0.2738865315914,   0.0556171648204,   0.0506583414972,   0.1459877043962,   0.0711949914694,  -0.0936674699187,  -0.0034181661904,   0.0597561374307,  -0.1447852849960,   0.0488833226264,   0.2301354557276,  -0.1334326118231,  -0.0935856699944,  -0.1555306166410,  -0.0805096998811,  -0.0431783422828,   0.0634622201324,   0.1507839858532,  -0.0371662490070,   0.1702363044024,  -0.0818067193031,  -0.0131056727841,  -0.0104894535616,   0.0316978506744,  -0.1035381555557,  -0.0926470980048,   0.0179212968796,   0.1683584451675,  -0.1407998502254,  -0.0613894425333,   0.1463088840246,   0.0248979553580,   0.1368964463472,   0.1473170220852,   0.1862441450357,  -0.2183095067739,  -0.1925801038742,   0.0843418687582,  -0.1774712651968,  -0.1581633388996,   0.0760702565312,  -0.0697934925556,   0.0801849663258,  -0.1662137359381,   0.2183585166931,   0.1622342616320,  -0.0694857686758,  -0.1232424601912,   0.0158557593822,   0.0478570014238,   0.1403843611479,   0.0234017837793,   0.1261887848377,   0.1500818133354,   0.0647793859243},
   {  -0.1896560639143,  -0.0167519263923,  -0.0620592869818,  -0.0403021387756,   0.0823856219649,  -0.1086020246148,  -0.0354151763022,   0.1257131248713,   0.0206608604640,  -0.1284317672253,  -0.0749129876494,  -0.0597613081336,  -0.1309536248446,   0.0465920157731,  -0.1618590801954,  -0.0601453408599,   0.0438474565744,   0.0780661404133,  -0.0519593134522,   0.0718636140227,  -0.0278851743788,   0.0411346368492,  -0.1659826040268,   0.1366842687130,  -0.1753763705492,  -0.0448920279741,   0.2217703908682,   0.1993741542101,   0.0507333315909,  -0.1592052131891,   0.0040453318506,   0.1665160804987,  -0.1696042865515,  -0.0361934527755,  -0.0022890358232,   0.0699024125934,   0.0238050315529,   0.0149437263608,   0.1860801130533,  -0.1949951946735,   0.1171662658453,   0.1100691258907,  -0.0377261675894,  -0.0641819536686,   0.1621469855309,   0.0570014901459,   0.1448438912630,  -0.0774033367634,  -0.0849879607558,   0.0441640913486,   0.0901781767607,   0.1007986590266,   0.0368570834398,  -0.1376639753580,   0.1625711917877,   0.1833708137274,  -0.0615701675415,   0.0360696986318,  -0.1669522225857,  -0.1614184826612},
   {  -0.0460110493004,  -0.2252500504255,   0.1247504875064,  -0.1084193736315,   0.1500015258789,  -0.2743515372276,   0.0939539372921,  -0.1048581376672,   0.0937241166830,  -0.1037269830704,   0.1410340219736,   0.0219172518700,   0.0591805502772,   0.1468123346567,  -0.0643083974719,  -0.1308491677046,   0.0696724504232,   0.0573597103357,   0.0529351793230,   0.0280373990536,  -0.0505733937025,  -0.0236264597625,  -0.1213521286845,  -0.0760427266359,   0.1600735187531,  -0.0311791617423,  -0.1851626932621,   0.1129143461585,   0.1156249642372,  -0.0812665224075,  -0.1745058298111,   0.1059995591640,   0.0805990695953,   0.0445648953319,   0.0041162152775,   0.1170255094767,   0.0442534610629,   0.1774299144745,  -0.0944918990135,  -0.1295763999224,   0.1054591834545,   0.1527510732412,   0.0176544636488,   0.1667657047510,  -0.0625328272581,   0.0182660892606,  -0.1005183681846,   0.1756768077612,   0.1118055805564,  -0.0471275746822,  -0.2035039514303,  -0.0177246853709,  -0.1593341529369,   0.1298310607672,  -0.0028715273365,  -0.0968517437577,   0.0150058278814,   0.0760761201382,   0.0092033138499,  -0.0226748045534},
   {   0.1300232410431,   0.0242332145572,   0.0477715656161,   0.2161726504564,   0.0662873387337,   0.0873717069626,   0.0188676379621,  -0.0400404036045,  -0.1211131438613,  -0.0077074756846,  -0.0947098657489,  -0.0616575255990,   0.1464003175497,  -0.0087853800505,   0.0731748268008,  -0.1322816461325,  -0.0404644124210,  -0.0919291898608,  -0.1623031497002,   0.0407259538770,   0.0568694248796,   0.0496770180762,   0.1680029928684,  -0.0876048728824,  -0.0416846983135,  -0.0301034003496,  -0.1281214505434,  -0.0968471467495,   0.0919438004494,   0.0077111255378,  -0.0826123878360,  -0.0384487695992,   0.1385369300842,  -0.0149469850585,  -0.0243323557079,   0.0565553121269,  -0.1526126563549,   0.1005906388164,   0.1973728239536,  -0.1271932721138,  -0.1235449612141,   0.0751751959324,   0.0456206351519,   0.0053844656795,   0.0359970368445,   0.0429941602051,   0.0256130490452,  -0.1810386478901,  -0.1107658818364,  -0.1614396870136,  -0.1421458274126,  -0.0215018633753,  -0.1062079146504,   0.0834338515997,  -0.2157019078732,  -0.0036219379399,  -0.1522400230169,   0.1504877507687,   0.0615791454911,   0.2226421684027},
   {  -0.0139412386343,   0.1388296931982,  -0.1773951053619,   0.0017814724706,  -0.0367004200816,  -0.0118698803708,  -0.1376923024654,   0.0286327227950,   0.1950195580721,   0.0258982982486,  -0.0438569672406,   0.2418289929628,   0.1094186306000,   0.0521754585207,  -0.2025704830885,   0.1367574781179,  -0.0855515450239,  -0.1007766425610,   0.1627202928066,  -0.0031942923088,   0.0958597138524,  -0.0673534795642,  -0.1339617669582,  -0.1086241081357,   0.0609895177186,  -0.0629471018910,   0.0252755805850,  -0.0401678644121,   0.0710694864392,  -0.1546534597874,  -0.0596852824092,   0.0353030078113,  -0.0237773936242,   0.0423475541174,   0.0602178461850,   0.0831762105227,  -0.0714012011886,   0.0200353804976,   0.0921185910702,   0.2288265228271,   0.0526479743421,   0.0764965415001,   0.1252308338881,   0.1114233583212,   0.0874406695366,   0.1238589957356,  -0.0880312621593,  -0.1328268647194,   0.0412540957332,   0.0247514713556,   0.0232618991286,  -0.0398315936327,  -0.0711922049522,   0.1136610955000,  -0.1565811783075,  -0.0389258563519,  -0.0259525310248,   0.0763213783503,   0.0727973729372,  -0.0033656759188},
   {  -0.1776979267597,   0.0777237564325,   0.1006559208035,   0.0471144802868,  -0.1789423823357,   0.1660211682320,  -0.0650188550353,   0.0215790346265,   0.0501115955412,   0.1456467062235,   0.1522928774357,  -0.0031665600836,   0.1823223680258,  -0.0483054779470,  -0.0496067106724,   0.0606785640121,  -0.0189373008907,   0.1552584767342,  -0.1688170433044,   0.1993997097015,   0.1703554093838,  -0.0177898667753,   0.1161787509918,  -0.1229685246944,   0.1171948537230,  -0.0362679362297,   0.1304852068424,   0.0747449994087,  -0.0160030070692,   0.1542625874281,   0.1259197145700,  -0.1883947253227,   0.0507724694908,   0.1234248876572,   0.0152937294915,  -0.1702394336462,  -0.0148822246119,  -0.0502427890897,   0.1709137856960,  -0.1028492748737,   0.1106985807419,  -0.1084309890866,  -0.1114189252257,  -0.0496160537004,  -0.0739057213068,   0.0207194853574,   0.0776627287269,   0.1262018829584,   0.0615237839520,   0.0153678329661,  -0.0790960192680,  -0.1345543712378,   0.0908921584487,   0.1508010327816,   0.0021309899166,   0.1435814648867,   0.1022863313556,  -0.1400078833103,   0.1413904428482,  -0.1149088516831},
   {   0.0276276338845,   0.0845702961087,   0.1091294512153,  -0.0589707158506,   0.0707415491343,   0.1431828588247,  -0.1948085874319,  -0.0656368657947,  -0.0094690639526,   0.0584610402584,  -0.0960872247815,  -0.1553040593863,  -0.0919563472271,   0.1080401837826,  -0.0370688587427,  -0.1493427753448,   0.0187522023916,  -0.2007820159197,   0.1818700730801,   0.1224139705300,  -0.0566472746432,  -0.1601553559303,  -0.1420998871326,   0.0115451896563,   0.0204574856907,  -0.0194874443114,  -0.0292290914804,   0.0242973528802,   0.1324392557144,   0.1913276016712,   0.1075209826231,   0.0353099778295,   0.1173609495163,   0.1588006615639,   0.1486388295889,   0.1576223820448,   0.1280665546656,   0.1514430940151,   0.0618040971458,   0.1390261501074,  -0.0713987052441,   0.0193674787879,   0.1433731317520,   0.1618429422379,  -0.0939079746604,   0.1101976707578,   0.1747844219208,  -0.0445942506194,  -0.1417675912380,  -0.0266502145678,   0.1990875154734,  -0.0898300558329,  -0.0291892383248,  -0.0802585557103,   0.1734613627195,   0.0605344399810,   0.2011693120003,  -0.0419634580612,   0.1543522030115,   0.1514094322920},
   {   0.1757149398327,  -0.1587903499603,  -0.0603632852435,  -0.0195232555270,  -0.1199946627021,  -0.0637775361538,  -0.1652560979128,   0.0938056558371,  -0.1219496130943,   0.1922417581081,   0.0380135737360,   0.0820420458913,  -0.1574987471104,  -0.2139019221067,  -0.0962454751134,   0.0570589005947,  -0.1235807836056,  -0.0448536388576,  -0.1641861796379,  -0.0158570148051,   0.0073082679883,   0.0126909818500,  -0.0577313043177,  -0.1503734290600,  -0.0659470185637,  -0.2768755853176,   0.0798611193895,  -0.0234527122229,  -0.0628745928407,  -0.0126411430538,   0.0724153369665,  -0.1379375606775,   0.0177133027464,  -0.0995823964477,   0.1130699217319,  -0.0897706449032,  -0.0945952460170,  -0.0937007218599,   0.1179288104177,   0.0499303638935,   0.0613837204874,  -0.0408893749118,  -0.1319498121738,   0.0735502764583,  -0.1545372605324,  -0.1039424538612,   0.1523395627737,   0.1375552862883,  -0.1223321482539,  -0.1572117358446,   0.1366309374571,  -0.0251542478800,  -0.1899279505014,  -0.0759052336216,  -0.0334613397717,   0.1039457917213,  -0.0116988094524,   0.0146763874218,   0.0677254945040,   0.1098573580384},
   {  -0.0846078917384,   0.1080868691206,   0.0789643675089,   0.1515919715166,  -0.2039070427418,  -0.0758394151926,   0.1259315311909,   0.1145629584789,  -0.1505744457245,   0.1023392081261,   0.0190437417477,  -0.1081969439983,   0.0070224655792,  -0.0021419420373,  -0.1352702528238,   0.0193963106722,  -0.0096933515742,  -0.0114397266880,  -0.1807041615248,   0.2049750089645,  -0.0987982526422,  -0.1545646041632,  -0.1319100856781,   0.0177981052548,  -0.0500205345452,   0.1932042092085,  -0.0056388997473,  -0.0235271267593,  -0.1159682720900,   0.1883685439825,   0.0368409119546,   0.1234171167016,  -0.1729168742895,  -0.1687154769897,  -0.1118093281984,   0.0818312168121,  -0.1734523475170,  -0.0805215463042,   0.1017987355590,  -0.0579458661377,   0.1201328411698,   0.1587498635054,  -0.1651330143213,  -0.1401345133781,  -0.0503234826028,  -0.1799044609070,  -0.0674483627081,   0.1257641762495,  -0.1983724236488,   0.0230705235153,  -0.1249371767044,   0.1731127798557,   0.1907521635294,   0.0936857163906,   0.3082575798035,  -0.2510025799274,   0.1830336302519,   0.0462225079536,   0.0754359588027,   0.1589190065861},
   {   0.1456553637981,   0.1664053350687,  -0.0673572346568,   0.0651455968618,   0.0012460376602,  -0.0071950983256,   0.0751987025142,  -0.2593939602375,  -0.0531676784158,   0.1590200960636,  -0.0754192769527,   0.0794659107924,  -0.0781770497561,  -0.1107194572687,  -0.1961704194546,  -0.0151434801519,   0.0134191708639,   0.0294154491276,  -0.1700086295605,  -0.0334528349340,  -0.0591162629426,   0.1029438152909,  -0.1327815502882,   0.0747190490365,   0.1478943228722,  -0.0492997467518,  -0.0738904923201,   0.1333688050508,   0.1101417914033,   0.0097876070067,  -0.0279479529709,   0.0836748927832,   0.0504091456532,  -0.1578177213669,  -0.1820470541716,  -0.1916798353195,  -0.1615870445967,  -0.0244838595390,  -0.1197232529521,  -0.1683220416307,  -0.0264557041228,   0.1887424737215,  -0.1256630420685,   0.0489424690604,  -0.0058654444292,  -0.2399024963379,  -0.1408419609070,  -0.2081688046455,   0.1234233528376,   0.0664962753654,  -0.1701850891113,   0.1800145655870,   0.0567381083965,  -0.0343745723367,  -0.1653269678354,   0.0776132643223,   0.0578667707741,   0.0411570742726,   0.1475429981947,  -0.1220608428121},
   {  -0.1981558501720,   0.1070703119040,   0.1110910028219,   0.1802294701338,   0.0190853253007,   0.0024491045624,  -0.0804882422090,   0.1699825823307,  -0.1362119764090,  -0.0822589024901,  -0.0431461930275,  -0.0460621528327,   0.1150679811835,   0.0317418538034,   0.0040418459103,   0.1997812986374,   0.0054355147295,  -0.1691298186779,  -0.0803738161922,   0.1114675849676,  -0.0591185800731,   0.0227261278778,  -0.1538608819246,   0.0766118913889,  -0.1960171014071,  -0.0334010571241,  -0.0192135851830,   0.0815165489912,  -0.2212596386671,  -0.0340006910264,  -0.0443225800991,   0.1294293403625,  -0.1898518800735,  -0.1766778975725,   0.1552727520466,  -0.0900461599231,  -0.1542805731297,  -0.0480647571385,   0.1650111824274,  -0.0103649254888,  -0.1020525395870,   0.1706440150738,  -0.1776538938284,   0.1320251822472,  -0.0886787027121,   0.0823989734054,   0.1305011808872,  -0.0436196513474,  -0.1589100360870,   0.1425827592611,   0.0057693328708,  -0.0313978604972,  -0.1499729603529,   0.0130562661216,   0.4232679605484,  -0.1472886204720,  -0.1014441102743,   0.0055304570124,  -0.0315981395543,  -0.0978352501988},
   {  -0.0489191114902,   0.0402219183743,  -0.1927607208490,  -0.1230595186353,  -0.1236150488257,  -0.2017380297184,   0.2166328728199,   0.0828777849674,   0.1293796300888,   0.1045287773013,   0.0705033466220,  -0.0238380078226,   0.1174163743854,  -0.1489922404289,   0.0626165196300,  -0.1030195653439,   0.1045088395476,  -0.0673763081431,  -0.0672049149871,  -0.1802033185959,  -0.0026549689937,  -0.0242681279778,   0.1687589436769,   0.1492292284966,   0.0329418480396,  -0.3345891535282,  -0.0943234339356,  -0.1483508795500,  -0.2538863122463,  -0.0445978865027,   0.0518269464374,   0.1176578179002,  -0.0114103881642,  -0.1029081940651,   0.1766345947981,  -0.0223062094301,  -0.1180061846972,  -0.0646246224642,  -0.1910962015390,   0.1093619167805,  -0.1192860677838,   0.0485151782632,   0.0262669250369,  -0.0066418042406,   0.1933207362890,   0.1858946830034,   0.1531495749950,  -0.1036280691624,  -0.1897634714842,  -0.0472530201077,  -0.0837537124753,   0.0934392139316,   0.1307525187731,   0.0036036053207,   0.1518304347992,   0.1177908852696,  -0.0905088111758,   0.0467285551131,  -0.1363159269094,  -0.2221777886152},
   {  -0.1685603708029,   0.2113115638494,  -0.1149197071791,  -0.1698828339577,   0.0227085594088,   0.1221739128232,  -0.0305279754102,   0.0040712631308,  -0.1382447630167,  -0.1543565243483,   0.0083599109203,   0.1624894291162,   0.0447987578809,   0.0993088856339,   0.3115344941616,  -0.0250830855221,  -0.1457259207964,  -0.1326304227114,   0.0325333066285,  -0.0172529593110,  -0.0591690391302,  -0.1372638791800,   0.1062929630280,   0.1920057982206,   0.0972248986363,  -0.2862500846386,   0.0102761788294,   0.2010139077902,  -0.0286390073597,  -0.1458219289780,   0.2151432335377,   0.1718733310699,  -0.0596825182438,  -0.1613041907549,   0.1406857222319,   0.1649857312441,  -0.1818878203630,  -0.1305441260338,  -0.1780146509409,  -0.1525372266769,  -0.1146018877625,  -0.1323790550232,   0.0799664556980,   0.1777230501175,   0.1182095557451,  -0.1875780820847,  -0.0035335838329,  -0.0175960157067,  -0.1678843200207,  -0.0485167875886,  -0.1473838537931,   0.0483064614236,  -0.1167805120349,   0.0953447893262,  -0.2212876528502,  -0.0407615862787,  -0.0123488260433,  -0.1282753497362,   0.0000035914250,   0.1577549576759},
   {   0.1435195356607,  -0.0526067949831,  -0.1058778241277,   0.1021990031004,   0.1878388226032,  -0.1329841315746,   0.0786435529590,   0.0325259044766,  -0.0084191244096,  -0.0448993220925,   0.0688982084394,  -0.0121097899973,   0.1129027009010,   0.0837505757809,   0.0937085226178,   0.0775810927153,  -0.0415297411382,  -0.1466342061758,   0.1515899747610,  -0.1812850683928,   0.0540192164481,  -0.0233764443547,  -0.1423819661140,  -0.0640238299966,   0.0423983633518,  -0.1421865522861,  -0.2535853385925,   0.0234783552587,  -0.1303885877132,  -0.0219378937036,  -0.1373886466026,  -0.1199854165316,  -0.1360419392586,  -0.0952157974243,   0.1916095018387,   0.2124848514795,  -0.1240163743496,  -0.0969397798181,  -0.1419106274843,   0.1574208587408,  -0.0211299471557,  -0.0267411544919,   0.0185426883399,   0.0852444916964,   0.0851005315781,   0.0103895785287,   0.0263478010893,   0.1813400089741,  -0.0661800131202,   0.1790574640036,   0.0764349550009,   0.0794236883521,   0.0020681326278,   0.0509992763400,   0.0686229616404,   0.1692090034485,   0.0969988256693,  -0.1184313297272,  -0.1732834130526,  -0.0245725940913},
   {   0.1345832943916,  -0.0116814747453,   0.1064994558692,  -0.1179537847638,   0.2040026783943,  -0.0260701440275,   0.1082225665450,  -0.0349276363850,   0.0219770520926,  -0.0254214424640,   0.1130678504705,  -0.0716996639967,  -0.0585831217468,   0.0546961426735,   0.0234516542405,  -0.1191195547581,   0.0654031708837,   0.0999578088522,  -0.1131339296699,   0.0276337824762,  -0.1766062676907,   0.0334961712360,   0.1592794060707,  -0.1953689306974,   0.0908202081919,  -0.2019653618336,  -0.1993040591478,  -0.0428155101836,   0.0009394518565,   0.1400629729033,   0.2025707662106,   0.0510919466615,   0.0967501848936,   0.0033571564127,   0.0884138345718,  -0.1252591311932,  -0.1008118391037,   0.1930651813745,   0.1374802738428,   0.0480411536992,  -0.1945713907480,  -0.0385771840811,   0.0135978786275,  -0.0771556720138,   0.1155572086573,   0.1837355345488,  -0.0227862074971,   0.0091603836045,  -0.0537307038903,   0.1617526113987,  -0.0132913021371,   0.0258537512273,  -0.1355198919773,   0.1021656170487,  -0.0492874123156,  -0.0024265111424,   0.1167125925422,  -0.1592170447111,   0.0368889831007,  -0.0616651400924},
   {   0.1412067264318,   0.0619885325432,  -0.0461671352386,  -0.1709735244513,  -0.0593400038779,  -0.1821392327547,   0.0374497361481,  -0.0745395272970,   0.2116156220436,  -0.0549886412919,   0.0717175528407,  -0.0091382758692,   0.0666406378150,  -0.1793709844351,  -0.0439024753869,   0.0993806049228,  -0.0753238275647,  -0.0043417834677,   0.1443179994822,  -0.1675021499395,   0.0705478116870,  -0.2066317945719,  -0.1542292535305,  -0.0873538255692,   0.1503650546074,   0.0077789826319,   0.0712575763464,   0.0593029297888,  -0.2121329605579,  -0.1665643006563,   0.1166623085737,  -0.0835568979383,  -0.0508967526257,   0.0345952808857,   0.1349772810936,   0.0766927376390,   0.0299429818988,   0.1990303397179,   0.0325855091214,   0.0749406516552,  -0.1203008070588,  -0.0663386732340,  -0.1017493233085,   0.0401578024030,  -0.0856719240546,   0.1559898555279,   0.0658867508173,   0.0641455724835,   0.0274232774973,  -0.0775337070227,  -0.0600932836533,   0.0640645623207,   0.1287270486355,   0.1235871016979,  -0.0830481275916,  -0.0539487190545,  -0.0385066196322,  -0.2417900711298,   0.0399755872786,   0.1250840276480},
   {  -0.0878922417760,   0.0016061025672,   0.1486527770758,  -0.0626027360559,   0.1632427126169,   0.2050050944090,   0.1421810090542,   0.0012804862345,   0.0965989232063,   0.0693310201168,   0.1556580662727,  -0.0750165060163,   0.0799690783024,  -0.1230376809835,  -0.1187226250768,   0.0694633722305,   0.0008013613988,  -0.0717152208090,  -0.2054981142282,   0.1932640224695,  -0.1520915925503,  -0.1264412254095,  -0.0650231093168,   0.1044015362859,  -0.1268368661404,  -0.0635833069682,   0.0394460968673,   0.1250196248293,   0.0333831533790,  -0.1284745931625,  -0.0638769716024,   0.1266603618860,   0.1092106774449,  -0.0811046436429,   0.1083255186677,  -0.0525399781764,  -0.1948211193085,  -0.1188877150416,  -0.0687322095037,   0.0131799234077,  -0.1338255107403,  -0.0338452234864,   0.1531382501125,  -0.0825090855360,   0.1029984429479,  -0.0698066353798,  -0.0079271523282,   0.1323398053646,  -0.1059635654092,  -0.1351211667061,   0.1050272956491,   0.0514578148723,  -0.1199865639210,   0.1143580451608,  -0.1190430298448,  -0.1214659810066,   0.1897543519735,   0.1519925147295,   0.1982489824295,  -0.1234423965216},
   {  -0.0525565892458,   0.1110887601972,  -0.0991890430450,   0.1474194526672,  -0.1189126744866,   0.0886265784502,   0.1508881449699,  -0.0116526838392,  -0.1057107970119,  -0.0778769180179,  -0.1007855683565,  -0.0544097013772,   0.0691358745098,  -0.0688446089625,  -0.0107904458418,   0.0413062199950,  -0.0679691433907,   0.0712502747774,  -0.2074144780636,  -0.1626544594765,  -0.0355369523168,   0.1421606689692,   0.0138303460553,  -0.0081178909168,  -0.1715931445360,   0.0055487453938,   0.0914343446493,   0.1611860841513,   0.0089536504820,  -0.1478132307529,  -0.0976582691073,  -0.0241208653897,  -0.1501802653074,   0.1258370429277,   0.1512899100780,  -0.2059983760118,  -0.1421923488379,   0.1843284368515,  -0.1081332191825,  -0.1473700106144,  -0.0826157927513,  -0.1048331409693,  -0.0431551188231,   0.2015426456928,  -0.0499910451472,  -0.2542617022991,   0.0474053546786,  -0.0395884811878,   0.1260115057230,  -0.1761454194784,   0.1789652854204,   0.2058354914188,   0.1914194375277,   0.1367222368717,  -0.1065038368106,  -0.0439036749303,   0.0217510759830,  -0.1070391163230,  -0.1603348255157,   0.0507692694664},
   {   0.0074309804477,   0.3086492121220,  -0.0376623496413,   0.0439568534493,   0.1748118251562,   0.2942779660225,  -0.1071930602193,   0.0625975728035,   0.0704372674227,   0.1543287485838,  -0.1779038161039,   0.0669601261616,   0.1683272123337,  -0.0533003173769,  -0.0055712093599,  -0.0064183385111,   0.0512417592108,  -0.0493823178113,   0.3107180893421,   0.2461026459932,   0.2777238488197,  -0.1001922935247,  -0.0923848748207,  -0.0359626188874,   0.1692993938923,  -0.0696910545230,   0.3487582504749,  -0.1335987150669,  -0.0412646494806,   0.1621020585299,   0.1717881262302,   0.0011332191061,  -0.1722710728645,   0.0281649231911,   0.0277424473315,   0.1990173608065,   0.1589921265841,   0.1733871102333,  -0.0111318891868,   0.0735548883677,   0.2802416086197,   0.2142048925161,  -0.0266637653112,  -0.0381125584245,   0.0955101475120,   0.2064615041018,  -0.0604856982827,  -0.0435066781938,  -0.2029845416546,   0.2451437562704,  -0.0895586237311,  -0.1052562519908,   0.0088602174073,   0.0244944039732,  -0.0057992190123,   0.0817866548896,  -0.0421267896891,   0.0060592116788,  -0.0946745648980,  -0.0271527487785},
   {  -0.1340613663197,  -0.0787820890546,   0.1539323329926,   0.0904512330890,  -0.1558420807123,   0.0030649506953,  -0.1203149482608,  -0.0959028303623,  -0.1188519671559,  -0.1324848979712,  -0.0572773702443,  -0.0745678991079,   0.0512106940150,   0.0696683302522,  -0.1625040620565,   0.0829790234566,   0.0768675655127,   0.1134607717395,   0.1172299385071,   0.1411893069744,  -0.0492646396160,   0.0549085102975,  -0.0836506485939,  -0.1255390197039,   0.0641240179539,  -0.0174568034708,  -0.0643559023738,  -0.0209967065603,  -0.2650592327118,  -0.0101775331423,   0.1325029283762,   0.1818463504314,  -0.0759953334928,   0.1865452677011,   0.1124476641417,  -0.0244509410113,   0.1422114521265,   0.1790938377380,  -0.1924769580364,  -0.0413077473640,   0.1423822194338,   0.1843047142029,  -0.1018185541034,  -0.1509381979704,  -0.0422802902758,   0.1006327122450,   0.0648703649640,  -0.0538470819592,  -0.0451617911458,  -0.0174308083951,   0.1220040097833,   0.0807107239962,  -0.1043793857098,  -0.1505139172077,   0.3066799342632,  -0.1503222733736,   0.0657176077366,  -0.1120194271207,  -0.0589817613363,  -0.1550014913082},
   {   0.1158873811364,   0.1727469712496,   0.2042788416147,  -0.0357164815068,   0.0397645197809,   0.0760332420468,   0.0791074559093,   0.0252564251423,  -0.0950260683894,   0.0112062720582,  -0.1237247213721,   0.0732844397426,   0.0526930876076,  -0.0095630101860,   0.0908910483122,   0.2184477448463,   0.1121841147542,  -0.1322542726994,   0.1078782007098,   0.1288611143827,  -0.0549447685480,  -0.0023030261509,   0.0905109196901,   0.1275456100702,  -0.0549641475081,   0.0117548825219,   0.0314837731421,  -0.0247196424752,   0.0469273775816,  -0.1334662437439,  -0.1326345503330,   0.1464028358459,  -0.0179787520319,  -0.1483643949032,   0.1114214584231,   0.0722091570497,  -0.0122312530875,   0.1782445162535,   0.0449062734842,  -0.0255611110479,   0.0574042610824,   0.1715352386236,  -0.0974080786109,   0.1261679083109,   0.0314648151398,   0.1632200777531,   0.1595327556133,   0.1551622450352,   0.0744425654411,  -0.0385145433247,   0.2187434434891,  -0.0504692345858,  -0.1529560089111,  -0.0161043535918,  -0.1173296421766,  -0.1108953207731,   0.0584153123200,   0.0700805857778,  -0.1312064230442,   0.1528514176607},
   {  -0.0641551315784,   0.0971541553736,   0.0849753320217,  -0.1131526529789,  -0.0085991537198,  -0.1417978405952,  -0.0483781844378,   0.1513128876686,  -0.0561591796577,   0.0856467708945,  -0.1130608841777,   0.2950177788734,  -0.0754502788186,   0.1668226420879,  -0.0132822729647,   0.1317815929651,  -0.0351427458227,  -0.0187072921544,   0.1843975186348,   0.0551188960671,   0.0058093131520,   0.1247889399529,  -0.0454220212996,   0.0587115585804,  -0.0242568906397,   0.0096093975008,  -0.2388591617346,   0.0329937487841,   0.0527799390256,   0.1255210638046,   0.1397644281387,  -0.0998888313770,   0.0068743624724,   0.1550750136375,   0.0851503312588,   0.0161878485233,  -0.1261830627918,   0.0450949706137,  -0.1203707456589,  -0.0265736635774,  -0.1636374443769,   0.1529794931412,   0.1146318465471,  -0.0343651920557,  -0.1526674628258,  -0.1407673507929,   0.0252896230668,   0.0714061036706,   0.0966191291809,  -0.1447363942862,   0.1225750744343,  -0.1431447267532,   0.0952183455229,  -0.0512289963663,  -0.2844857573509,   0.2499034404755,   0.1026870012283,  -0.1136126890779,   0.0507667250931,  -0.1812176853418},
   {  -0.1607931852341,  -0.0523583889008,  -0.0362278558314,  -0.0390891768038,  -0.1305508166552,   0.0342337526381,   0.1403486728668,   0.0346473045647,   0.0900500044227,  -0.1167628392577,  -0.0075790416449,   0.0865900665522,  -0.3429764509201,  -0.0719619244337,   0.1293186396360,   0.1929126083851,  -0.0749297067523,  -0.1569446772337,   0.0574453026056,  -0.1968027204275,  -0.2041380107403,  -0.1973323971033,   0.1631882786751,  -0.2643197476864,  -0.0461287759244,  -0.1721111834049,  -0.3186470270157,  -0.0419650524855,  -0.1053834557533,   0.0530415810645,  -0.1401389539242,   0.0084657371044,   0.1049647256732,  -0.0151768904179,   0.1191454902291,  -0.0611999705434,  -0.1876723021269,   0.0560054779053,  -0.1963710933924,   0.3074743449688,  -0.1868787705898,  -0.2061699032784,   0.0452185198665,  -0.0973534882069,  -0.1641035079956,   0.0773236751556,   0.0388672165573,   0.0548690184951,  -0.1492599546909,   0.1744552701712,   0.0200159680098,  -0.1819223314524,  -0.0397228114307,   0.2411199510098,  -0.4171011447906,  -0.1104043349624,   0.2897988259792,  -0.0602467246354,  -0.0152076287195,   0.0839340537786},
   {   0.1125873625278,  -0.1104583218694,   0.1066465079784,  -0.1664599478245,  -0.0199385248125,   0.0816717222333,  -0.0157970953733,   0.0323314927518,   0.0249520875514,   0.0086299646646,  -0.1097584515810,  -0.1401591002941,   0.0030997798312,   0.2000751644373,  -0.0444505065680,  -0.0534383244812,   0.0624319873750,   0.1031290814281,   0.1053085401654,  -0.0158705133945,   0.1222781538963,  -0.0074150189757,   0.1445816308260,   0.0532818511128,   0.1673134118319,  -0.2095561623573,  -0.2312934696674,  -0.1356622278690,  -0.0771367177367,   0.1578846126795,  -0.0459526740015,  -0.1306102275848,  -0.0766765624285,  -0.2064364701509,  -0.1626586467028,  -0.0810863375664,  -0.1458404064178,   0.1935797631741,  -0.0302020814270,   0.1260456591845,  -0.1567703038454,   0.1333707571030,   0.1311829239130,  -0.0603970251977,   0.0155871724710,   0.0893866270781,   0.1662067323923,  -0.0136442510411,   0.0336852259934,  -0.1091065555811,   0.1079590022564,  -0.1258886754513,  -0.1247959882021,  -0.1287682205439,  -0.0318149067461,   0.2540682554245,  -0.0308757945895,  -0.1909669488668,   0.0392171666026,  -0.1486405134201},
   {   0.1484233140945,   0.0474831536412,  -0.0006218554918,  -0.1424656808376,   0.1064765900373,   0.1079874783754,  -0.0929520726204,  -0.1217236518860,  -0.1443806290627,  -0.0560776367784,  -0.0617332905531,   0.0576164275408,   0.0841998308897,   0.1636187285185,  -0.1854354739189,   0.1658920943737,  -0.0676301047206,   0.1610435843468,  -0.0682187974453,   0.1176173016429,   0.1643369644880,   0.0457791723311,  -0.1420769691467,   0.1807197481394,   0.2331765294075,   0.1610598117113,   0.1141871362925,   0.0805316567421,   0.0845781266689,  -0.0718306228518,  -0.1217252835631,  -0.1513448655605,  -0.1840611398220,   0.0674587339163,  -0.0618287473917,   0.1522800773382,   0.0855511054397,   0.0339895412326,   0.1165522709489,  -0.1048480346799,  -0.0713471546769,  -0.0676846578717,   0.1146590635180,  -0.0723577290773,  -0.0133480941877,  -0.0354342162609,  -0.0517670363188,  -0.0729451403022,   0.1315101981163,  -0.0318523794413,   0.1086308956146,  -0.0193218290806,  -0.1125239357352,  -0.2081152647734,  -0.0782089382410,  -0.1241896972060,  -0.1412974894047,   0.2122156471014,   0.0006494994741,  -0.1883948147297},
   {   0.0937713161111,   0.0177007056773,  -0.0608826316893,   0.1440761238337,   0.1018673554063,  -0.0297821909189,  -0.0119957448915,   0.1449599862099,   0.0810189917684,   0.0028405659832,   0.2295882105827,   0.0596593618393,   0.0027093545068,   0.0032475823537,   0.0528233088553,   0.0873251184821,   0.0601341016591,   0.1367956995964,  -0.0330498032272,   0.1447066813707,   0.2122881859541,   0.1284117400646,  -0.1804369390011,  -0.0402749665082,   0.0674593523145,   0.1592641472816,   0.2223023623228,   0.0786687582731,  -0.0066902665421,   0.0600188374519,  -0.1326496154070,  -0.0414233058691,  -0.2064080685377,  -0.0898027718067,   0.1217975988984,   0.1386976838112,   0.0221636984497,   0.1609061956406,   0.1513056010008,   0.1689739525318,  -0.0019389949739,   0.1651322692633,  -0.1354184150696,  -0.1086870878935,  -0.1488790065050,  -0.1075782701373,   0.0272813141346,  -0.1483339518309,  -0.2021220773458,   0.1711633652449,  -0.0274413414299,   0.1866812258959,   0.1733443737030,  -0.0503254421055,  -0.0089789247140,  -0.0382097139955,   0.1074077188969,   0.0615378804505,  -0.1342187523842,   0.0918062552810},
   {   0.0820909738541,  -0.0984861552715,  -0.0613244846463,   0.0504708513618,   0.0032905053813,   0.2730081081390,   0.0135771632195,  -0.1491996496916,   0.1956572681665,   0.1767036318779,   0.1142967864871,  -0.1234381869435,   0.1424817740917,  -0.0930217057467,  -0.0604738444090,  -0.1177775934339,   0.1037190929055,   0.0947882235050,  -0.0570063218474,   0.1438528597355,  -0.0021245763637,  -0.0178852546960,   0.1963946223259,  -0.1020231917500,   0.1868267208338,   0.2331209033728,  -0.3775298297405,  -0.0217431169003,  -0.2204305976629,   0.0062618157826,   0.0451337695122,   0.1807236671448,   0.0466610230505,  -0.1275774687529,  -0.0933300033212,   0.0993387848139,  -0.0781252086163,   0.0038823136128,  -0.1041980013251,   0.0347127094865,   0.1046794652939,  -0.1269387006760,   0.1083253324032,  -0.0380396358669,   0.0190258696675,  -0.0470272265375,   0.1467721909285,  -0.0517123043537,   0.1564341187477,  -0.0275315754116,   0.0849906876683,  -0.0801342651248,  -0.0462545491755,   0.1403449773788,   0.0382897071540,  -0.1300781965256,  -0.0596414729953,   0.0242142397910,   0.1387705504894,   0.0221015401185},
   {   0.1512623578310,  -0.2836669087410,   0.0689171999693,  -0.0554808899760,  -0.0265609715134,   0.0381803177297,   0.0372356325388,   0.0912920162082,  -0.0437081977725,   0.1011731475592,   0.0860803052783,   0.2695305943489,   0.0660637170076,  -0.0622717849910,  -0.1201735064387,  -0.1054976806045,  -0.0330130681396,   0.1042760685086,  -0.1186737641692,  -0.1543781906366,   0.0825289189816,   0.0480551421642,  -0.1350153386593,  -0.0859166979790,   0.1100448668003,  -0.3360613286495,  -0.1375868618488,   0.0325214043260,  -0.0504247657955,  -0.0586057379842,   0.0401284433901,  -0.1028341650963,  -0.0969077274203,   0.0605063438416,   0.1075939312577,  -0.1366723924875,  -0.1322432756424,   0.1374190747738,   0.0066586444154,   0.0958766043186,   0.0863919109106,   0.0028544182424,   0.1270766258240,  -0.1559424400330,  -0.1328797042370,   0.1338977366686,   0.1254232823849,   0.1712874174118,  -0.1880793124437,  -0.0821908563375,  -0.0365336015821,   0.0937821492553,  -0.1140086054802,   0.0729317888618,  -0.3444868922234,  -0.0075270114467,   0.2360118329525,   0.0373456180096,   0.1401704847813,   0.1186738163233},
   {  -0.0220776833594,   0.1837796568871,   0.1381913125515,  -0.0127575239167,   0.0664183497429,  -0.0956280454993,  -0.1421888768673,   0.1381220072508,  -0.1779728233814,  -0.1025837361813,  -0.0567679889500,   0.1301658004522,   0.1699515283108,   0.1751869916916,  -0.0507585518062,  -0.1664519011974,  -0.1109073832631,  -0.1061862185597,   0.0558426417410,   0.0897741019726,  -0.0493157915771,   0.0692311450839,   0.1198490411043,  -0.0818467512727,   0.0648793056607,   0.1922664940357,  -0.0076410151087,  -0.1391663998365,  -0.0929534584284,   0.1848951578140,  -0.1148419678211,   0.0466782972217,  -0.2004614025354,   0.1659182459116,   0.1407420188189,  -0.1286262720823,   0.0864899381995,  -0.1673561781645,   0.1887321472168,  -0.0544587597251,  -0.0230376832187,  -0.1458522826433,   0.0003651101433,  -0.2167657166719,   0.0297297220677,   0.0385354571044,  -0.1685873866081,   0.0237613096833,   0.0620541721582,   0.0437552481890,   0.0271592475474,   0.0303412694484,   0.1813930273056,   0.1575658023357,   0.0115052238107,   0.0985375717282,   0.2437442243099,  -0.0944255441427,  -0.0974771752954,   0.1028467342257},
   {  -0.1431239545345,  -0.0389243774116,  -0.1708166450262,   0.1335703581572,   0.1096600666642,  -0.1054465323687,   0.0655786171556,   0.0413889661431,   0.0380984656513,  -0.0177113469690,  -0.0657755807042,  -0.0663822814822,   0.1157156899571,   0.1538390815258,  -0.1129058748484,   0.1721462309361,  -0.0778022557497,   0.0125746168196,   0.0057835713960,  -0.1394123733044,  -0.0314180031419,  -0.0465478487313,   0.0336991026998,   0.0633345544338,  -0.1231276690960,  -0.3872607350349,   0.1707218587399,  -0.1237657442689,   0.0113419033587,   0.1401843428612,  -0.1298289299011,  -0.0648440420628,  -0.1580807864666,  -0.0592229515314,   0.0242392886430,  -0.1185600608587,  -0.0523653700948,   0.1086582168937,   0.2056477516890,   0.0041676969267,   0.2130995243788,   0.0596299842000,  -0.0387230664492,  -0.0004607518204,   0.0774122476578,   0.1292773485184,   0.0947160497308,   0.1712038218975,  -0.0044063450769,  -0.1378905028105,   0.1352771967649,   0.0720876455307,  -0.1737406998873,   0.0590717084706,  -0.2334715723991,   0.0479830279946,  -0.1547867357731,  -0.0716860964894,   0.1220817491412,  -0.1802999973297},
   {  -0.1298609226942,  -0.0411151051521,  -0.0925632193685,   0.2120997011662,   0.1378726363182,   0.1382158547640,   0.0752971023321,   0.1269304454327,  -0.0214557927102,  -0.0315190255642,   0.0384310670197,  -0.0151395769790,   0.2193669080734,  -0.1350208818913,  -0.0115984557196,  -0.0363400280476,  -0.1459121406078,   0.1000840961933,  -0.0415077395737,   0.0521814636886,   0.0214667264372,   0.1349523663521,   0.0950774028897,   0.0781462863088,   0.0390764437616,  -0.0884016975760,  -0.0343565270305,   0.0796044245362,  -0.0658500269055,  -0.0955843776464,   0.1075903400779,  -0.0933236032724,  -0.0727693140507,  -0.0005352192093,  -0.1897747218609,  -0.0669747218490,  -0.1239186525345,  -0.1091528981924,  -0.1454752087593,   0.1449434608221,  -0.1212450414896,   0.2025509029627,   0.1160406395793,   0.0162833090872,  -0.0600300431252,   0.0462590195239,   0.1712088137865,   0.0634177625179,   0.1555372178555,   0.1795777827501,  -0.0048283985816,   0.1150355115533,   0.2074434161186,   0.0120398290455,   0.0137420892715,  -0.1017438694835,   0.1419989019632,   0.1999831646681,   0.2085551172495,   0.1052646413445},
   {   0.1626239418983,  -0.1091162487864,   0.1427579224110,  -0.1598909199238,  -0.1407410800457,   0.0545894354582,   0.1986209899187,  -0.0342250466347,   0.2176285237074,   0.1386640965939,   0.1156374216080,  -0.1485321819782,   0.0497805215418,  -0.0855449810624,   0.1279358565807,   0.0354619212449,  -0.1362872272730,   0.1245597302914,  -0.0931307300925,   0.0798423737288,   0.0156661011279,  -0.0967829152942,   0.1493124514818,   0.0006690318696,   0.0383999980986,   0.0265567526221,  -0.0892470777035,  -0.1073723658919,   0.0686296820641,  -0.1478478014469,  -0.1363855302334,   0.0902459770441,  -0.1149750128388,  -0.1046516448259,   0.1054062992334,  -0.0861731544137,   0.0030532807577,  -0.1014872491360,   0.1464792490005,  -0.0301375146955,  -0.1882461011410,  -0.2005605101585,   0.0447384417057,   0.0875777676702,  -0.0712939351797,  -0.1166457235813,   0.0227552559227,  -0.0701568201184,  -0.0691247284412,  -0.0742475613952,   0.1890517324209,  -0.0514144338667,   0.0028652064502,   0.1974055618048,  -0.2259573340416,   0.1867845356464,   0.0676274821162,  -0.0667223110795,  -0.1076023653150,   0.0996204540133},
   {  -0.1434790194035,   0.1892112642527,   0.0184979774058,  -0.1169948130846,   0.1399860531092,   0.0741535723209,  -0.0125181758776,   0.0073034628294,   0.1433368921280,  -0.1688179224730,   0.0898555293679,   0.0485784932971,  -0.1464869827032,   0.1196222156286,  -0.3583536446095,   0.0337608866394,   0.1304144561291,   0.1343004405499,   0.0691477060318,  -0.0090178595856,   0.1120004653931,   0.1233401373029,   0.1194375976920,  -0.0541471019387,  -0.0626430809498,  -0.0329143479466,   0.0493972711265,  -0.0817306414247,   0.1123296394944,   0.0417502969503,   0.0711261034012,   0.1901101171970,  -0.0680707246065,  -0.0386786423624,   0.1351066976786,  -0.0410874001682,  -0.1302473694086,  -0.0090306196362,  -0.1315336674452,   0.2373513728380,   0.1051629632711,   0.2137572169304,   0.0378522053361,  -0.0099831800908,  -0.2000987678766,  -0.1545313894749,   0.1236477419734,   0.0222494509071,  -0.1366128325462,  -0.1342338472605,  -0.1295922845602,   0.0363860130310,   0.1920453459024,  -0.0672754272819,  -0.0058590671979,  -0.1400569975376,  -0.0184621028602,   0.0186348818243,   0.1503059715033,  -0.1364932656288},
   {  -0.0866238549352,  -0.0388832353055,  -0.1548522263765,   0.2055695205927,  -0.0400835797191,  -0.1418485343456,  -0.0222419463098,  -0.0042887702584,   0.2948471605778,   0.2067141532898,  -0.0071811401285,   0.0897949635983,  -0.0191602017730,  -0.0490626879036,  -0.1338366419077,   0.1632744073868,  -0.0691503137350,   0.1495660096407,   0.0524644479156,   0.0143978064880,  -0.0114346612245,   0.1730977743864,  -0.0286048557609,   0.0276755448431,  -0.0594139955938,  -0.0738232508302,  -0.0543156415224,   0.1610912680626,   0.1303930580616,   0.0407005883753,  -0.1667573750019,   0.1140960901976,  -0.1665441244841,   0.1101483255625,   0.0601861923933,  -0.1185978129506,  -0.1645722389221,   0.0686613693833,  -0.0485558174551,   0.1438302248716,  -0.0491920188069,   0.1112499311566,   0.0771207883954,  -0.1636413931847,  -0.1033943369985,   0.0061258208007,  -0.0525528639555,   0.0534633547068,  -0.0121685462072,   0.1406462639570,   0.0699627473950,  -0.1153609976172,  -0.0869200080633,  -0.0131340324879,  -0.3303112685680,  -0.0102816503495,   0.2512301504612,  -0.1305398792028,  -0.0673735961318,  -0.0553171597421},
   {  -0.1872292906046,   0.0248363576829,   0.0055940104648,  -0.0034662999678,  -0.0535891018808,  -0.1585641056299,   0.1592548936605,   0.0105228647590,  -0.1405052691698,   0.1302236169577,  -0.1489757448435,   0.0924174413085,   0.0429701730609,  -0.1416574567556,  -0.0544761978090,   0.0842168107629,   0.1594614386559,  -0.1162235736847,  -0.1516965776682,   0.0305678453296,  -0.0177322495729,  -0.0550751946867,  -0.1994258314371,   0.0748999491334,  -0.0265089496970,   0.1134753823280,   0.0267129521817,  -0.0023985998705,  -0.1147787645459,  -0.1293657720089,   0.1857095509768,  -0.1234203726053,   0.0888725966215,   0.0465726703405,   0.1307652890682,  -0.1620719879866,  -0.0312267355621,  -0.1947553157806,   0.0848430022597,   0.1603388935328,  -0.1500701159239,   0.0713302716613,   0.0771857425570,  -0.1086154207587,   0.0886390656233,  -0.0728757604957,  -0.1385969221592,   0.1412094533443,  -0.2000872045755,   0.0421982258558,  -0.0625903308392,  -0.0696706697345,   0.0462232455611,   0.1159998551011,   0.1793812811375,   0.2512335479259,   0.0583049878478,   0.1549365073442,   0.1189493760467,   0.0439127683640},
   {   0.0224494189024,  -0.0497973337770,   0.0954197496176,  -0.1315314620733,  -0.0050532841124,   0.0150615535676,  -0.0803030729294,  -0.2561753690243,  -0.0634102225304,   0.0218108240515,  -0.0225604642183,   0.1162599399686,  -0.1679905802011,   0.0232907552272,   0.0331754088402,  -0.1357212513685,  -0.0351331308484,   0.0979531034827,  -0.0184238962829,  -0.1310899108648,   0.0386192128062,  -0.0632313862443,  -0.1266526430845,   0.0134676946327,   0.0893950462341,  -0.2154964804649,   0.1279985010624,  -0.1691306680441,  -0.0656656026840,   0.0264538843185,  -0.0008623583708,   0.1486079394817,  -0.1971189081669,   0.0398873016238,   0.0514718554914,  -0.1607011854649,  -0.1661365479231,  -0.0660998299718,   0.1648509502411,   0.0822778046131,   0.1179769411683,   0.1663823276758,   0.0424475334585,   0.1632157713175,  -0.2522564530373,  -0.1130112111568,   0.0002743206860,   0.0720359236002,   0.1159288510680,  -0.1084226146340,   0.0305580776185,  -0.0657581612468,  -0.1251417547464,  -0.0559134446084,  -0.0778329521418,  -0.1178875416517,   0.2161848396063,  -0.0617347136140,   0.0213834103197,  -0.0257072094828},
   {   0.1067999601364,   0.1248339563608,   0.0525784753263,   0.0414137654006,  -0.0144690535963,   0.0374783873558,  -0.1908982396126,   0.0312624834478,  -0.1901442110538,   0.1451865732670,  -0.1568740904331,   0.0023988664616,  -0.0627677366138,  -0.1033683046699,  -0.0727403610945,  -0.1146921291947,  -0.0769742280245,   0.1598299443722,  -0.0681485682726,   0.1384464502335,   0.1469809859991,  -0.0048806173727,   0.0324003845453,   0.1597075462341,  -0.0438452363014,  -0.1118729561567,   0.0277560949326,  -0.0757361352444,   0.0189048368484,  -0.0360256694257,   0.1771874576807,   0.2176700085402,   0.1721024513245,   0.0119119947776,  -0.0272263027728,   0.1282326281071,  -0.1593895405531,   0.1410994380713,   0.1885217130184,   0.1783249974251,   0.0226802174002,  -0.1652819663286,  -0.1043174937367,  -0.0669470131397,   0.0369320549071,  -0.0866486430168,   0.1642108112574,  -0.1614330708981,  -0.0510835945606,  -0.0671257004142,  -0.2146197408438,  -0.0461795032024,   0.0527402497828,   0.0820238590240,   0.0047912239097,  -0.0789904072881,  -0.1701273620129,  -0.1167958974838,   0.0931114703417,   0.0226049404591},
   {  -0.0970846116543,  -0.1515306085348,  -0.0697030276060,   0.0073741390370,  -0.0519909337163,  -0.0114595685154,  -0.2086238861084,   0.1238904669881,   0.1219900771976,   0.2230999916792,   0.0217692647129,   0.1896071732044,  -0.0621713548899,  -0.0915107429028,   0.0719918683171,  -0.0787465423346,   0.1155347302556,  -0.0540743283927,   0.1112263426185,  -0.0004510556755,   0.1451632827520,  -0.0061114197597,  -0.1227140948176,  -0.0165890716016,   0.1865527629852,   0.0001393376151,   0.1677139699459,   0.0166976545006,   0.0869213491678,   0.0494015961885,   0.1370587795973,  -0.0834669694304,  -0.1196513846517,  -0.2070703208447,  -0.1312939375639,   0.1674401909113,   0.1605569124222,  -0.0839200690389,   0.1429370343685,   0.2280143797398,  -0.0929604098201,   0.0727899000049,   0.1892059743404,  -0.1155009418726,   0.0020678979345,   0.0885153412819,   0.1879705339670,   0.0094669973478,  -0.1887398511171,  -0.0325435101986,   0.2441951483488,   0.0661265403032,  -0.0277694445103,   0.1285641491413,   0.0555383116007,  -0.0541631281376,  -0.0620631575584,   0.1817471981049,  -0.0141946524382,   0.1034848913550},
   {   0.1118978708982,  -0.1731790900230,  -0.1886073797941,  -0.1059755533934,   0.2288548946381,   0.1813156157732,   0.2025209218264,   0.0417984984815,   0.1714045256376,  -0.0780163034797,   0.1068896576762,   0.0398873314261,  -0.0758376643062,  -0.1876912564039,  -0.0672256723046,   0.1536128073931,  -0.0007418731111,   0.0497543103993,   0.1438547372818,  -0.1035827249289,  -0.0534644089639,  -0.0469223596156,   0.1858780533075,  -0.1871222257614,   0.0163987111300,  -0.3327826559544,  -0.0007251370698,   0.0487756468356,  -0.1970158815384,  -0.1184732168913,  -0.1183610185981,   0.0141913983971,  -0.0181402154267,  -0.0866462141275,  -0.0821808576584,  -0.0762747600675,   0.0369188413024,  -0.0365279093385,  -0.2185166180134,   0.1501279622316,   0.0936554372311,  -0.1337435692549,   0.1772921681404,  -0.0715596973896,  -0.1160279661417,   0.2486494928598,   0.0272732283920,   0.0111852167174,   0.1303779631853,   0.0355403944850,  -0.0268562380224,   0.0546106062829,  -0.0011002895189,  -0.0462163910270,  -0.2059796154499,   0.1870566755533,   0.1491117775440,   0.0674874410033,   0.0764309093356,   0.1406071484089},
   {   0.1308494955301,  -0.1072905883193,   0.1109242290258,   0.1415370255709,  -0.2030110657215,   0.0502672493458,   0.0325168743730,  -0.2007899880409,   0.0922250896692,   0.0042226617225,  -0.2238873541355,   0.0940041840076,  -0.0086450474337,  -0.0346975103021,  -0.0280869901180,   0.0486786626279,   0.1672278940678,  -0.0301620401442,  -0.0694469138980,   0.1380679756403,   0.0692577958107,  -0.0914348587394,  -0.0688661858439,   0.0503701157868,  -0.1297030895948,   0.1772448271513,  -0.0742013305426,  -0.0895371586084,  -0.1099379882216,   0.0539214462042,   0.1195122525096,  -0.0732474029064,   0.0518818870187,  -0.1407143324614,  -0.0809064954519,  -0.0028510624543,   0.0389603711665,  -0.1242704316974,  -0.0882445648313,   0.1265855580568,   0.0917796865106,  -0.0413168780506,   0.0791129022837,  -0.0064719081856,   0.0888112634420,  -0.0622091665864,  -0.0847206562757,  -0.2019012421370,  -0.1058270335197,  -0.0805830955505,   0.0081401709467,  -0.0981291532516,   0.0965215340257,  -0.0768474638462,   0.0663358271122,  -0.2056707143784,  -0.0567747764289,   0.1775387227535,   0.0584715716541,   0.1180373355746},
